digraph Tree {
node [shape=box] ;
0 [label="X[26] <= 498.5\ngini = 0.5\nsamples = 6170\nvalue = [4844, 4956]"] ;
1 [label="X[27] <= 309.5\ngini = 0.494\nsamples = 2475\nvalue = [2177, 1733]"] ;
0 -> 1 [labeldistance=2.5, labelangle=45, headlabel="True"] ;
2 [label="X[14] <= 5804.275\ngini = 0.46\nsamples = 452\nvalue = [456, 255]"] ;
1 -> 2 ;
3 [label="X[14] <= 78.0\ngini = 0.491\nsamples = 300\nvalue = [266, 204]"] ;
2 -> 3 ;
4 [label="X[21] <= 840.0\ngini = 0.278\nsamples = 5\nvalue = [2, 10]"] ;
3 -> 4 ;
5 [label="gini = 0.0\nsamples = 4\nvalue = [0, 10]"] ;
4 -> 5 ;
6 [label="gini = 0.0\nsamples = 1\nvalue = [2, 0]"] ;
4 -> 6 ;
7 [label="X[21] <= 18153.625\ngini = 0.488\nsamples = 295\nvalue = [264, 194]"] ;
3 -> 7 ;
8 [label="X[10] <= 984.5\ngini = 0.494\nsamples = 277\nvalue = [240, 191]"] ;
7 -> 8 ;
9 [label="X[11] <= 4849.0\ngini = 0.481\nsamples = 224\nvalue = [207, 139]"] ;
8 -> 9 ;
10 [label="X[18] <= 159.0\ngini = 0.486\nsamples = 219\nvalue = [196, 139]"] ;
9 -> 10 ;
11 [label="X[25] <= 49.5\ngini = 0.26\nsamples = 9\nvalue = [11, 2]"] ;
10 -> 11 ;
12 [label="X[9] <= 1053.5\ngini = 0.444\nsamples = 6\nvalue = [4, 2]"] ;
11 -> 12 ;
13 [label="X[0] <= 45.0\ngini = 0.32\nsamples = 5\nvalue = [4, 1]"] ;
12 -> 13 ;
14 [label="gini = 0.0\nsamples = 3\nvalue = [3, 0]"] ;
13 -> 14 ;
15 [label="X[24] <= 144.5\ngini = 0.5\nsamples = 2\nvalue = [1, 1]"] ;
13 -> 15 ;
16 [label="gini = 0.0\nsamples = 1\nvalue = [0, 1]"] ;
15 -> 16 ;
17 [label="gini = 0.0\nsamples = 1\nvalue = [1, 0]"] ;
15 -> 17 ;
18 [label="gini = 0.0\nsamples = 1\nvalue = [0, 1]"] ;
12 -> 18 ;
19 [label="gini = 0.0\nsamples = 3\nvalue = [7, 0]"] ;
11 -> 19 ;
20 [label="X[0] <= 324.0\ngini = 0.489\nsamples = 210\nvalue = [185, 137]"] ;
10 -> 20 ;
21 [label="X[21] <= 9067.0\ngini = 0.497\nsamples = 142\nvalue = [119, 103]"] ;
20 -> 21 ;
22 [label="X[23] <= 305.525\ngini = 0.491\nsamples = 133\nvalue = [116, 88]"] ;
21 -> 22 ;
23 [label="X[7] <= 179.0\ngini = 0.474\nsamples = 39\nvalue = [22, 35]"] ;
22 -> 23 ;
24 [label="X[15] <= 113.0\ngini = 0.42\nsamples = 33\nvalue = [15, 35]"] ;
23 -> 24 ;
25 [label="X[0] <= 29.0\ngini = 0.459\nsamples = 12\nvalue = [9, 5]"] ;
24 -> 25 ;
26 [label="X[19] <= 262.5\ngini = 0.375\nsamples = 4\nvalue = [1, 3]"] ;
25 -> 26 ;
27 [label="gini = 0.0\nsamples = 3\nvalue = [0, 3]"] ;
26 -> 27 ;
28 [label="gini = 0.0\nsamples = 1\nvalue = [1, 0]"] ;
26 -> 28 ;
29 [label="X[8] <= 190.5\ngini = 0.32\nsamples = 8\nvalue = [8, 2]"] ;
25 -> 29 ;
30 [label="X[14] <= 140.0\ngini = 0.198\nsamples = 7\nvalue = [8, 1]"] ;
29 -> 30 ;
31 [label="gini = 0.0\nsamples = 3\nvalue = [4, 0]"] ;
30 -> 31 ;
32 [label="X[23] <= 186.5\ngini = 0.32\nsamples = 4\nvalue = [4, 1]"] ;
30 -> 32 ;
33 [label="gini = 0.0\nsamples = 1\nvalue = [0, 1]"] ;
32 -> 33 ;
34 [label="gini = 0.0\nsamples = 3\nvalue = [4, 0]"] ;
32 -> 34 ;
35 [label="gini = 0.0\nsamples = 1\nvalue = [0, 1]"] ;
29 -> 35 ;
36 [label="X[23] <= 252.5\ngini = 0.278\nsamples = 21\nvalue = [6, 30]"] ;
24 -> 36 ;
37 [label="X[11] <= 92.0\ngini = 0.48\nsamples = 11\nvalue = [6, 9]"] ;
36 -> 37 ;
38 [label="X[18] <= 1633.0\ngini = 0.32\nsamples = 4\nvalue = [4, 1]"] ;
37 -> 38 ;
39 [label="gini = 0.0\nsamples = 3\nvalue = [4, 0]"] ;
38 -> 39 ;
40 [label="gini = 0.0\nsamples = 1\nvalue = [0, 1]"] ;
38 -> 40 ;
41 [label="X[6] <= 77.5\ngini = 0.32\nsamples = 7\nvalue = [2, 8]"] ;
37 -> 41 ;
42 [label="gini = 0.0\nsamples = 5\nvalue = [0, 8]"] ;
41 -> 42 ;
43 [label="gini = 0.0\nsamples = 2\nvalue = [2, 0]"] ;
41 -> 43 ;
44 [label="gini = 0.0\nsamples = 10\nvalue = [0, 21]"] ;
36 -> 44 ;
45 [label="gini = 0.0\nsamples = 6\nvalue = [7, 0]"] ;
23 -> 45 ;
46 [label="X[24] <= 312.025\ngini = 0.461\nsamples = 94\nvalue = [94, 53]"] ;
22 -> 46 ;
47 [label="X[9] <= 377.75\ngini = 0.444\nsamples = 87\nvalue = [92, 46]"] ;
46 -> 47 ;
48 [label="X[1] <= 16.5\ngini = 0.361\nsamples = 46\nvalue = [55, 17]"] ;
47 -> 48 ;
49 [label="X[19] <= 92.5\ngini = 0.39\nsamples = 38\nvalue = [47, 17]"] ;
48 -> 49 ;
50 [label="X[22] <= 288.5\ngini = 0.415\nsamples = 28\nvalue = [36, 15]"] ;
49 -> 50 ;
51 [label="X[22] <= 109.5\ngini = 0.386\nsamples = 24\nvalue = [34, 12]"] ;
50 -> 51 ;
52 [label="X[18] <= 1497.0\ngini = 0.397\nsamples = 23\nvalue = [32, 12]"] ;
51 -> 52 ;
53 [label="X[20] <= 394.25\ngini = 0.5\nsamples = 10\nvalue = [10, 10]"] ;
52 -> 53 ;
54 [label="gini = 0.0\nsamples = 2\nvalue = [5, 0]"] ;
53 -> 54 ;
55 [label="X[7] <= 99.5\ngini = 0.444\nsamples = 8\nvalue = [5, 10]"] ;
53 -> 55 ;
56 [label="X[23] <= 597.875\ngini = 0.494\nsamples = 6\nvalue = [5, 4]"] ;
55 -> 56 ;
57 [label="gini = 0.0\nsamples = 2\nvalue = [0, 4]"] ;
56 -> 57 ;
58 [label="gini = 0.0\nsamples = 4\nvalue = [5, 0]"] ;
56 -> 58 ;
59 [label="gini = 0.0\nsamples = 2\nvalue = [0, 6]"] ;
55 -> 59 ;
60 [label="X[20] <= 1022.0\ngini = 0.153\nsamples = 13\nvalue = [22, 2]"] ;
52 -> 60 ;
61 [label="X[11] <= 92.5\ngini = 0.278\nsamples = 4\nvalue = [5, 1]"] ;
60 -> 61 ;
62 [label="X[18] <= 2176.5\ngini = 0.32\nsamples = 3\nvalue = [4, 1]"] ;
61 -> 62 ;
63 [label="gini = 0.0\nsamples = 1\nvalue = [2, 0]"] ;
62 -> 63 ;
64 [label="X[18] <= 3785.5\ngini = 0.444\nsamples = 2\nvalue = [2, 1]"] ;
62 -> 64 ;
65 [label="gini = 0.0\nsamples = 1\nvalue = [0, 1]"] ;
64 -> 65 ;
66 [label="gini = 0.0\nsamples = 1\nvalue = [2, 0]"] ;
64 -> 66 ;
67 [label="gini = 0.0\nsamples = 1\nvalue = [1, 0]"] ;
61 -> 67 ;
68 [label="X[14] <= 3485.0\ngini = 0.105\nsamples = 9\nvalue = [17, 1]"] ;
60 -> 68 ;
69 [label="gini = 0.0\nsamples = 6\nvalue = [12, 0]"] ;
68 -> 69 ;
70 [label="X[23] <= 4327.5\ngini = 0.278\nsamples = 3\nvalue = [5, 1]"] ;
68 -> 70 ;
71 [label="gini = 0.0\nsamples = 1\nvalue = [0, 1]"] ;
70 -> 71 ;
72 [label="gini = 0.0\nsamples = 2\nvalue = [5, 0]"] ;
70 -> 72 ;
73 [label="gini = 0.0\nsamples = 1\nvalue = [2, 0]"] ;
51 -> 73 ;
74 [label="X[20] <= 2262.5\ngini = 0.48\nsamples = 4\nvalue = [2, 3]"] ;
50 -> 74 ;
75 [label="gini = 0.0\nsamples = 2\nvalue = [0, 3]"] ;
74 -> 75 ;
76 [label="gini = 0.0\nsamples = 2\nvalue = [2, 0]"] ;
74 -> 76 ;
77 [label="X[19] <= 412.83\ngini = 0.26\nsamples = 10\nvalue = [11, 2]"] ;
49 -> 77 ;
78 [label="gini = 0.0\nsamples = 5\nvalue = [8, 0]"] ;
77 -> 78 ;
79 [label="X[19] <= 667.5\ngini = 0.48\nsamples = 5\nvalue = [3, 2]"] ;
77 -> 79 ;
80 [label="X[20] <= 435.5\ngini = 0.444\nsamples = 3\nvalue = [1, 2]"] ;
79 -> 80 ;
81 [label="gini = 0.0\nsamples = 1\nvalue = [0, 1]"] ;
80 -> 81 ;
82 [label="X[21] <= 1305.0\ngini = 0.5\nsamples = 2\nvalue = [1, 1]"] ;
80 -> 82 ;
83 [label="gini = 0.0\nsamples = 1\nvalue = [1, 0]"] ;
82 -> 83 ;
84 [label="gini = 0.0\nsamples = 1\nvalue = [0, 1]"] ;
82 -> 84 ;
85 [label="gini = 0.0\nsamples = 2\nvalue = [2, 0]"] ;
79 -> 85 ;
86 [label="gini = 0.0\nsamples = 8\nvalue = [8, 0]"] ;
48 -> 86 ;
87 [label="X[10] <= 559.0\ngini = 0.493\nsamples = 41\nvalue = [37, 29]"] ;
47 -> 87 ;
88 [label="X[11] <= 494.5\ngini = 0.474\nsamples = 36\nvalue = [35, 22]"] ;
87 -> 88 ;
89 [label="X[18] <= 533.0\ngini = 0.198\nsamples = 5\nvalue = [1, 8]"] ;
88 -> 89 ;
90 [label="gini = 0.0\nsamples = 1\nvalue = [1, 0]"] ;
89 -> 90 ;
91 [label="gini = 0.0\nsamples = 4\nvalue = [0, 8]"] ;
89 -> 91 ;
92 [label="X[15] <= 1561.025\ngini = 0.413\nsamples = 31\nvalue = [34, 14]"] ;
88 -> 92 ;
93 [label="X[0] <= 222.0\ngini = 0.231\nsamples = 19\nvalue = [26, 4]"] ;
92 -> 93 ;
94 [label="X[14] <= 642.0\ngini = 0.074\nsamples = 16\nvalue = [25, 1]"] ;
93 -> 94 ;
95 [label="X[14] <= 549.5\ngini = 0.245\nsamples = 4\nvalue = [6, 1]"] ;
94 -> 95 ;
96 [label="gini = 0.0\nsamples = 3\nvalue = [6, 0]"] ;
95 -> 96 ;
97 [label="gini = 0.0\nsamples = 1\nvalue = [0, 1]"] ;
95 -> 97 ;
98 [label="gini = 0.0\nsamples = 12\nvalue = [19, 0]"] ;
94 -> 98 ;
99 [label="X[23] <= 1058.5\ngini = 0.375\nsamples = 3\nvalue = [1, 3]"] ;
93 -> 99 ;
100 [label="gini = 0.0\nsamples = 1\nvalue = [1, 0]"] ;
99 -> 100 ;
101 [label="gini = 0.0\nsamples = 2\nvalue = [0, 3]"] ;
99 -> 101 ;
102 [label="X[13] <= 69.5\ngini = 0.494\nsamples = 12\nvalue = [8, 10]"] ;
92 -> 102 ;
103 [label="X[22] <= 184.5\ngini = 0.408\nsamples = 11\nvalue = [4, 10]"] ;
102 -> 103 ;
104 [label="X[18] <= 3126.25\ngini = 0.219\nsamples = 6\nvalue = [1, 7]"] ;
103 -> 104 ;
105 [label="X[14] <= 2372.0\ngini = 0.444\nsamples = 2\nvalue = [1, 2]"] ;
104 -> 105 ;
106 [label="gini = 0.0\nsamples = 1\nvalue = [0, 2]"] ;
105 -> 106 ;
107 [label="gini = 0.0\nsamples = 1\nvalue = [1, 0]"] ;
105 -> 107 ;
108 [label="gini = 0.0\nsamples = 4\nvalue = [0, 5]"] ;
104 -> 108 ;
109 [label="X[21] <= 5807.875\ngini = 0.5\nsamples = 5\nvalue = [3, 3]"] ;
103 -> 109 ;
110 [label="gini = 0.0\nsamples = 3\nvalue = [0, 3]"] ;
109 -> 110 ;
111 [label="gini = 0.0\nsamples = 2\nvalue = [3, 0]"] ;
109 -> 111 ;
112 [label="gini = 0.0\nsamples = 1\nvalue = [4, 0]"] ;
102 -> 112 ;
113 [label="X[19] <= 847.5\ngini = 0.346\nsamples = 5\nvalue = [2, 7]"] ;
87 -> 113 ;
114 [label="gini = 0.0\nsamples = 3\nvalue = [0, 6]"] ;
113 -> 114 ;
115 [label="X[22] <= 193.5\ngini = 0.444\nsamples = 2\nvalue = [2, 1]"] ;
113 -> 115 ;
116 [label="gini = 0.0\nsamples = 1\nvalue = [2, 0]"] ;
115 -> 116 ;
117 [label="gini = 0.0\nsamples = 1\nvalue = [0, 1]"] ;
115 -> 117 ;
118 [label="X[9] <= 629.0\ngini = 0.346\nsamples = 7\nvalue = [2, 7]"] ;
46 -> 118 ;
119 [label="gini = 0.0\nsamples = 5\nvalue = [0, 7]"] ;
118 -> 119 ;
120 [label="gini = 0.0\nsamples = 2\nvalue = [2, 0]"] ;
118 -> 120 ;
121 [label="X[16] <= 89.225\ngini = 0.278\nsamples = 9\nvalue = [3, 15]"] ;
21 -> 121 ;
122 [label="X[9] <= 609.5\ngini = 0.208\nsamples = 8\nvalue = [2, 15]"] ;
121 -> 122 ;
123 [label="gini = 0.0\nsamples = 5\nvalue = [0, 11]"] ;
122 -> 123 ;
124 [label="X[21] <= 11963.0\ngini = 0.444\nsamples = 3\nvalue = [2, 4]"] ;
122 -> 124 ;
125 [label="gini = 0.0\nsamples = 2\nvalue = [0, 4]"] ;
124 -> 125 ;
126 [label="gini = 0.0\nsamples = 1\nvalue = [2, 0]"] ;
124 -> 126 ;
127 [label="gini = 0.0\nsamples = 1\nvalue = [1, 0]"] ;
121 -> 127 ;
128 [label="X[29] <= 1351.0\ngini = 0.449\nsamples = 68\nvalue = [66, 34]"] ;
20 -> 128 ;
129 [label="X[18] <= 282.0\ngini = 0.382\nsamples = 44\nvalue = [49, 17]"] ;
128 -> 129 ;
130 [label="gini = 0.0\nsamples = 1\nvalue = [0, 2]"] ;
129 -> 130 ;
131 [label="X[24] <= 865.0\ngini = 0.359\nsamples = 43\nvalue = [49, 15]"] ;
129 -> 131 ;
132 [label="X[0] <= 398.5\ngini = 0.397\nsamples = 37\nvalue = [40, 15]"] ;
131 -> 132 ;
133 [label="X[1] <= 60.323\ngini = 0.105\nsamples = 12\nvalue = [17, 1]"] ;
132 -> 133 ;
134 [label="X[14] <= 350.5\ngini = 0.32\nsamples = 3\nvalue = [4, 1]"] ;
133 -> 134 ;
135 [label="gini = 0.0\nsamples = 2\nvalue = [4, 0]"] ;
134 -> 135 ;
136 [label="gini = 0.0\nsamples = 1\nvalue = [0, 1]"] ;
134 -> 136 ;
137 [label="gini = 0.0\nsamples = 9\nvalue = [13, 0]"] ;
133 -> 137 ;
138 [label="X[1] <= 105.633\ngini = 0.47\nsamples = 25\nvalue = [23, 14]"] ;
132 -> 138 ;
139 [label="X[9] <= 493.0\ngini = 0.49\nsamples = 10\nvalue = [6, 8]"] ;
138 -> 139 ;
140 [label="X[7] <= 194.0\ngini = 0.375\nsamples = 5\nvalue = [6, 2]"] ;
139 -> 140 ;
141 [label="gini = 0.0\nsamples = 3\nvalue = [6, 0]"] ;
140 -> 141 ;
142 [label="gini = 0.0\nsamples = 2\nvalue = [0, 2]"] ;
140 -> 142 ;
143 [label="gini = 0.0\nsamples = 5\nvalue = [0, 6]"] ;
139 -> 143 ;
144 [label="X[24] <= 819.5\ngini = 0.386\nsamples = 15\nvalue = [17, 6]"] ;
138 -> 144 ;
145 [label="X[7] <= 199.5\ngini = 0.308\nsamples = 14\nvalue = [17, 4]"] ;
144 -> 145 ;
146 [label="X[1] <= 171.254\ngini = 0.124\nsamples = 9\nvalue = [14, 1]"] ;
145 -> 146 ;
147 [label="gini = 0.0\nsamples = 7\nvalue = [12, 0]"] ;
146 -> 147 ;
148 [label="X[18] <= 585.5\ngini = 0.444\nsamples = 2\nvalue = [2, 1]"] ;
146 -> 148 ;
149 [label="gini = 0.0\nsamples = 1\nvalue = [2, 0]"] ;
148 -> 149 ;
150 [label="gini = 0.0\nsamples = 1\nvalue = [0, 1]"] ;
148 -> 150 ;
151 [label="X[4] <= 89.5\ngini = 0.5\nsamples = 5\nvalue = [3, 3]"] ;
145 -> 151 ;
152 [label="X[22] <= 192.5\ngini = 0.375\nsamples = 3\nvalue = [3, 1]"] ;
151 -> 152 ;
153 [label="gini = 0.0\nsamples = 2\nvalue = [3, 0]"] ;
152 -> 153 ;
154 [label="gini = 0.0\nsamples = 1\nvalue = [0, 1]"] ;
152 -> 154 ;
155 [label="gini = 0.0\nsamples = 2\nvalue = [0, 2]"] ;
151 -> 155 ;
156 [label="gini = 0.0\nsamples = 1\nvalue = [0, 2]"] ;
144 -> 156 ;
157 [label="gini = 0.0\nsamples = 6\nvalue = [9, 0]"] ;
131 -> 157 ;
158 [label="X[7] <= 715.0\ngini = 0.5\nsamples = 24\nvalue = [17, 17]"] ;
128 -> 158 ;
159 [label="X[24] <= 1638.125\ngini = 0.423\nsamples = 15\nvalue = [7, 16]"] ;
158 -> 159 ;
160 [label="X[10] <= 279.0\ngini = 0.18\nsamples = 5\nvalue = [1, 9]"] ;
159 -> 160 ;
161 [label="gini = 0.0\nsamples = 4\nvalue = [0, 9]"] ;
160 -> 161 ;
162 [label="gini = 0.0\nsamples = 1\nvalue = [1, 0]"] ;
160 -> 162 ;
163 [label="X[20] <= 2915.5\ngini = 0.497\nsamples = 10\nvalue = [6, 7]"] ;
159 -> 163 ;
164 [label="gini = 0.0\nsamples = 4\nvalue = [4, 0]"] ;
163 -> 164 ;
165 [label="X[15] <= 3440.75\ngini = 0.346\nsamples = 6\nvalue = [2, 7]"] ;
163 -> 165 ;
166 [label="gini = 0.0\nsamples = 3\nvalue = [0, 6]"] ;
165 -> 166 ;
167 [label="X[22] <= 95.0\ngini = 0.444\nsamples = 3\nvalue = [2, 1]"] ;
165 -> 167 ;
168 [label="gini = 0.0\nsamples = 1\nvalue = [0, 1]"] ;
167 -> 168 ;
169 [label="gini = 0.0\nsamples = 2\nvalue = [2, 0]"] ;
167 -> 169 ;
170 [label="X[24] <= 1414.75\ngini = 0.165\nsamples = 9\nvalue = [10, 1]"] ;
158 -> 170 ;
171 [label="gini = 0.0\nsamples = 1\nvalue = [0, 1]"] ;
170 -> 171 ;
172 [label="gini = 0.0\nsamples = 8\nvalue = [10, 0]"] ;
170 -> 172 ;
173 [label="gini = 0.0\nsamples = 5\nvalue = [11, 0]"] ;
9 -> 173 ;
174 [label="X[29] <= 4731.5\ngini = 0.475\nsamples = 53\nvalue = [33, 52]"] ;
8 -> 174 ;
175 [label="X[1] <= 2.0\ngini = 0.444\nsamples = 49\nvalue = [26, 52]"] ;
174 -> 175 ;
176 [label="X[10] <= 1062.0\ngini = 0.499\nsamples = 19\nvalue = [16, 15]"] ;
175 -> 176 ;
177 [label="gini = 0.0\nsamples = 1\nvalue = [0, 4]"] ;
176 -> 177 ;
178 [label="X[18] <= 2034.0\ngini = 0.483\nsamples = 18\nvalue = [16, 11]"] ;
176 -> 178 ;
179 [label="X[23] <= 1187.375\ngini = 0.245\nsamples = 4\nvalue = [6, 1]"] ;
178 -> 179 ;
180 [label="X[22] <= 37.5\ngini = 0.444\nsamples = 2\nvalue = [2, 1]"] ;
179 -> 180 ;
181 [label="gini = 0.0\nsamples = 1\nvalue = [0, 1]"] ;
180 -> 181 ;
182 [label="gini = 0.0\nsamples = 1\nvalue = [2, 0]"] ;
180 -> 182 ;
183 [label="gini = 0.0\nsamples = 2\nvalue = [4, 0]"] ;
179 -> 183 ;
184 [label="X[11] <= 190.0\ngini = 0.5\nsamples = 14\nvalue = [10, 10]"] ;
178 -> 184 ;
185 [label="X[20] <= 3678.025\ngini = 0.245\nsamples = 6\nvalue = [6, 1]"] ;
184 -> 185 ;
186 [label="gini = 0.0\nsamples = 4\nvalue = [5, 0]"] ;
185 -> 186 ;
187 [label="X[14] <= 4444.085\ngini = 0.5\nsamples = 2\nvalue = [1, 1]"] ;
185 -> 187 ;
188 [label="gini = 0.0\nsamples = 1\nvalue = [0, 1]"] ;
187 -> 188 ;
189 [label="gini = 0.0\nsamples = 1\nvalue = [1, 0]"] ;
187 -> 189 ;
190 [label="X[15] <= 39.0\ngini = 0.426\nsamples = 8\nvalue = [4, 9]"] ;
184 -> 190 ;
191 [label="X[22] <= 271.5\ngini = 0.48\nsamples = 7\nvalue = [4, 6]"] ;
190 -> 191 ;
192 [label="X[23] <= 4203.0\ngini = 0.375\nsamples = 6\nvalue = [2, 6]"] ;
191 -> 192 ;
193 [label="X[7] <= 247.0\ngini = 0.245\nsamples = 5\nvalue = [1, 6]"] ;
192 -> 193 ;
194 [label="gini = 0.0\nsamples = 2\nvalue = [0, 3]"] ;
193 -> 194 ;
195 [label="X[20] <= 2641.5\ngini = 0.375\nsamples = 3\nvalue = [1, 3]"] ;
193 -> 195 ;
196 [label="X[10] <= 1789.0\ngini = 0.5\nsamples = 2\nvalue = [1, 1]"] ;
195 -> 196 ;
197 [label="gini = 0.0\nsamples = 1\nvalue = [0, 1]"] ;
196 -> 197 ;
198 [label="gini = 0.0\nsamples = 1\nvalue = [1, 0]"] ;
196 -> 198 ;
199 [label="gini = 0.0\nsamples = 1\nvalue = [0, 2]"] ;
195 -> 199 ;
200 [label="gini = 0.0\nsamples = 1\nvalue = [1, 0]"] ;
192 -> 200 ;
201 [label="gini = 0.0\nsamples = 1\nvalue = [2, 0]"] ;
191 -> 201 ;
202 [label="gini = 0.0\nsamples = 1\nvalue = [0, 3]"] ;
190 -> 202 ;
203 [label="X[0] <= 225.5\ngini = 0.335\nsamples = 30\nvalue = [10, 37]"] ;
175 -> 203 ;
204 [label="gini = 0.0\nsamples = 5\nvalue = [0, 12]"] ;
203 -> 204 ;
205 [label="X[18] <= 1335.0\ngini = 0.408\nsamples = 25\nvalue = [10, 25]"] ;
203 -> 205 ;
206 [label="gini = 0.0\nsamples = 4\nvalue = [0, 8]"] ;
205 -> 206 ;
207 [label="X[4] <= 343.5\ngini = 0.466\nsamples = 21\nvalue = [10, 17]"] ;
205 -> 207 ;
208 [label="X[21] <= 10788.5\ngini = 0.453\nsamples = 20\nvalue = [9, 17]"] ;
207 -> 208 ;
209 [label="X[15] <= 459.5\ngini = 0.495\nsamples = 16\nvalue = [9, 11]"] ;
208 -> 209 ;
210 [label="X[6] <= 167.0\ngini = 0.457\nsamples = 13\nvalue = [6, 11]"] ;
209 -> 210 ;
211 [label="X[0] <= 3778.5\ngini = 0.43\nsamples = 12\nvalue = [5, 11]"] ;
210 -> 211 ;
212 [label="X[1] <= 595.662\ngini = 0.391\nsamples = 11\nvalue = [4, 11]"] ;
211 -> 212 ;
213 [label="X[0] <= 1116.0\ngini = 0.494\nsamples = 7\nvalue = [4, 5]"] ;
212 -> 213 ;
214 [label="X[9] <= 1284.5\ngini = 0.278\nsamples = 4\nvalue = [1, 5]"] ;
213 -> 214 ;
215 [label="gini = 0.0\nsamples = 3\nvalue = [0, 5]"] ;
214 -> 215 ;
216 [label="gini = 0.0\nsamples = 1\nvalue = [1, 0]"] ;
214 -> 216 ;
217 [label="gini = 0.0\nsamples = 3\nvalue = [3, 0]"] ;
213 -> 217 ;
218 [label="gini = 0.0\nsamples = 4\nvalue = [0, 6]"] ;
212 -> 218 ;
219 [label="gini = 0.0\nsamples = 1\nvalue = [1, 0]"] ;
211 -> 219 ;
220 [label="gini = 0.0\nsamples = 1\nvalue = [1, 0]"] ;
210 -> 220 ;
221 [label="gini = 0.0\nsamples = 3\nvalue = [3, 0]"] ;
209 -> 221 ;
222 [label="gini = 0.0\nsamples = 4\nvalue = [0, 6]"] ;
208 -> 222 ;
223 [label="gini = 0.0\nsamples = 1\nvalue = [1, 0]"] ;
207 -> 223 ;
224 [label="gini = 0.0\nsamples = 4\nvalue = [7, 0]"] ;
174 -> 224 ;
225 [label="X[19] <= 5307.125\ngini = 0.198\nsamples = 18\nvalue = [24, 3]"] ;
7 -> 225 ;
226 [label="X[2] <= 0.5\ngini = 0.077\nsamples = 17\nvalue = [24, 1]"] ;
225 -> 226 ;
227 [label="gini = 0.0\nsamples = 1\nvalue = [0, 1]"] ;
226 -> 227 ;
228 [label="gini = 0.0\nsamples = 16\nvalue = [24, 0]"] ;
226 -> 228 ;
229 [label="gini = 0.0\nsamples = 1\nvalue = [0, 2]"] ;
225 -> 229 ;
230 [label="X[15] <= 8996.0\ngini = 0.334\nsamples = 152\nvalue = [190, 51]"] ;
2 -> 230 ;
231 [label="X[24] <= 12438.5\ngini = 0.264\nsamples = 107\nvalue = [151, 28]"] ;
230 -> 231 ;
232 [label="X[15] <= 2104.55\ngini = 0.228\nsamples = 100\nvalue = [146, 22]"] ;
231 -> 232 ;
233 [label="X[16] <= 386.55\ngini = 0.282\nsamples = 75\nvalue = [98, 20]"] ;
232 -> 233 ;
234 [label="X[15] <= 1648.0\ngini = 0.302\nsamples = 69\nvalue = [88, 20]"] ;
233 -> 234 ;
235 [label="X[1] <= 153.667\ngini = 0.271\nsamples = 67\nvalue = [88, 17]"] ;
234 -> 235 ;
236 [label="X[9] <= 8550.5\ngini = 0.296\nsamples = 62\nvalue = [77, 17]"] ;
235 -> 236 ;
237 [label="X[4] <= 139.5\ngini = 0.249\nsamples = 59\nvalue = [76, 13]"] ;
236 -> 237 ;
238 [label="X[20] <= 6201.0\ngini = 0.257\nsamples = 58\nvalue = [73, 13]"] ;
237 -> 238 ;
239 [label="X[11] <= 6535.55\ngini = 0.5\nsamples = 2\nvalue = [1, 1]"] ;
238 -> 239 ;
240 [label="gini = 0.0\nsamples = 1\nvalue = [1, 0]"] ;
239 -> 240 ;
241 [label="gini = 0.0\nsamples = 1\nvalue = [0, 1]"] ;
239 -> 241 ;
242 [label="X[23] <= 3170.5\ngini = 0.245\nsamples = 56\nvalue = [72, 12]"] ;
238 -> 242 ;
243 [label="X[21] <= 27190.199\ngini = 0.284\nsamples = 48\nvalue = [58, 12]"] ;
242 -> 243 ;
244 [label="X[27] <= 104.5\ngini = 0.236\nsamples = 45\nvalue = [57, 9]"] ;
243 -> 244 ;
245 [label="X[21] <= 2040.0\ngini = 0.242\nsamples = 44\nvalue = [55, 9]"] ;
244 -> 245 ;
246 [label="X[18] <= 469.5\ngini = 0.365\nsamples = 17\nvalue = [19, 6]"] ;
245 -> 246 ;
247 [label="X[21] <= 187.0\ngini = 0.124\nsamples = 9\nvalue = [14, 1]"] ;
246 -> 247 ;
248 [label="X[21] <= 157.5\ngini = 0.245\nsamples = 4\nvalue = [6, 1]"] ;
247 -> 248 ;
249 [label="gini = 0.0\nsamples = 3\nvalue = [6, 0]"] ;
248 -> 249 ;
250 [label="gini = 0.0\nsamples = 1\nvalue = [0, 1]"] ;
248 -> 250 ;
251 [label="gini = 0.0\nsamples = 5\nvalue = [8, 0]"] ;
247 -> 251 ;
252 [label="X[21] <= 590.0\ngini = 0.5\nsamples = 8\nvalue = [5, 5]"] ;
246 -> 252 ;
253 [label="gini = 0.0\nsamples = 1\nvalue = [0, 2]"] ;
252 -> 253 ;
254 [label="X[18] <= 978.875\ngini = 0.469\nsamples = 7\nvalue = [5, 3]"] ;
252 -> 254 ;
255 [label="gini = 0.0\nsamples = 3\nvalue = [3, 0]"] ;
254 -> 255 ;
256 [label="X[21] <= 1299.0\ngini = 0.48\nsamples = 4\nvalue = [2, 3]"] ;
254 -> 256 ;
257 [label="gini = 0.0\nsamples = 2\nvalue = [0, 2]"] ;
256 -> 257 ;
258 [label="X[21] <= 1637.5\ngini = 0.444\nsamples = 2\nvalue = [2, 1]"] ;
256 -> 258 ;
259 [label="gini = 0.0\nsamples = 1\nvalue = [2, 0]"] ;
258 -> 259 ;
260 [label="gini = 0.0\nsamples = 1\nvalue = [0, 1]"] ;
258 -> 260 ;
261 [label="X[21] <= 15965.525\ngini = 0.142\nsamples = 27\nvalue = [36, 3]"] ;
245 -> 261 ;
262 [label="X[21] <= 6853.0\ngini = 0.114\nsamples = 22\nvalue = [31, 2]"] ;
261 -> 262 ;
263 [label="X[21] <= 6736.0\ngini = 0.198\nsamples = 14\nvalue = [16, 2]"] ;
262 -> 263 ;
264 [label="X[21] <= 3480.025\ngini = 0.111\nsamples = 13\nvalue = [16, 1]"] ;
263 -> 264 ;
265 [label="X[18] <= 3368.0\ngini = 0.245\nsamples = 6\nvalue = [6, 1]"] ;
264 -> 265 ;
266 [label="gini = 0.0\nsamples = 5\nvalue = [6, 0]"] ;
265 -> 266 ;
267 [label="gini = 0.0\nsamples = 1\nvalue = [0, 1]"] ;
265 -> 267 ;
268 [label="gini = 0.0\nsamples = 7\nvalue = [10, 0]"] ;
264 -> 268 ;
269 [label="gini = 0.0\nsamples = 1\nvalue = [0, 1]"] ;
263 -> 269 ;
270 [label="gini = 0.0\nsamples = 8\nvalue = [15, 0]"] ;
262 -> 270 ;
271 [label="X[18] <= 17594.5\ngini = 0.278\nsamples = 5\nvalue = [5, 1]"] ;
261 -> 271 ;
272 [label="X[18] <= 15766.5\ngini = 0.5\nsamples = 2\nvalue = [1, 1]"] ;
271 -> 272 ;
273 [label="gini = 0.0\nsamples = 1\nvalue = [1, 0]"] ;
272 -> 273 ;
274 [label="gini = 0.0\nsamples = 1\nvalue = [0, 1]"] ;
272 -> 274 ;
275 [label="gini = 0.0\nsamples = 3\nvalue = [4, 0]"] ;
271 -> 275 ;
276 [label="gini = 0.0\nsamples = 1\nvalue = [2, 0]"] ;
244 -> 276 ;
277 [label="X[18] <= 32066.375\ngini = 0.375\nsamples = 3\nvalue = [1, 3]"] ;
243 -> 277 ;
278 [label="gini = 0.0\nsamples = 2\nvalue = [0, 3]"] ;
277 -> 278 ;
279 [label="gini = 0.0\nsamples = 1\nvalue = [1, 0]"] ;
277 -> 279 ;
280 [label="gini = 0.0\nsamples = 8\nvalue = [14, 0]"] ;
242 -> 280 ;
281 [label="gini = 0.0\nsamples = 1\nvalue = [3, 0]"] ;
237 -> 281 ;
282 [label="X[7] <= 173.5\ngini = 0.32\nsamples = 3\nvalue = [1, 4]"] ;
236 -> 282 ;
283 [label="gini = 0.0\nsamples = 2\nvalue = [0, 4]"] ;
282 -> 283 ;
284 [label="gini = 0.0\nsamples = 1\nvalue = [1, 0]"] ;
282 -> 284 ;
285 [label="gini = 0.0\nsamples = 5\nvalue = [11, 0]"] ;
235 -> 285 ;
286 [label="gini = 0.0\nsamples = 2\nvalue = [0, 3]"] ;
234 -> 286 ;
287 [label="gini = 0.0\nsamples = 6\nvalue = [10, 0]"] ;
233 -> 287 ;
288 [label="X[10] <= 119.5\ngini = 0.077\nsamples = 25\nvalue = [48, 2]"] ;
232 -> 288 ;
289 [label="X[23] <= 6215.0\ngini = 0.172\nsamples = 11\nvalue = [19, 2]"] ;
288 -> 289 ;
290 [label="X[14] <= 6087.5\ngini = 0.5\nsamples = 2\nvalue = [1, 1]"] ;
289 -> 290 ;
291 [label="gini = 0.0\nsamples = 1\nvalue = [1, 0]"] ;
290 -> 291 ;
292 [label="gini = 0.0\nsamples = 1\nvalue = [0, 1]"] ;
290 -> 292 ;
293 [label="X[16] <= 397.5\ngini = 0.1\nsamples = 9\nvalue = [18, 1]"] ;
289 -> 293 ;
294 [label="gini = 0.0\nsamples = 8\nvalue = [18, 0]"] ;
293 -> 294 ;
295 [label="gini = 0.0\nsamples = 1\nvalue = [0, 1]"] ;
293 -> 295 ;
296 [label="gini = 0.0\nsamples = 14\nvalue = [29, 0]"] ;
288 -> 296 ;
297 [label="X[8] <= 1391.0\ngini = 0.496\nsamples = 7\nvalue = [5, 6]"] ;
231 -> 297 ;
298 [label="X[20] <= 28294.1\ngini = 0.408\nsamples = 5\nvalue = [5, 2]"] ;
297 -> 298 ;
299 [label="X[16] <= 1000.0\ngini = 0.444\nsamples = 3\nvalue = [1, 2]"] ;
298 -> 299 ;
300 [label="gini = 0.0\nsamples = 1\nvalue = [1, 0]"] ;
299 -> 300 ;
301 [label="gini = 0.0\nsamples = 2\nvalue = [0, 2]"] ;
299 -> 301 ;
302 [label="gini = 0.0\nsamples = 2\nvalue = [4, 0]"] ;
298 -> 302 ;
303 [label="gini = 0.0\nsamples = 2\nvalue = [0, 4]"] ;
297 -> 303 ;
304 [label="X[0] <= 3786.354\ngini = 0.467\nsamples = 45\nvalue = [39, 23]"] ;
230 -> 304 ;
305 [label="X[11] <= 10071.0\ngini = 0.332\nsamples = 27\nvalue = [30, 8]"] ;
304 -> 305 ;
306 [label="X[23] <= 15406.5\ngini = 0.498\nsamples = 9\nvalue = [8, 7]"] ;
305 -> 306 ;
307 [label="X[9] <= 1244.833\ngini = 0.219\nsamples = 5\nvalue = [1, 7]"] ;
306 -> 307 ;
308 [label="X[15] <= 12946.775\ngini = 0.5\nsamples = 2\nvalue = [1, 1]"] ;
307 -> 308 ;
309 [label="gini = 0.0\nsamples = 1\nvalue = [1, 0]"] ;
308 -> 309 ;
310 [label="gini = 0.0\nsamples = 1\nvalue = [0, 1]"] ;
308 -> 310 ;
311 [label="gini = 0.0\nsamples = 3\nvalue = [0, 6]"] ;
307 -> 311 ;
312 [label="gini = 0.0\nsamples = 4\nvalue = [7, 0]"] ;
306 -> 312 ;
313 [label="X[16] <= 113.25\ngini = 0.083\nsamples = 18\nvalue = [22, 1]"] ;
305 -> 313 ;
314 [label="gini = 0.0\nsamples = 12\nvalue = [15, 0]"] ;
313 -> 314 ;
315 [label="X[1] <= 99.75\ngini = 0.219\nsamples = 6\nvalue = [7, 1]"] ;
313 -> 315 ;
316 [label="X[10] <= 251.0\ngini = 0.5\nsamples = 2\nvalue = [1, 1]"] ;
315 -> 316 ;
317 [label="gini = 0.0\nsamples = 1\nvalue = [1, 0]"] ;
316 -> 317 ;
318 [label="gini = 0.0\nsamples = 1\nvalue = [0, 1]"] ;
316 -> 318 ;
319 [label="gini = 0.0\nsamples = 4\nvalue = [6, 0]"] ;
315 -> 319 ;
320 [label="X[24] <= 10888.0\ngini = 0.469\nsamples = 18\nvalue = [9, 15]"] ;
304 -> 320 ;
321 [label="X[21] <= 18302.801\ngini = 0.153\nsamples = 7\nvalue = [1, 11]"] ;
320 -> 321 ;
322 [label="X[16] <= 298.7\ngini = 0.444\nsamples = 2\nvalue = [1, 2]"] ;
321 -> 322 ;
323 [label="gini = 0.0\nsamples = 1\nvalue = [1, 0]"] ;
322 -> 323 ;
324 [label="gini = 0.0\nsamples = 1\nvalue = [0, 2]"] ;
322 -> 324 ;
325 [label="gini = 0.0\nsamples = 5\nvalue = [0, 9]"] ;
321 -> 325 ;
326 [label="X[16] <= 358.975\ngini = 0.444\nsamples = 11\nvalue = [8, 4]"] ;
320 -> 326 ;
327 [label="gini = 0.0\nsamples = 5\nvalue = [6, 0]"] ;
326 -> 327 ;
328 [label="X[14] <= 20284.75\ngini = 0.444\nsamples = 6\nvalue = [2, 4]"] ;
326 -> 328 ;
329 [label="gini = 0.0\nsamples = 2\nvalue = [0, 2]"] ;
328 -> 329 ;
330 [label="X[23] <= 24954.775\ngini = 0.5\nsamples = 4\nvalue = [2, 2]"] ;
328 -> 330 ;
331 [label="gini = 0.0\nsamples = 1\nvalue = [1, 0]"] ;
330 -> 331 ;
332 [label="X[15] <= 73519.547\ngini = 0.444\nsamples = 3\nvalue = [1, 2]"] ;
330 -> 332 ;
333 [label="gini = 0.0\nsamples = 2\nvalue = [0, 2]"] ;
332 -> 333 ;
334 [label="gini = 0.0\nsamples = 1\nvalue = [1, 0]"] ;
332 -> 334 ;
335 [label="X[14] <= 324.0\ngini = 0.497\nsamples = 2023\nvalue = [1721, 1478]"] ;
1 -> 335 ;
336 [label="X[11] <= 181.0\ngini = 0.432\nsamples = 75\nvalue = [37, 80]"] ;
335 -> 336 ;
337 [label="X[29] <= 171.5\ngini = 0.497\nsamples = 43\nvalue = [30, 35]"] ;
336 -> 337 ;
338 [label="X[15] <= 155.5\ngini = 0.489\nsamples = 41\nvalue = [26, 35]"] ;
337 -> 338 ;
339 [label="X[25] <= 32.5\ngini = 0.499\nsamples = 31\nvalue = [23, 21]"] ;
338 -> 339 ;
340 [label="X[18] <= 62.0\ngini = 0.478\nsamples = 27\nvalue = [23, 15]"] ;
339 -> 340 ;
341 [label="X[23] <= 133.275\ngini = 0.245\nsamples = 5\nvalue = [1, 6]"] ;
340 -> 341 ;
342 [label="gini = 0.0\nsamples = 4\nvalue = [0, 6]"] ;
341 -> 342 ;
343 [label="gini = 0.0\nsamples = 1\nvalue = [1, 0]"] ;
341 -> 343 ;
344 [label="X[2] <= 0.5\ngini = 0.412\nsamples = 22\nvalue = [22, 9]"] ;
340 -> 344 ;
345 [label="X[28] <= 9251.65\ngini = 0.494\nsamples = 12\nvalue = [10, 8]"] ;
344 -> 345 ;
346 [label="X[23] <= 134.0\ngini = 0.484\nsamples = 11\nvalue = [10, 7]"] ;
345 -> 346 ;
347 [label="gini = 0.0\nsamples = 2\nvalue = [3, 0]"] ;
346 -> 347 ;
348 [label="X[27] <= 794.0\ngini = 0.5\nsamples = 9\nvalue = [7, 7]"] ;
346 -> 348 ;
349 [label="gini = 0.0\nsamples = 1\nvalue = [3, 0]"] ;
348 -> 349 ;
350 [label="X[14] <= 169.0\ngini = 0.463\nsamples = 8\nvalue = [4, 7]"] ;
348 -> 350 ;
351 [label="gini = 0.0\nsamples = 1\nvalue = [0, 3]"] ;
350 -> 351 ;
352 [label="X[20] <= 233.5\ngini = 0.5\nsamples = 7\nvalue = [4, 4]"] ;
350 -> 352 ;
353 [label="X[28] <= 1009.5\ngini = 0.375\nsamples = 3\nvalue = [3, 1]"] ;
352 -> 353 ;
354 [label="gini = 0.0\nsamples = 1\nvalue = [0, 1]"] ;
353 -> 354 ;
355 [label="gini = 0.0\nsamples = 2\nvalue = [3, 0]"] ;
353 -> 355 ;
356 [label="X[22] <= 139.0\ngini = 0.375\nsamples = 4\nvalue = [1, 3]"] ;
352 -> 356 ;
357 [label="X[20] <= 267.5\ngini = 0.444\nsamples = 3\nvalue = [1, 2]"] ;
356 -> 357 ;
358 [label="gini = 0.0\nsamples = 1\nvalue = [0, 1]"] ;
357 -> 358 ;
359 [label="X[14] <= 304.5\ngini = 0.5\nsamples = 2\nvalue = [1, 1]"] ;
357 -> 359 ;
360 [label="gini = 0.0\nsamples = 1\nvalue = [1, 0]"] ;
359 -> 360 ;
361 [label="gini = 0.0\nsamples = 1\nvalue = [0, 1]"] ;
359 -> 361 ;
362 [label="gini = 0.0\nsamples = 1\nvalue = [0, 1]"] ;
356 -> 362 ;
363 [label="gini = 0.0\nsamples = 1\nvalue = [0, 1]"] ;
345 -> 363 ;
364 [label="X[7] <= 102.0\ngini = 0.142\nsamples = 10\nvalue = [12, 1]"] ;
344 -> 364 ;
365 [label="gini = 0.0\nsamples = 9\nvalue = [12, 0]"] ;
364 -> 365 ;
366 [label="gini = 0.0\nsamples = 1\nvalue = [0, 1]"] ;
364 -> 366 ;
367 [label="gini = 0.0\nsamples = 4\nvalue = [0, 6]"] ;
339 -> 367 ;
368 [label="X[20] <= 246.265\ngini = 0.291\nsamples = 10\nvalue = [3, 14]"] ;
338 -> 368 ;
369 [label="X[7] <= 247.765\ngini = 0.231\nsamples = 8\nvalue = [2, 13]"] ;
368 -> 369 ;
370 [label="gini = 0.0\nsamples = 7\nvalue = [0, 13]"] ;
369 -> 370 ;
371 [label="gini = 0.0\nsamples = 1\nvalue = [2, 0]"] ;
369 -> 371 ;
372 [label="X[28] <= 35446.0\ngini = 0.5\nsamples = 2\nvalue = [1, 1]"] ;
368 -> 372 ;
373 [label="gini = 0.0\nsamples = 1\nvalue = [1, 0]"] ;
372 -> 373 ;
374 [label="gini = 0.0\nsamples = 1\nvalue = [0, 1]"] ;
372 -> 374 ;
375 [label="gini = 0.0\nsamples = 2\nvalue = [4, 0]"] ;
337 -> 375 ;
376 [label="X[11] <= 533.985\ngini = 0.233\nsamples = 32\nvalue = [7, 45]"] ;
336 -> 376 ;
377 [label="X[20] <= 282.0\ngini = 0.18\nsamples = 31\nvalue = [5, 45]"] ;
376 -> 377 ;
378 [label="X[10] <= 251.235\ngini = 0.264\nsamples = 19\nvalue = [5, 27]"] ;
377 -> 378 ;
379 [label="X[15] <= 92.0\ngini = 0.071\nsamples = 15\nvalue = [1, 26]"] ;
378 -> 379 ;
380 [label="X[21] <= 14305.8\ngini = 0.278\nsamples = 4\nvalue = [1, 5]"] ;
379 -> 380 ;
381 [label="gini = 0.0\nsamples = 3\nvalue = [0, 5]"] ;
380 -> 381 ;
382 [label="gini = 0.0\nsamples = 1\nvalue = [1, 0]"] ;
380 -> 382 ;
383 [label="gini = 0.0\nsamples = 11\nvalue = [0, 21]"] ;
379 -> 383 ;
384 [label="X[27] <= 20344.1\ngini = 0.32\nsamples = 4\nvalue = [4, 1]"] ;
378 -> 384 ;
385 [label="gini = 0.0\nsamples = 3\nvalue = [4, 0]"] ;
384 -> 385 ;
386 [label="gini = 0.0\nsamples = 1\nvalue = [0, 1]"] ;
384 -> 386 ;
387 [label="gini = 0.0\nsamples = 12\nvalue = [0, 18]"] ;
377 -> 387 ;
388 [label="gini = 0.0\nsamples = 1\nvalue = [2, 0]"] ;
376 -> 388 ;
389 [label="X[18] <= 10803.0\ngini = 0.496\nsamples = 1948\nvalue = [1684, 1398]"] ;
335 -> 389 ;
390 [label="X[9] <= 87767.414\ngini = 0.498\nsamples = 1735\nvalue = [1460, 1285]"] ;
389 -> 390 ;
391 [label="X[10] <= 559.83\ngini = 0.498\nsamples = 1727\nvalue = [1458, 1266]"] ;
390 -> 391 ;
392 [label="X[1] <= 3.0\ngini = 0.487\nsamples = 699\nvalue = [643, 463]"] ;
391 -> 392 ;
393 [label="X[11] <= 18366.801\ngini = 0.463\nsamples = 332\nvalue = [336, 192]"] ;
392 -> 393 ;
394 [label="X[22] <= 3148.5\ngini = 0.449\nsamples = 313\nvalue = [330, 170]"] ;
393 -> 394 ;
395 [label="X[20] <= 344.175\ngini = 0.441\nsamples = 305\nvalue = [327, 160]"] ;
394 -> 395 ;
396 [label="gini = 0.0\nsamples = 6\nvalue = [14, 0]"] ;
395 -> 396 ;
397 [label="X[16] <= 27.0\ngini = 0.448\nsamples = 299\nvalue = [313, 160]"] ;
395 -> 397 ;
398 [label="X[15] <= 506.155\ngini = 0.466\nsamples = 237\nvalue = [232, 136]"] ;
397 -> 398 ;
399 [label="X[22] <= 49.5\ngini = 0.41\nsamples = 111\nvalue = [121, 49]"] ;
398 -> 399 ;
400 [label="X[14] <= 695.5\ngini = 0.426\nsamples = 103\nvalue = [108, 48]"] ;
399 -> 400 ;
401 [label="X[7] <= 79.5\ngini = 0.495\nsamples = 12\nvalue = [9, 11]"] ;
400 -> 401 ;
402 [label="X[18] <= 1219.0\ngini = 0.219\nsamples = 6\nvalue = [1, 7]"] ;
401 -> 402 ;
403 [label="gini = 0.0\nsamples = 5\nvalue = [0, 7]"] ;
402 -> 403 ;
404 [label="gini = 0.0\nsamples = 1\nvalue = [1, 0]"] ;
402 -> 404 ;
405 [label="X[27] <= 7222.5\ngini = 0.444\nsamples = 6\nvalue = [8, 4]"] ;
401 -> 405 ;
406 [label="gini = 0.0\nsamples = 4\nvalue = [6, 0]"] ;
405 -> 406 ;
407 [label="X[20] <= 467.0\ngini = 0.444\nsamples = 2\nvalue = [2, 4]"] ;
405 -> 407 ;
408 [label="gini = 0.0\nsamples = 1\nvalue = [0, 4]"] ;
407 -> 408 ;
409 [label="gini = 0.0\nsamples = 1\nvalue = [2, 0]"] ;
407 -> 409 ;
410 [label="X[17] <= 15689.625\ngini = 0.396\nsamples = 91\nvalue = [99, 37]"] ;
400 -> 410 ;
411 [label="X[17] <= 5718.5\ngini = 0.373\nsamples = 80\nvalue = [91, 30]"] ;
410 -> 411 ;
412 [label="X[17] <= 2628.5\ngini = 0.42\nsamples = 70\nvalue = [70, 30]"] ;
411 -> 412 ;
413 [label="X[14] <= 7006.2\ngini = 0.388\nsamples = 63\nvalue = [67, 24]"] ;
412 -> 413 ;
414 [label="gini = 0.0\nsamples = 1\nvalue = [2, 0]"] ;
413 -> 414 ;
415 [label="X[21] <= 28771.35\ngini = 0.394\nsamples = 62\nvalue = [65, 24]"] ;
413 -> 415 ;
416 [label="X[28] <= 2088.5\ngini = 0.417\nsamples = 56\nvalue = [57, 24]"] ;
415 -> 416 ;
417 [label="X[17] <= 1183.5\ngini = 0.454\nsamples = 48\nvalue = [45, 24]"] ;
416 -> 417 ;
418 [label="X[18] <= 6614.125\ngini = 0.457\nsamples = 47\nvalue = [44, 24]"] ;
417 -> 418 ;
419 [label="X[21] <= 17480.775\ngini = 0.444\nsamples = 46\nvalue = [44, 22]"] ;
418 -> 419 ;
420 [label="X[27] <= 4851.5\ngini = 0.395\nsamples = 42\nvalue = [43, 16]"] ;
419 -> 420 ;
421 [label="X[18] <= 466.0\ngini = 0.312\nsamples = 22\nvalue = [25, 6]"] ;
420 -> 421 ;
422 [label="X[18] <= 327.5\ngini = 0.408\nsamples = 16\nvalue = [15, 6]"] ;
421 -> 422 ;
423 [label="X[18] <= 159.5\ngini = 0.375\nsamples = 15\nvalue = [15, 5]"] ;
422 -> 423 ;
424 [label="X[18] <= 72.5\ngini = 0.415\nsamples = 13\nvalue = [12, 5]"] ;
423 -> 424 ;
425 [label="X[18] <= 10.0\ngini = 0.375\nsamples = 12\nvalue = [12, 4]"] ;
424 -> 425 ;
426 [label="X[21] <= 967.43\ngini = 0.391\nsamples = 11\nvalue = [11, 4]"] ;
425 -> 426 ;
427 [label="X[21] <= 863.93\ngini = 0.444\nsamples = 2\nvalue = [1, 2]"] ;
426 -> 427 ;
428 [label="gini = 0.0\nsamples = 1\nvalue = [1, 0]"] ;
427 -> 428 ;
429 [label="gini = 0.0\nsamples = 1\nvalue = [0, 2]"] ;
427 -> 429 ;
430 [label="X[27] <= 2633.0\ngini = 0.278\nsamples = 9\nvalue = [10, 2]"] ;
426 -> 430 ;
431 [label="gini = 0.0\nsamples = 6\nvalue = [7, 0]"] ;
430 -> 431 ;
432 [label="X[28] <= 668.0\ngini = 0.48\nsamples = 3\nvalue = [3, 2]"] ;
430 -> 432 ;
433 [label="X[21] <= 2907.5\ngini = 0.5\nsamples = 2\nvalue = [2, 2]"] ;
432 -> 433 ;
434 [label="gini = 0.0\nsamples = 1\nvalue = [0, 2]"] ;
433 -> 434 ;
435 [label="gini = 0.0\nsamples = 1\nvalue = [2, 0]"] ;
433 -> 435 ;
436 [label="gini = 0.0\nsamples = 1\nvalue = [1, 0]"] ;
432 -> 436 ;
437 [label="gini = 0.0\nsamples = 1\nvalue = [1, 0]"] ;
425 -> 437 ;
438 [label="gini = 0.0\nsamples = 1\nvalue = [0, 1]"] ;
424 -> 438 ;
439 [label="gini = 0.0\nsamples = 2\nvalue = [3, 0]"] ;
423 -> 439 ;
440 [label="gini = 0.0\nsamples = 1\nvalue = [0, 1]"] ;
422 -> 440 ;
441 [label="gini = 0.0\nsamples = 6\nvalue = [10, 0]"] ;
421 -> 441 ;
442 [label="X[18] <= 600.0\ngini = 0.459\nsamples = 20\nvalue = [18, 10]"] ;
420 -> 442 ;
443 [label="X[27] <= 7224.135\ngini = 0.491\nsamples = 16\nvalue = [13, 10]"] ;
442 -> 443 ;
444 [label="X[21] <= 5393.0\ngini = 0.463\nsamples = 8\nvalue = [4, 7]"] ;
443 -> 444 ;
445 [label="X[21] <= 5054.5\ngini = 0.32\nsamples = 4\nvalue = [4, 1]"] ;
444 -> 445 ;
446 [label="X[27] <= 5181.0\ngini = 0.5\nsamples = 2\nvalue = [1, 1]"] ;
445 -> 446 ;
447 [label="gini = 0.0\nsamples = 1\nvalue = [0, 1]"] ;
446 -> 447 ;
448 [label="gini = 0.0\nsamples = 1\nvalue = [1, 0]"] ;
446 -> 448 ;
449 [label="gini = 0.0\nsamples = 2\nvalue = [3, 0]"] ;
445 -> 449 ;
450 [label="gini = 0.0\nsamples = 4\nvalue = [0, 6]"] ;
444 -> 450 ;
451 [label="X[27] <= 10641.625\ngini = 0.375\nsamples = 8\nvalue = [9, 3]"] ;
443 -> 451 ;
452 [label="gini = 0.0\nsamples = 4\nvalue = [7, 0]"] ;
451 -> 452 ;
453 [label="X[27] <= 11285.484\ngini = 0.48\nsamples = 4\nvalue = [2, 3]"] ;
451 -> 453 ;
454 [label="gini = 0.0\nsamples = 2\nvalue = [0, 3]"] ;
453 -> 454 ;
455 [label="gini = 0.0\nsamples = 2\nvalue = [2, 0]"] ;
453 -> 455 ;
456 [label="gini = 0.0\nsamples = 4\nvalue = [5, 0]"] ;
442 -> 456 ;
457 [label="X[18] <= 54.0\ngini = 0.245\nsamples = 4\nvalue = [1, 6]"] ;
419 -> 457 ;
458 [label="gini = 0.0\nsamples = 1\nvalue = [1, 0]"] ;
457 -> 458 ;
459 [label="gini = 0.0\nsamples = 3\nvalue = [0, 6]"] ;
457 -> 459 ;
460 [label="gini = 0.0\nsamples = 1\nvalue = [0, 2]"] ;
418 -> 460 ;
461 [label="gini = 0.0\nsamples = 1\nvalue = [1, 0]"] ;
417 -> 461 ;
462 [label="gini = 0.0\nsamples = 8\nvalue = [12, 0]"] ;
416 -> 462 ;
463 [label="gini = 0.0\nsamples = 6\nvalue = [8, 0]"] ;
415 -> 463 ;
464 [label="X[21] <= 150.0\ngini = 0.444\nsamples = 7\nvalue = [3, 6]"] ;
412 -> 464 ;
465 [label="X[17] <= 3199.0\ngini = 0.5\nsamples = 4\nvalue = [3, 3]"] ;
464 -> 465 ;
466 [label="gini = 0.0\nsamples = 1\nvalue = [1, 0]"] ;
465 -> 466 ;
467 [label="X[27] <= 4133.0\ngini = 0.48\nsamples = 3\nvalue = [2, 3]"] ;
465 -> 467 ;
468 [label="gini = 0.0\nsamples = 1\nvalue = [0, 2]"] ;
467 -> 468 ;
469 [label="gini = 0.444\nsamples = 2\nvalue = [2, 1]"] ;
467 -> 469 ;
470 [label="gini = 0.0\nsamples = 3\nvalue = [0, 3]"] ;
464 -> 470 ;
471 [label="gini = 0.0\nsamples = 10\nvalue = [21, 0]"] ;
411 -> 471 ;
472 [label="X[27] <= 20219.0\ngini = 0.498\nsamples = 11\nvalue = [8, 7]"] ;
410 -> 472 ;
473 [label="X[21] <= 3852.0\ngini = 0.32\nsamples = 3\nvalue = [1, 4]"] ;
472 -> 473 ;
474 [label="X[21] <= 1859.72\ngini = 0.5\nsamples = 2\nvalue = [1, 1]"] ;
473 -> 474 ;
475 [label="gini = 0.0\nsamples = 1\nvalue = [0, 1]"] ;
474 -> 475 ;
476 [label="gini = 0.0\nsamples = 1\nvalue = [1, 0]"] ;
474 -> 476 ;
477 [label="gini = 0.0\nsamples = 1\nvalue = [0, 3]"] ;
473 -> 477 ;
478 [label="X[17] <= 30797.641\ngini = 0.42\nsamples = 8\nvalue = [7, 3]"] ;
472 -> 478 ;
479 [label="X[17] <= 26994.5\ngini = 0.5\nsamples = 6\nvalue = [3, 3]"] ;
478 -> 479 ;
480 [label="X[18] <= 1976.625\ngini = 0.375\nsamples = 4\nvalue = [3, 1]"] ;
479 -> 480 ;
481 [label="gini = 0.0\nsamples = 3\nvalue = [3, 0]"] ;
480 -> 481 ;
482 [label="gini = 0.0\nsamples = 1\nvalue = [0, 1]"] ;
480 -> 482 ;
483 [label="gini = 0.0\nsamples = 2\nvalue = [0, 2]"] ;
479 -> 483 ;
484 [label="gini = 0.0\nsamples = 2\nvalue = [4, 0]"] ;
478 -> 484 ;
485 [label="X[21] <= 464.0\ngini = 0.133\nsamples = 8\nvalue = [13, 1]"] ;
399 -> 485 ;
486 [label="X[14] <= 422.5\ngini = 0.5\nsamples = 2\nvalue = [1, 1]"] ;
485 -> 486 ;
487 [label="gini = 0.0\nsamples = 1\nvalue = [1, 0]"] ;
486 -> 487 ;
488 [label="gini = 0.0\nsamples = 1\nvalue = [0, 1]"] ;
486 -> 488 ;
489 [label="gini = 0.0\nsamples = 6\nvalue = [12, 0]"] ;
485 -> 489 ;
490 [label="X[21] <= 7419.5\ngini = 0.493\nsamples = 126\nvalue = [111, 87]"] ;
398 -> 490 ;
491 [label="X[9] <= 5254.0\ngini = 0.493\nsamples = 77\nvalue = [54, 69]"] ;
490 -> 491 ;
492 [label="X[14] <= 3502.5\ngini = 0.478\nsamples = 67\nvalue = [42, 64]"] ;
491 -> 492 ;
493 [label="X[7] <= 855.5\ngini = 0.5\nsamples = 47\nvalue = [35, 37]"] ;
492 -> 493 ;
494 [label="X[15] <= 897.5\ngini = 0.488\nsamples = 40\nvalue = [25, 34]"] ;
493 -> 494 ;
495 [label="X[18] <= 317.0\ngini = 0.49\nsamples = 16\nvalue = [16, 12]"] ;
494 -> 495 ;
496 [label="X[16] <= 3.735\ngini = 0.423\nsamples = 13\nvalue = [16, 7]"] ;
495 -> 496 ;
497 [label="X[9] <= 746.625\ngini = 0.363\nsamples = 11\nvalue = [16, 5]"] ;
496 -> 497 ;
498 [label="gini = 0.0\nsamples = 7\nvalue = [11, 0]"] ;
497 -> 498 ;
499 [label="X[11] <= 793.5\ngini = 0.5\nsamples = 4\nvalue = [5, 5]"] ;
497 -> 499 ;
500 [label="gini = 0.0\nsamples = 2\nvalue = [0, 5]"] ;
499 -> 500 ;
501 [label="gini = 0.0\nsamples = 2\nvalue = [5, 0]"] ;
499 -> 501 ;
502 [label="gini = 0.0\nsamples = 2\nvalue = [0, 2]"] ;
496 -> 502 ;
503 [label="gini = 0.0\nsamples = 3\nvalue = [0, 5]"] ;
495 -> 503 ;
504 [label="X[20] <= 957.5\ngini = 0.412\nsamples = 24\nvalue = [9, 22]"] ;
494 -> 504 ;
505 [label="gini = 0.0\nsamples = 4\nvalue = [0, 6]"] ;
504 -> 505 ;
506 [label="X[21] <= 1074.0\ngini = 0.461\nsamples = 20\nvalue = [9, 16]"] ;
504 -> 506 ;
507 [label="X[28] <= 1712.5\ngini = 0.278\nsamples = 5\nvalue = [5, 1]"] ;
506 -> 507 ;
508 [label="gini = 0.0\nsamples = 3\nvalue = [3, 0]"] ;
507 -> 508 ;
509 [label="X[23] <= 2209.5\ngini = 0.444\nsamples = 2\nvalue = [2, 1]"] ;
507 -> 509 ;
510 [label="gini = 0.0\nsamples = 1\nvalue = [2, 0]"] ;
509 -> 510 ;
511 [label="gini = 0.0\nsamples = 1\nvalue = [0, 1]"] ;
509 -> 511 ;
512 [label="X[23] <= 2945.5\ngini = 0.332\nsamples = 15\nvalue = [4, 15]"] ;
506 -> 512 ;
513 [label="X[28] <= 2640.0\ngini = 0.278\nsamples = 14\nvalue = [3, 15]"] ;
512 -> 513 ;
514 [label="X[2] <= 0.5\ngini = 0.117\nsamples = 12\nvalue = [1, 15]"] ;
513 -> 514 ;
515 [label="X[20] <= 1211.5\ngini = 0.18\nsamples = 7\nvalue = [1, 9]"] ;
514 -> 515 ;
516 [label="X[20] <= 1061.5\ngini = 0.444\nsamples = 3\nvalue = [1, 2]"] ;
515 -> 516 ;
517 [label="gini = 0.0\nsamples = 2\nvalue = [0, 2]"] ;
516 -> 517 ;
518 [label="gini = 0.0\nsamples = 1\nvalue = [1, 0]"] ;
516 -> 518 ;
519 [label="gini = 0.0\nsamples = 4\nvalue = [0, 7]"] ;
515 -> 519 ;
520 [label="gini = 0.0\nsamples = 5\nvalue = [0, 6]"] ;
514 -> 520 ;
521 [label="gini = 0.0\nsamples = 2\nvalue = [2, 0]"] ;
513 -> 521 ;
522 [label="gini = 0.0\nsamples = 1\nvalue = [1, 0]"] ;
512 -> 522 ;
523 [label="X[7] <= 2436.0\ngini = 0.355\nsamples = 7\nvalue = [10, 3]"] ;
493 -> 523 ;
524 [label="X[7] <= 1022.5\ngini = 0.219\nsamples = 5\nvalue = [7, 1]"] ;
523 -> 524 ;
525 [label="X[22] <= 59.5\ngini = 0.444\nsamples = 2\nvalue = [2, 1]"] ;
524 -> 525 ;
526 [label="gini = 0.0\nsamples = 1\nvalue = [0, 1]"] ;
525 -> 526 ;
527 [label="gini = 0.0\nsamples = 1\nvalue = [2, 0]"] ;
525 -> 527 ;
528 [label="gini = 0.0\nsamples = 3\nvalue = [5, 0]"] ;
524 -> 528 ;
529 [label="X[15] <= 2760.5\ngini = 0.48\nsamples = 2\nvalue = [3, 2]"] ;
523 -> 529 ;
530 [label="gini = 0.0\nsamples = 1\nvalue = [0, 2]"] ;
529 -> 530 ;
531 [label="gini = 0.0\nsamples = 1\nvalue = [3, 0]"] ;
529 -> 531 ;
532 [label="X[15] <= 5323.05\ngini = 0.327\nsamples = 20\nvalue = [7, 27]"] ;
492 -> 532 ;
533 [label="X[28] <= 4553.5\ngini = 0.091\nsamples = 12\nvalue = [1, 20]"] ;
532 -> 533 ;
534 [label="gini = 0.0\nsamples = 9\nvalue = [0, 16]"] ;
533 -> 534 ;
535 [label="X[18] <= 34.5\ngini = 0.32\nsamples = 3\nvalue = [1, 4]"] ;
533 -> 535 ;
536 [label="X[11] <= 5101.25\ngini = 0.444\nsamples = 2\nvalue = [1, 2]"] ;
535 -> 536 ;
537 [label="gini = 0.0\nsamples = 1\nvalue = [1, 0]"] ;
536 -> 537 ;
538 [label="gini = 0.0\nsamples = 1\nvalue = [0, 2]"] ;
536 -> 538 ;
539 [label="gini = 0.0\nsamples = 1\nvalue = [0, 2]"] ;
535 -> 539 ;
540 [label="X[27] <= 8267.75\ngini = 0.497\nsamples = 8\nvalue = [6, 7]"] ;
532 -> 540 ;
541 [label="X[7] <= 677.5\ngini = 0.375\nsamples = 5\nvalue = [6, 2]"] ;
540 -> 541 ;
542 [label="gini = 0.0\nsamples = 3\nvalue = [5, 0]"] ;
541 -> 542 ;
543 [label="X[17] <= 3547.0\ngini = 0.444\nsamples = 2\nvalue = [1, 2]"] ;
541 -> 543 ;
544 [label="gini = 0.0\nsamples = 1\nvalue = [1, 0]"] ;
543 -> 544 ;
545 [label="gini = 0.0\nsamples = 1\nvalue = [0, 2]"] ;
543 -> 545 ;
546 [label="gini = 0.0\nsamples = 3\nvalue = [0, 5]"] ;
540 -> 546 ;
547 [label="X[14] <= 7246.5\ngini = 0.415\nsamples = 10\nvalue = [12, 5]"] ;
491 -> 547 ;
548 [label="gini = 0.0\nsamples = 5\nvalue = [8, 0]"] ;
547 -> 548 ;
549 [label="X[11] <= 8490.0\ngini = 0.494\nsamples = 5\nvalue = [4, 5]"] ;
547 -> 549 ;
550 [label="gini = 0.0\nsamples = 2\nvalue = [0, 4]"] ;
549 -> 550 ;
551 [label="X[23] <= 10544.5\ngini = 0.32\nsamples = 3\nvalue = [4, 1]"] ;
549 -> 551 ;
552 [label="X[23] <= 9490.0\ngini = 0.5\nsamples = 2\nvalue = [1, 1]"] ;
551 -> 552 ;
553 [label="gini = 0.0\nsamples = 1\nvalue = [1, 0]"] ;
552 -> 553 ;
554 [label="gini = 0.0\nsamples = 1\nvalue = [0, 1]"] ;
552 -> 554 ;
555 [label="gini = 0.0\nsamples = 1\nvalue = [3, 0]"] ;
551 -> 555 ;
556 [label="X[23] <= 1568.5\ngini = 0.365\nsamples = 49\nvalue = [57, 18]"] ;
490 -> 556 ;
557 [label="X[9] <= 848.5\ngini = 0.49\nsamples = 11\nvalue = [8, 6]"] ;
556 -> 557 ;
558 [label="X[27] <= 20187.01\ngini = 0.32\nsamples = 8\nvalue = [8, 2]"] ;
557 -> 558 ;
559 [label="X[18] <= 641.5\ngini = 0.444\nsamples = 3\nvalue = [1, 2]"] ;
558 -> 559 ;
560 [label="gini = 0.0\nsamples = 1\nvalue = [0, 1]"] ;
559 -> 560 ;
561 [label="X[2] <= 0.5\ngini = 0.5\nsamples = 2\nvalue = [1, 1]"] ;
559 -> 561 ;
562 [label="gini = 0.0\nsamples = 1\nvalue = [1, 0]"] ;
561 -> 562 ;
563 [label="gini = 0.0\nsamples = 1\nvalue = [0, 1]"] ;
561 -> 563 ;
564 [label="gini = 0.0\nsamples = 5\nvalue = [7, 0]"] ;
558 -> 564 ;
565 [label="gini = 0.0\nsamples = 3\nvalue = [0, 4]"] ;
557 -> 565 ;
566 [label="X[16] <= 4.485\ngini = 0.316\nsamples = 38\nvalue = [49, 12]"] ;
556 -> 566 ;
567 [label="X[11] <= 7176.7\ngini = 0.32\nsamples = 37\nvalue = [48, 12]"] ;
566 -> 567 ;
568 [label="X[14] <= 11574.0\ngini = 0.26\nsamples = 32\nvalue = [44, 8]"] ;
567 -> 568 ;
569 [label="X[18] <= 107.0\ngini = 0.219\nsamples = 29\nvalue = [42, 6]"] ;
568 -> 569 ;
570 [label="X[17] <= 2584.5\ngini = 0.444\nsamples = 6\nvalue = [8, 4]"] ;
569 -> 570 ;
571 [label="X[15] <= 7042.7\ngini = 0.198\nsamples = 5\nvalue = [8, 1]"] ;
570 -> 571 ;
572 [label="gini = 0.0\nsamples = 3\nvalue = [6, 0]"] ;
571 -> 572 ;
573 [label="X[18] <= 49.5\ngini = 0.444\nsamples = 2\nvalue = [2, 1]"] ;
571 -> 573 ;
574 [label="gini = 0.0\nsamples = 1\nvalue = [2, 0]"] ;
573 -> 574 ;
575 [label="gini = 0.0\nsamples = 1\nvalue = [0, 1]"] ;
573 -> 575 ;
576 [label="gini = 0.0\nsamples = 1\nvalue = [0, 3]"] ;
570 -> 576 ;
577 [label="X[2] <= 1.5\ngini = 0.105\nsamples = 23\nvalue = [34, 2]"] ;
569 -> 577 ;
578 [label="X[22] <= 2028.0\ngini = 0.111\nsamples = 22\nvalue = [32, 2]"] ;
577 -> 578 ;
579 [label="X[7] <= 414.5\ngini = 0.061\nsamples = 20\nvalue = [31, 1]"] ;
578 -> 579 ;
580 [label="X[14] <= 5137.0\ngini = 0.142\nsamples = 9\nvalue = [12, 1]"] ;
579 -> 580 ;
581 [label="gini = 0.0\nsamples = 4\nvalue = [6, 0]"] ;
580 -> 581 ;
582 [label="X[7] <= 225.0\ngini = 0.245\nsamples = 5\nvalue = [6, 1]"] ;
580 -> 582 ;
583 [label="gini = 0.0\nsamples = 4\nvalue = [6, 0]"] ;
582 -> 583 ;
584 [label="gini = 0.0\nsamples = 1\nvalue = [0, 1]"] ;
582 -> 584 ;
585 [label="gini = 0.0\nsamples = 11\nvalue = [19, 0]"] ;
579 -> 585 ;
586 [label="X[10] <= 64.5\ngini = 0.5\nsamples = 2\nvalue = [1, 1]"] ;
578 -> 586 ;
587 [label="gini = 0.0\nsamples = 1\nvalue = [0, 1]"] ;
586 -> 587 ;
588 [label="gini = 0.0\nsamples = 1\nvalue = [1, 0]"] ;
586 -> 588 ;
589 [label="gini = 0.0\nsamples = 1\nvalue = [2, 0]"] ;
577 -> 589 ;
590 [label="X[7] <= 1935.5\ngini = 0.5\nsamples = 3\nvalue = [2, 2]"] ;
568 -> 590 ;
591 [label="gini = 0.0\nsamples = 2\nvalue = [0, 2]"] ;
590 -> 591 ;
592 [label="gini = 0.0\nsamples = 1\nvalue = [2, 0]"] ;
590 -> 592 ;
593 [label="X[15] <= 8217.0\ngini = 0.5\nsamples = 5\nvalue = [4, 4]"] ;
567 -> 593 ;
594 [label="gini = 0.0\nsamples = 2\nvalue = [0, 4]"] ;
593 -> 594 ;
595 [label="gini = 0.0\nsamples = 3\nvalue = [4, 0]"] ;
593 -> 595 ;
596 [label="gini = 0.0\nsamples = 1\nvalue = [1, 0]"] ;
566 -> 596 ;
597 [label="X[20] <= 1341.435\ngini = 0.353\nsamples = 62\nvalue = [81, 24]"] ;
397 -> 597 ;
598 [label="X[21] <= 16364.995\ngini = 0.105\nsamples = 8\nvalue = [17, 1]"] ;
597 -> 598 ;
599 [label="gini = 0.0\nsamples = 7\nvalue = [17, 0]"] ;
598 -> 599 ;
600 [label="gini = 0.0\nsamples = 1\nvalue = [0, 1]"] ;
598 -> 600 ;
601 [label="X[15] <= 17537.25\ngini = 0.389\nsamples = 54\nvalue = [64, 23]"] ;
597 -> 601 ;
602 [label="X[16] <= 64.98\ngini = 0.424\nsamples = 44\nvalue = [50, 22]"] ;
601 -> 602 ;
603 [label="X[14] <= 4107.475\ngini = 0.074\nsamples = 14\nvalue = [25, 1]"] ;
602 -> 603 ;
604 [label="gini = 0.0\nsamples = 7\nvalue = [17, 0]"] ;
603 -> 604 ;
605 [label="X[27] <= 4421.325\ngini = 0.198\nsamples = 7\nvalue = [8, 1]"] ;
603 -> 605 ;
606 [label="X[16] <= 32.425\ngini = 0.5\nsamples = 2\nvalue = [1, 1]"] ;
605 -> 606 ;
607 [label="gini = 0.0\nsamples = 1\nvalue = [1, 0]"] ;
606 -> 607 ;
608 [label="gini = 0.0\nsamples = 1\nvalue = [0, 1]"] ;
606 -> 608 ;
609 [label="gini = 0.0\nsamples = 5\nvalue = [7, 0]"] ;
605 -> 609 ;
610 [label="X[10] <= 508.63\ngini = 0.496\nsamples = 30\nvalue = [25, 21]"] ;
602 -> 610 ;
611 [label="X[17] <= 6675.38\ngini = 0.499\nsamples = 29\nvalue = [23, 21]"] ;
610 -> 611 ;
612 [label="X[14] <= 2260.585\ngini = 0.444\nsamples = 16\nvalue = [8, 16]"] ;
611 -> 612 ;
613 [label="gini = 0.0\nsamples = 3\nvalue = [0, 4]"] ;
612 -> 613 ;
614 [label="X[28] <= 3444.0\ngini = 0.48\nsamples = 13\nvalue = [8, 12]"] ;
612 -> 614 ;
615 [label="X[9] <= 2846.75\ngini = 0.49\nsamples = 10\nvalue = [8, 6]"] ;
614 -> 615 ;
616 [label="X[18] <= 128.5\ngini = 0.408\nsamples = 6\nvalue = [2, 5]"] ;
615 -> 616 ;
617 [label="X[17] <= 1191.645\ngini = 0.5\nsamples = 4\nvalue = [2, 2]"] ;
616 -> 617 ;
618 [label="gini = 0.0\nsamples = 2\nvalue = [0, 2]"] ;
617 -> 618 ;
619 [label="gini = 0.0\nsamples = 2\nvalue = [2, 0]"] ;
617 -> 619 ;
620 [label="gini = 0.0\nsamples = 2\nvalue = [0, 3]"] ;
616 -> 620 ;
621 [label="X[16] <= 194.265\ngini = 0.245\nsamples = 4\nvalue = [6, 1]"] ;
615 -> 621 ;
622 [label="gini = 0.0\nsamples = 2\nvalue = [4, 0]"] ;
621 -> 622 ;
623 [label="X[14] <= 9887.735\ngini = 0.444\nsamples = 2\nvalue = [2, 1]"] ;
621 -> 623 ;
624 [label="gini = 0.0\nsamples = 1\nvalue = [0, 1]"] ;
623 -> 624 ;
625 [label="gini = 0.0\nsamples = 1\nvalue = [2, 0]"] ;
623 -> 625 ;
626 [label="gini = 0.0\nsamples = 3\nvalue = [0, 6]"] ;
614 -> 626 ;
627 [label="X[15] <= 16116.875\ngini = 0.375\nsamples = 13\nvalue = [15, 5]"] ;
611 -> 627 ;
628 [label="X[16] <= 165.49\ngini = 0.278\nsamples = 11\nvalue = [15, 3]"] ;
627 -> 628 ;
629 [label="gini = 0.0\nsamples = 1\nvalue = [0, 1]"] ;
628 -> 629 ;
630 [label="X[28] <= 6273.5\ngini = 0.208\nsamples = 10\nvalue = [15, 2]"] ;
628 -> 630 ;
631 [label="X[17] <= 40928.25\ngini = 0.408\nsamples = 5\nvalue = [5, 2]"] ;
630 -> 631 ;
632 [label="X[2] <= 0.5\ngini = 0.278\nsamples = 4\nvalue = [5, 1]"] ;
631 -> 632 ;
633 [label="gini = 0.0\nsamples = 2\nvalue = [4, 0]"] ;
632 -> 633 ;
634 [label="X[7] <= 34.5\ngini = 0.5\nsamples = 2\nvalue = [1, 1]"] ;
632 -> 634 ;
635 [label="gini = 0.0\nsamples = 1\nvalue = [1, 0]"] ;
634 -> 635 ;
636 [label="gini = 0.0\nsamples = 1\nvalue = [0, 1]"] ;
634 -> 636 ;
637 [label="gini = 0.0\nsamples = 1\nvalue = [0, 1]"] ;
631 -> 637 ;
638 [label="gini = 0.0\nsamples = 5\nvalue = [10, 0]"] ;
630 -> 638 ;
639 [label="gini = 0.0\nsamples = 2\nvalue = [0, 2]"] ;
627 -> 639 ;
640 [label="gini = 0.0\nsamples = 1\nvalue = [2, 0]"] ;
610 -> 640 ;
641 [label="X[16] <= 632.5\ngini = 0.124\nsamples = 10\nvalue = [14, 1]"] ;
601 -> 641 ;
642 [label="X[2] <= 0.5\ngini = 0.5\nsamples = 2\nvalue = [1, 1]"] ;
641 -> 642 ;
643 [label="gini = 0.0\nsamples = 1\nvalue = [1, 0]"] ;
642 -> 643 ;
644 [label="gini = 0.0\nsamples = 1\nvalue = [0, 1]"] ;
642 -> 644 ;
645 [label="gini = 0.0\nsamples = 8\nvalue = [13, 0]"] ;
641 -> 645 ;
646 [label="X[21] <= 10938.234\ngini = 0.355\nsamples = 8\nvalue = [3, 10]"] ;
394 -> 646 ;
647 [label="gini = 0.0\nsamples = 6\nvalue = [0, 10]"] ;
646 -> 647 ;
648 [label="gini = 0.0\nsamples = 2\nvalue = [3, 0]"] ;
646 -> 648 ;
649 [label="X[28] <= 427.025\ngini = 0.337\nsamples = 19\nvalue = [6, 22]"] ;
393 -> 649 ;
650 [label="X[23] <= 56727.5\ngini = 0.117\nsamples = 12\nvalue = [1, 15]"] ;
649 -> 650 ;
651 [label="gini = 0.0\nsamples = 10\nvalue = [0, 14]"] ;
650 -> 651 ;
652 [label="X[9] <= 56446.711\ngini = 0.5\nsamples = 2\nvalue = [1, 1]"] ;
650 -> 652 ;
653 [label="gini = 0.0\nsamples = 1\nvalue = [1, 0]"] ;
652 -> 653 ;
654 [label="gini = 0.0\nsamples = 1\nvalue = [0, 1]"] ;
652 -> 654 ;
655 [label="X[28] <= 47011.0\ngini = 0.486\nsamples = 7\nvalue = [5, 7]"] ;
649 -> 655 ;
656 [label="X[15] <= 21536.525\ngini = 0.278\nsamples = 5\nvalue = [5, 1]"] ;
655 -> 656 ;
657 [label="gini = 0.0\nsamples = 1\nvalue = [0, 1]"] ;
656 -> 657 ;
658 [label="gini = 0.0\nsamples = 4\nvalue = [5, 0]"] ;
656 -> 658 ;
659 [label="gini = 0.0\nsamples = 2\nvalue = [0, 6]"] ;
655 -> 659 ;
660 [label="X[23] <= 1909.03\ngini = 0.498\nsamples = 367\nvalue = [307, 271]"] ;
392 -> 660 ;
661 [label="X[9] <= 434.0\ngini = 0.493\nsamples = 125\nvalue = [85, 108]"] ;
660 -> 661 ;
662 [label="X[18] <= 102.5\ngini = 0.427\nsamples = 46\nvalue = [21, 47]"] ;
661 -> 662 ;
663 [label="X[9] <= 368.265\ngini = 0.473\nsamples = 10\nvalue = [8, 5]"] ;
662 -> 663 ;
664 [label="X[24] <= 88.0\ngini = 0.219\nsamples = 6\nvalue = [7, 1]"] ;
663 -> 664 ;
665 [label="gini = 0.0\nsamples = 1\nvalue = [0, 1]"] ;
664 -> 665 ;
666 [label="gini = 0.0\nsamples = 5\nvalue = [7, 0]"] ;
664 -> 666 ;
667 [label="X[26] <= 206.5\ngini = 0.32\nsamples = 4\nvalue = [1, 4]"] ;
663 -> 667 ;
668 [label="gini = 0.0\nsamples = 1\nvalue = [0, 2]"] ;
667 -> 668 ;
669 [label="X[21] <= 415.5\ngini = 0.444\nsamples = 3\nvalue = [1, 2]"] ;
667 -> 669 ;
670 [label="gini = 0.0\nsamples = 1\nvalue = [1, 0]"] ;
669 -> 670 ;
671 [label="gini = 0.0\nsamples = 2\nvalue = [0, 2]"] ;
669 -> 671 ;
672 [label="X[21] <= 7111.625\ngini = 0.361\nsamples = 36\nvalue = [13, 42]"] ;
662 -> 672 ;
673 [label="X[11] <= 124.0\ngini = 0.185\nsamples = 18\nvalue = [3, 26]"] ;
672 -> 673 ;
674 [label="gini = 0.0\nsamples = 1\nvalue = [1, 0]"] ;
673 -> 674 ;
675 [label="X[11] <= 790.245\ngini = 0.133\nsamples = 17\nvalue = [2, 26]"] ;
673 -> 675 ;
676 [label="X[15] <= 129.5\ngini = 0.071\nsamples = 16\nvalue = [1, 26]"] ;
675 -> 676 ;
677 [label="X[17] <= 6745.0\ngini = 0.444\nsamples = 3\nvalue = [1, 2]"] ;
676 -> 677 ;
678 [label="gini = 0.0\nsamples = 2\nvalue = [0, 2]"] ;
677 -> 678 ;
679 [label="gini = 0.0\nsamples = 1\nvalue = [1, 0]"] ;
677 -> 679 ;
680 [label="gini = 0.0\nsamples = 13\nvalue = [0, 24]"] ;
676 -> 680 ;
681 [label="gini = 0.0\nsamples = 1\nvalue = [1, 0]"] ;
675 -> 681 ;
682 [label="X[14] <= 382.0\ngini = 0.473\nsamples = 18\nvalue = [10, 16]"] ;
672 -> 682 ;
683 [label="X[27] <= 3792.33\ngini = 0.245\nsamples = 6\nvalue = [6, 1]"] ;
682 -> 683 ;
684 [label="gini = 0.0\nsamples = 1\nvalue = [0, 1]"] ;
683 -> 684 ;
685 [label="gini = 0.0\nsamples = 5\nvalue = [6, 0]"] ;
683 -> 685 ;
686 [label="X[24] <= 65.0\ngini = 0.332\nsamples = 12\nvalue = [4, 15]"] ;
682 -> 686 ;
687 [label="gini = 0.0\nsamples = 1\nvalue = [1, 0]"] ;
686 -> 687 ;
688 [label="X[24] <= 329.0\ngini = 0.278\nsamples = 11\nvalue = [3, 15]"] ;
686 -> 688 ;
689 [label="X[26] <= 105.0\ngini = 0.133\nsamples = 9\nvalue = [1, 13]"] ;
688 -> 689 ;
690 [label="X[6] <= 96.5\ngini = 0.32\nsamples = 3\nvalue = [1, 4]"] ;
689 -> 690 ;
691 [label="gini = 0.0\nsamples = 2\nvalue = [0, 4]"] ;
690 -> 691 ;
692 [label="gini = 0.0\nsamples = 1\nvalue = [1, 0]"] ;
690 -> 692 ;
693 [label="gini = 0.0\nsamples = 6\nvalue = [0, 9]"] ;
689 -> 693 ;
694 [label="X[13] <= 114.5\ngini = 0.5\nsamples = 2\nvalue = [2, 2]"] ;
688 -> 694 ;
695 [label="gini = 0.0\nsamples = 1\nvalue = [2, 0]"] ;
694 -> 695 ;
696 [label="gini = 0.0\nsamples = 1\nvalue = [0, 2]"] ;
694 -> 696 ;
697 [label="X[29] <= 1132.405\ngini = 0.5\nsamples = 79\nvalue = [64, 61]"] ;
661 -> 697 ;
698 [label="X[7] <= 81.15\ngini = 0.485\nsamples = 61\nvalue = [58, 41]"] ;
697 -> 698 ;
699 [label="X[23] <= 465.515\ngini = 0.456\nsamples = 24\nvalue = [13, 24]"] ;
698 -> 699 ;
700 [label="gini = 0.0\nsamples = 2\nvalue = [5, 0]"] ;
699 -> 700 ;
701 [label="X[18] <= 1795.75\ngini = 0.375\nsamples = 22\nvalue = [8, 24]"] ;
699 -> 701 ;
702 [label="X[24] <= 959.0\ngini = 0.32\nsamples = 20\nvalue = [6, 24]"] ;
701 -> 702 ;
703 [label="gini = 0.0\nsamples = 15\nvalue = [0, 23]"] ;
702 -> 703 ;
704 [label="X[29] <= 1023.0\ngini = 0.245\nsamples = 5\nvalue = [6, 1]"] ;
702 -> 704 ;
705 [label="X[24] <= 1005.0\ngini = 0.444\nsamples = 2\nvalue = [2, 1]"] ;
704 -> 705 ;
706 [label="gini = 0.0\nsamples = 1\nvalue = [2, 0]"] ;
705 -> 706 ;
707 [label="gini = 0.0\nsamples = 1\nvalue = [0, 1]"] ;
705 -> 707 ;
708 [label="gini = 0.0\nsamples = 3\nvalue = [4, 0]"] ;
704 -> 708 ;
709 [label="gini = 0.0\nsamples = 2\nvalue = [2, 0]"] ;
701 -> 709 ;
710 [label="X[20] <= 798.5\ngini = 0.398\nsamples = 37\nvalue = [45, 17]"] ;
698 -> 710 ;
711 [label="X[14] <= 807.0\ngini = 0.133\nsamples = 15\nvalue = [26, 2]"] ;
710 -> 711 ;
712 [label="gini = 0.0\nsamples = 14\nvalue = [26, 0]"] ;
711 -> 712 ;
713 [label="gini = 0.0\nsamples = 1\nvalue = [0, 2]"] ;
711 -> 713 ;
714 [label="X[13] <= 72.0\ngini = 0.493\nsamples = 22\nvalue = [19, 15]"] ;
710 -> 714 ;
715 [label="X[23] <= 1015.0\ngini = 0.245\nsamples = 14\nvalue = [18, 3]"] ;
714 -> 715 ;
716 [label="X[1] <= 205.335\ngini = 0.375\nsamples = 3\nvalue = [1, 3]"] ;
715 -> 716 ;
717 [label="gini = 0.0\nsamples = 2\nvalue = [0, 3]"] ;
716 -> 717 ;
718 [label="gini = 0.0\nsamples = 1\nvalue = [1, 0]"] ;
716 -> 718 ;
719 [label="gini = 0.0\nsamples = 11\nvalue = [17, 0]"] ;
715 -> 719 ;
720 [label="X[8] <= 564.355\ngini = 0.142\nsamples = 8\nvalue = [1, 12]"] ;
714 -> 720 ;
721 [label="gini = 0.0\nsamples = 7\nvalue = [0, 12]"] ;
720 -> 721 ;
722 [label="gini = 0.0\nsamples = 1\nvalue = [1, 0]"] ;
720 -> 722 ;
723 [label="X[24] <= 1305.0\ngini = 0.355\nsamples = 18\nvalue = [6, 20]"] ;
697 -> 723 ;
724 [label="gini = 0.0\nsamples = 5\nvalue = [0, 9]"] ;
723 -> 724 ;
725 [label="X[17] <= 4270.9\ngini = 0.457\nsamples = 13\nvalue = [6, 11]"] ;
723 -> 725 ;
726 [label="X[22] <= 817.0\ngini = 0.48\nsamples = 8\nvalue = [6, 4]"] ;
725 -> 726 ;
727 [label="X[21] <= 2467.0\ngini = 0.5\nsamples = 7\nvalue = [4, 4]"] ;
726 -> 727 ;
728 [label="gini = 0.0\nsamples = 2\nvalue = [2, 0]"] ;
727 -> 728 ;
729 [label="X[26] <= 453.5\ngini = 0.444\nsamples = 5\nvalue = [2, 4]"] ;
727 -> 729 ;
730 [label="X[18] <= 4381.0\ngini = 0.48\nsamples = 4\nvalue = [2, 3]"] ;
729 -> 730 ;
731 [label="X[29] <= 1812.0\ngini = 0.444\nsamples = 3\nvalue = [2, 1]"] ;
730 -> 731 ;
732 [label="gini = 0.0\nsamples = 2\nvalue = [2, 0]"] ;
731 -> 732 ;
733 [label="gini = 0.0\nsamples = 1\nvalue = [0, 1]"] ;
731 -> 733 ;
734 [label="gini = 0.0\nsamples = 1\nvalue = [0, 2]"] ;
730 -> 734 ;
735 [label="gini = 0.0\nsamples = 1\nvalue = [0, 1]"] ;
729 -> 735 ;
736 [label="gini = 0.0\nsamples = 1\nvalue = [2, 0]"] ;
726 -> 736 ;
737 [label="gini = 0.0\nsamples = 5\nvalue = [0, 7]"] ;
725 -> 737 ;
738 [label="X[29] <= 83.0\ngini = 0.488\nsamples = 242\nvalue = [222, 163]"] ;
660 -> 738 ;
739 [label="gini = 0.0\nsamples = 5\nvalue = [0, 11]"] ;
738 -> 739 ;
740 [label="X[20] <= 5346.0\ngini = 0.482\nsamples = 237\nvalue = [222, 152]"] ;
738 -> 740 ;
741 [label="X[24] <= 1553.062\ngini = 0.422\nsamples = 100\nvalue = [106, 46]"] ;
740 -> 741 ;
742 [label="X[11] <= 3432.11\ngini = 0.5\nsamples = 44\nvalue = [29, 29]"] ;
741 -> 742 ;
743 [label="X[7] <= 2934.0\ngini = 0.482\nsamples = 37\nvalue = [19, 28]"] ;
742 -> 743 ;
744 [label="X[8] <= 34.0\ngini = 0.444\nsamples = 34\nvalue = [14, 28]"] ;
743 -> 744 ;
745 [label="X[19] <= 230.0\ngini = 0.271\nsamples = 25\nvalue = [5, 26]"] ;
744 -> 745 ;
746 [label="gini = 0.0\nsamples = 17\nvalue = [0, 21]"] ;
745 -> 746 ;
747 [label="X[15] <= 1869.5\ngini = 0.5\nsamples = 8\nvalue = [5, 5]"] ;
745 -> 747 ;
748 [label="X[0] <= 460.75\ngini = 0.32\nsamples = 4\nvalue = [4, 1]"] ;
747 -> 748 ;
749 [label="gini = 0.0\nsamples = 3\nvalue = [4, 0]"] ;
748 -> 749 ;
750 [label="gini = 0.0\nsamples = 1\nvalue = [0, 1]"] ;
748 -> 750 ;
751 [label="X[10] <= 268.655\ngini = 0.32\nsamples = 4\nvalue = [1, 4]"] ;
747 -> 751 ;
752 [label="gini = 0.0\nsamples = 1\nvalue = [1, 0]"] ;
751 -> 752 ;
753 [label="gini = 0.0\nsamples = 3\nvalue = [0, 4]"] ;
751 -> 753 ;
754 [label="X[8] <= 995.0\ngini = 0.298\nsamples = 9\nvalue = [9, 2]"] ;
744 -> 754 ;
755 [label="X[19] <= 485.5\ngini = 0.18\nsamples = 8\nvalue = [9, 1]"] ;
754 -> 755 ;
756 [label="gini = 0.0\nsamples = 7\nvalue = [9, 0]"] ;
755 -> 756 ;
757 [label="gini = 0.0\nsamples = 1\nvalue = [0, 1]"] ;
755 -> 757 ;
758 [label="gini = 0.0\nsamples = 1\nvalue = [0, 1]"] ;
754 -> 758 ;
759 [label="gini = 0.0\nsamples = 3\nvalue = [5, 0]"] ;
743 -> 759 ;
760 [label="X[20] <= 3718.25\ngini = 0.165\nsamples = 7\nvalue = [10, 1]"] ;
742 -> 760 ;
761 [label="gini = 0.0\nsamples = 4\nvalue = [7, 0]"] ;
760 -> 761 ;
762 [label="X[18] <= 587.0\ngini = 0.375\nsamples = 3\nvalue = [3, 1]"] ;
760 -> 762 ;
763 [label="gini = 0.0\nsamples = 2\nvalue = [3, 0]"] ;
762 -> 763 ;
764 [label="gini = 0.0\nsamples = 1\nvalue = [0, 1]"] ;
762 -> 764 ;
765 [label="X[9] <= 1784.062\ngini = 0.296\nsamples = 56\nvalue = [77, 17]"] ;
741 -> 765 ;
766 [label="gini = 0.0\nsamples = 1\nvalue = [0, 2]"] ;
765 -> 766 ;
767 [label="X[12] <= 81.235\ngini = 0.273\nsamples = 55\nvalue = [77, 15]"] ;
765 -> 767 ;
768 [label="X[18] <= 54.5\ngini = 0.26\nsamples = 54\nvalue = [77, 14]"] ;
767 -> 768 ;
769 [label="X[8] <= 33.465\ngini = 0.361\nsamples = 22\nvalue = [29, 9]"] ;
768 -> 769 ;
770 [label="X[21] <= 21729.961\ngini = 0.231\nsamples = 17\nvalue = [26, 4]"] ;
769 -> 770 ;
771 [label="X[28] <= 2583.0\ngini = 0.185\nsamples = 16\nvalue = [26, 3]"] ;
770 -> 771 ;
772 [label="X[23] <= 3067.5\ngini = 0.071\nsamples = 15\nvalue = [26, 1]"] ;
771 -> 772 ;
773 [label="X[20] <= 2852.025\ngini = 0.18\nsamples = 7\nvalue = [9, 1]"] ;
772 -> 773 ;
774 [label="gini = 0.0\nsamples = 6\nvalue = [9, 0]"] ;
773 -> 774 ;
775 [label="gini = 0.0\nsamples = 1\nvalue = [0, 1]"] ;
773 -> 775 ;
776 [label="gini = 0.0\nsamples = 8\nvalue = [17, 0]"] ;
772 -> 776 ;
777 [label="gini = 0.0\nsamples = 1\nvalue = [0, 2]"] ;
771 -> 777 ;
778 [label="gini = 0.0\nsamples = 1\nvalue = [0, 1]"] ;
770 -> 778 ;
779 [label="X[21] <= 3333.875\ngini = 0.469\nsamples = 5\nvalue = [3, 5]"] ;
769 -> 779 ;
780 [label="gini = 0.0\nsamples = 2\nvalue = [2, 0]"] ;
779 -> 780 ;
781 [label="X[16] <= 52.125\ngini = 0.278\nsamples = 3\nvalue = [1, 5]"] ;
779 -> 781 ;
782 [label="X[21] <= 6987.5\ngini = 0.5\nsamples = 2\nvalue = [1, 1]"] ;
781 -> 782 ;
783 [label="gini = 0.0\nsamples = 1\nvalue = [1, 0]"] ;
782 -> 783 ;
784 [label="gini = 0.0\nsamples = 1\nvalue = [0, 1]"] ;
782 -> 784 ;
785 [label="gini = 0.0\nsamples = 1\nvalue = [0, 4]"] ;
781 -> 785 ;
786 [label="X[7] <= 318.615\ngini = 0.171\nsamples = 32\nvalue = [48, 5]"] ;
768 -> 786 ;
787 [label="X[23] <= 4866.5\ngini = 0.36\nsamples = 11\nvalue = [13, 4]"] ;
786 -> 787 ;
788 [label="X[8] <= 2527.0\ngini = 0.231\nsamples = 9\nvalue = [13, 2]"] ;
787 -> 788 ;
789 [label="X[14] <= 2090.0\ngini = 0.133\nsamples = 8\nvalue = [13, 1]"] ;
788 -> 789 ;
790 [label="gini = 0.0\nsamples = 1\nvalue = [0, 1]"] ;
789 -> 790 ;
791 [label="gini = 0.0\nsamples = 7\nvalue = [13, 0]"] ;
789 -> 791 ;
792 [label="gini = 0.0\nsamples = 1\nvalue = [0, 1]"] ;
788 -> 792 ;
793 [label="gini = 0.0\nsamples = 2\nvalue = [0, 2]"] ;
787 -> 793 ;
794 [label="X[18] <= 244.0\ngini = 0.054\nsamples = 21\nvalue = [35, 1]"] ;
786 -> 794 ;
795 [label="X[11] <= 3261.0\ngini = 0.32\nsamples = 4\nvalue = [4, 1]"] ;
794 -> 795 ;
796 [label="X[7] <= 2445.0\ngini = 0.5\nsamples = 2\nvalue = [1, 1]"] ;
795 -> 796 ;
797 [label="gini = 0.0\nsamples = 1\nvalue = [1, 0]"] ;
796 -> 797 ;
798 [label="gini = 0.0\nsamples = 1\nvalue = [0, 1]"] ;
796 -> 798 ;
799 [label="gini = 0.0\nsamples = 2\nvalue = [3, 0]"] ;
795 -> 799 ;
800 [label="gini = 0.0\nsamples = 17\nvalue = [31, 0]"] ;
794 -> 800 ;
801 [label="gini = 0.0\nsamples = 1\nvalue = [0, 1]"] ;
767 -> 801 ;
802 [label="X[29] <= 731.5\ngini = 0.499\nsamples = 137\nvalue = [116, 106]"] ;
740 -> 802 ;
803 [label="X[20] <= 6323.29\ngini = 0.343\nsamples = 27\nvalue = [32, 9]"] ;
802 -> 803 ;
804 [label="gini = 0.0\nsamples = 2\nvalue = [0, 3]"] ;
803 -> 804 ;
805 [label="X[1] <= 38.5\ngini = 0.266\nsamples = 25\nvalue = [32, 6]"] ;
803 -> 805 ;
806 [label="gini = 0.0\nsamples = 7\nvalue = [12, 0]"] ;
805 -> 806 ;
807 [label="X[11] <= 2058.71\ngini = 0.355\nsamples = 18\nvalue = [20, 6]"] ;
805 -> 807 ;
808 [label="X[7] <= 1083.215\ngini = 0.111\nsamples = 10\nvalue = [16, 1]"] ;
807 -> 808 ;
809 [label="gini = 0.0\nsamples = 9\nvalue = [16, 0]"] ;
808 -> 809 ;
810 [label="gini = 0.0\nsamples = 1\nvalue = [0, 1]"] ;
808 -> 810 ;
811 [label="X[21] <= 8349.814\ngini = 0.494\nsamples = 8\nvalue = [4, 5]"] ;
807 -> 811 ;
812 [label="X[0] <= 383.0\ngini = 0.375\nsamples = 4\nvalue = [3, 1]"] ;
811 -> 812 ;
813 [label="gini = 0.0\nsamples = 1\nvalue = [0, 1]"] ;
812 -> 813 ;
814 [label="gini = 0.0\nsamples = 3\nvalue = [3, 0]"] ;
812 -> 814 ;
815 [label="X[15] <= 9718.0\ngini = 0.32\nsamples = 4\nvalue = [1, 4]"] ;
811 -> 815 ;
816 [label="gini = 0.0\nsamples = 1\nvalue = [1, 0]"] ;
815 -> 816 ;
817 [label="gini = 0.0\nsamples = 3\nvalue = [0, 4]"] ;
815 -> 817 ;
818 [label="X[29] <= 6535.65\ngini = 0.497\nsamples = 110\nvalue = [84, 97]"] ;
802 -> 818 ;
819 [label="X[18] <= 5917.5\ngini = 0.419\nsamples = 44\nvalue = [23, 54]"] ;
818 -> 819 ;
820 [label="X[11] <= 7306.2\ngini = 0.378\nsamples = 41\nvalue = [18, 53]"] ;
819 -> 820 ;
821 [label="X[15] <= 6918.825\ngini = 0.463\nsamples = 26\nvalue = [16, 28]"] ;
820 -> 821 ;
822 [label="X[2] <= 1.5\ngini = 0.111\nsamples = 11\nvalue = [1, 16]"] ;
821 -> 822 ;
823 [label="gini = 0.0\nsamples = 9\nvalue = [0, 15]"] ;
822 -> 823 ;
824 [label="X[1] <= 583.667\ngini = 0.5\nsamples = 2\nvalue = [1, 1]"] ;
822 -> 824 ;
825 [label="gini = 0.0\nsamples = 1\nvalue = [0, 1]"] ;
824 -> 825 ;
826 [label="gini = 0.0\nsamples = 1\nvalue = [1, 0]"] ;
824 -> 826 ;
827 [label="X[27] <= 13409.619\ngini = 0.494\nsamples = 15\nvalue = [15, 12]"] ;
821 -> 827 ;
828 [label="gini = 0.0\nsamples = 4\nvalue = [6, 0]"] ;
827 -> 828 ;
829 [label="X[16] <= 110.225\ngini = 0.49\nsamples = 11\nvalue = [9, 12]"] ;
827 -> 829 ;
830 [label="X[14] <= 11154.75\ngini = 0.18\nsamples = 5\nvalue = [1, 9]"] ;
829 -> 830 ;
831 [label="gini = 0.0\nsamples = 1\nvalue = [1, 0]"] ;
830 -> 831 ;
832 [label="gini = 0.0\nsamples = 4\nvalue = [0, 9]"] ;
830 -> 832 ;
833 [label="X[11] <= 4806.09\ngini = 0.397\nsamples = 6\nvalue = [8, 3]"] ;
829 -> 833 ;
834 [label="gini = 0.0\nsamples = 4\nvalue = [8, 0]"] ;
833 -> 834 ;
835 [label="gini = 0.0\nsamples = 2\nvalue = [0, 3]"] ;
833 -> 835 ;
836 [label="X[18] <= 39.5\ngini = 0.137\nsamples = 15\nvalue = [2, 25]"] ;
820 -> 836 ;
837 [label="X[0] <= 737.833\ngini = 0.5\nsamples = 4\nvalue = [2, 2]"] ;
836 -> 837 ;
838 [label="gini = 0.0\nsamples = 2\nvalue = [0, 2]"] ;
837 -> 838 ;
839 [label="gini = 0.0\nsamples = 2\nvalue = [2, 0]"] ;
837 -> 839 ;
840 [label="gini = 0.0\nsamples = 11\nvalue = [0, 23]"] ;
836 -> 840 ;
841 [label="X[24] <= 3292.0\ngini = 0.278\nsamples = 3\nvalue = [5, 1]"] ;
819 -> 841 ;
842 [label="gini = 0.0\nsamples = 2\nvalue = [5, 0]"] ;
841 -> 842 ;
843 [label="gini = 0.0\nsamples = 1\nvalue = [0, 1]"] ;
841 -> 843 ;
844 [label="X[24] <= 16300.15\ngini = 0.485\nsamples = 66\nvalue = [61, 43]"] ;
818 -> 844 ;
845 [label="X[18] <= 264.0\ngini = 0.421\nsamples = 42\nvalue = [44, 19]"] ;
844 -> 845 ;
846 [label="X[14] <= 7739.5\ngini = 0.499\nsamples = 18\nvalue = [14, 13]"] ;
845 -> 846 ;
847 [label="gini = 0.0\nsamples = 6\nvalue = [10, 0]"] ;
846 -> 847 ;
848 [label="X[15] <= 11647.27\ngini = 0.36\nsamples = 12\nvalue = [4, 13]"] ;
846 -> 848 ;
849 [label="X[22] <= 92.5\ngini = 0.5\nsamples = 5\nvalue = [4, 4]"] ;
848 -> 849 ;
850 [label="gini = 0.0\nsamples = 3\nvalue = [3, 0]"] ;
849 -> 850 ;
851 [label="X[18] <= 92.0\ngini = 0.32\nsamples = 2\nvalue = [1, 4]"] ;
849 -> 851 ;
852 [label="gini = 0.0\nsamples = 1\nvalue = [0, 4]"] ;
851 -> 852 ;
853 [label="gini = 0.0\nsamples = 1\nvalue = [1, 0]"] ;
851 -> 853 ;
854 [label="gini = 0.0\nsamples = 7\nvalue = [0, 9]"] ;
848 -> 854 ;
855 [label="X[14] <= 7221.75\ngini = 0.278\nsamples = 24\nvalue = [30, 6]"] ;
845 -> 855 ;
856 [label="X[21] <= 4278.025\ngini = 0.375\nsamples = 3\nvalue = [1, 3]"] ;
855 -> 856 ;
857 [label="gini = 0.0\nsamples = 1\nvalue = [1, 0]"] ;
856 -> 857 ;
858 [label="gini = 0.0\nsamples = 2\nvalue = [0, 3]"] ;
856 -> 858 ;
859 [label="X[0] <= 5906.75\ngini = 0.17\nsamples = 21\nvalue = [29, 3]"] ;
855 -> 859 ;
860 [label="X[20] <= 11231.0\ngini = 0.42\nsamples = 8\nvalue = [7, 3]"] ;
859 -> 860 ;
861 [label="gini = 0.0\nsamples = 4\nvalue = [6, 0]"] ;
860 -> 861 ;
862 [label="X[26] <= 20.5\ngini = 0.375\nsamples = 4\nvalue = [1, 3]"] ;
860 -> 862 ;
863 [label="gini = 0.0\nsamples = 3\nvalue = [0, 3]"] ;
862 -> 863 ;
864 [label="gini = 0.0\nsamples = 1\nvalue = [1, 0]"] ;
862 -> 864 ;
865 [label="gini = 0.0\nsamples = 13\nvalue = [22, 0]"] ;
859 -> 865 ;
866 [label="X[9] <= 53738.75\ngini = 0.485\nsamples = 24\nvalue = [17, 24]"] ;
844 -> 866 ;
867 [label="X[17] <= 14390.15\ngini = 0.397\nsamples = 21\nvalue = [9, 24]"] ;
866 -> 867 ;
868 [label="X[4] <= 163.5\ngini = 0.49\nsamples = 9\nvalue = [8, 6]"] ;
867 -> 868 ;
869 [label="X[21] <= 33755.5\ngini = 0.444\nsamples = 8\nvalue = [8, 4]"] ;
868 -> 869 ;
870 [label="X[7] <= 159.0\ngini = 0.49\nsamples = 5\nvalue = [3, 4]"] ;
869 -> 870 ;
871 [label="gini = 0.0\nsamples = 2\nvalue = [3, 0]"] ;
870 -> 871 ;
872 [label="gini = 0.0\nsamples = 3\nvalue = [0, 4]"] ;
870 -> 872 ;
873 [label="gini = 0.0\nsamples = 3\nvalue = [5, 0]"] ;
869 -> 873 ;
874 [label="gini = 0.0\nsamples = 1\nvalue = [0, 2]"] ;
868 -> 874 ;
875 [label="X[0] <= 5164.478\ngini = 0.1\nsamples = 12\nvalue = [1, 18]"] ;
867 -> 875 ;
876 [label="X[7] <= 1673.5\ngini = 0.5\nsamples = 2\nvalue = [1, 1]"] ;
875 -> 876 ;
877 [label="gini = 0.0\nsamples = 1\nvalue = [0, 1]"] ;
876 -> 877 ;
878 [label="gini = 0.0\nsamples = 1\nvalue = [1, 0]"] ;
876 -> 878 ;
879 [label="gini = 0.0\nsamples = 10\nvalue = [0, 17]"] ;
875 -> 879 ;
880 [label="gini = 0.0\nsamples = 3\nvalue = [8, 0]"] ;
866 -> 880 ;
881 [label="X[6] <= 314.7\ngini = 0.5\nsamples = 1028\nvalue = [815, 803]"] ;
391 -> 881 ;
882 [label="X[23] <= 2878.53\ngini = 0.5\nsamples = 960\nvalue = [745, 770]"] ;
881 -> 882 ;
883 [label="X[14] <= 2391.585\ngini = 0.463\nsamples = 155\nvalue = [85, 148]"] ;
882 -> 883 ;
884 [label="X[21] <= 1476.125\ngini = 0.488\nsamples = 128\nvalue = [82, 112]"] ;
883 -> 884 ;
885 [label="X[0] <= 144.288\ngini = 0.349\nsamples = 23\nvalue = [9, 31]"] ;
884 -> 885 ;
886 [label="X[10] <= 2156.195\ngini = 0.444\nsamples = 14\nvalue = [8, 16]"] ;
885 -> 886 ;
887 [label="X[21] <= 1389.5\ngini = 0.397\nsamples = 13\nvalue = [6, 16]"] ;
886 -> 887 ;
888 [label="X[22] <= 1164.68\ngini = 0.49\nsamples = 9\nvalue = [6, 8]"] ;
887 -> 888 ;
889 [label="X[21] <= 1345.0\ngini = 0.444\nsamples = 8\nvalue = [4, 8]"] ;
888 -> 889 ;
890 [label="X[12] <= 51.625\ngini = 0.32\nsamples = 7\nvalue = [2, 8]"] ;
889 -> 890 ;
891 [label="X[27] <= 1093.5\ngini = 0.198\nsamples = 6\nvalue = [1, 8]"] ;
890 -> 891 ;
892 [label="gini = 0.0\nsamples = 1\nvalue = [1, 0]"] ;
891 -> 892 ;
893 [label="gini = 0.0\nsamples = 5\nvalue = [0, 8]"] ;
891 -> 893 ;
894 [label="gini = 0.0\nsamples = 1\nvalue = [1, 0]"] ;
890 -> 894 ;
895 [label="gini = 0.0\nsamples = 1\nvalue = [2, 0]"] ;
889 -> 895 ;
896 [label="gini = 0.0\nsamples = 1\nvalue = [2, 0]"] ;
888 -> 896 ;
897 [label="gini = 0.0\nsamples = 4\nvalue = [0, 8]"] ;
887 -> 897 ;
898 [label="gini = 0.0\nsamples = 1\nvalue = [2, 0]"] ;
886 -> 898 ;
899 [label="X[29] <= 1273.0\ngini = 0.117\nsamples = 9\nvalue = [1, 15]"] ;
885 -> 899 ;
900 [label="X[11] <= 1231.5\ngini = 0.219\nsamples = 7\nvalue = [1, 7]"] ;
899 -> 900 ;
901 [label="gini = 0.0\nsamples = 6\nvalue = [0, 7]"] ;
900 -> 901 ;
902 [label="gini = 0.0\nsamples = 1\nvalue = [1, 0]"] ;
900 -> 902 ;
903 [label="gini = 0.0\nsamples = 2\nvalue = [0, 8]"] ;
899 -> 903 ;
904 [label="X[17] <= 38804.23\ngini = 0.499\nsamples = 105\nvalue = [73, 81]"] ;
884 -> 904 ;
905 [label="X[1] <= 275.082\ngini = 0.495\nsamples = 100\nvalue = [65, 80]"] ;
904 -> 905 ;
906 [label="X[24] <= 1167.5\ngini = 0.488\nsamples = 96\nvalue = [58, 79]"] ;
905 -> 906 ;
907 [label="X[20] <= 687.5\ngini = 0.496\nsamples = 91\nvalue = [58, 70]"] ;
906 -> 907 ;
908 [label="X[14] <= 617.0\ngini = 0.408\nsamples = 11\nvalue = [10, 4]"] ;
907 -> 908 ;
909 [label="gini = 0.0\nsamples = 3\nvalue = [0, 3]"] ;
908 -> 909 ;
910 [label="X[6] <= 129.5\ngini = 0.165\nsamples = 8\nvalue = [10, 1]"] ;
908 -> 910 ;
911 [label="gini = 0.0\nsamples = 7\nvalue = [10, 0]"] ;
910 -> 911 ;
912 [label="gini = 0.0\nsamples = 1\nvalue = [0, 1]"] ;
910 -> 912 ;
913 [label="X[23] <= 884.0\ngini = 0.488\nsamples = 80\nvalue = [48, 66]"] ;
907 -> 913 ;
914 [label="X[27] <= 592.0\ngini = 0.255\nsamples = 10\nvalue = [3, 17]"] ;
913 -> 914 ;
915 [label="gini = 0.0\nsamples = 1\nvalue = [1, 0]"] ;
914 -> 915 ;
916 [label="X[27] <= 4876.0\ngini = 0.188\nsamples = 9\nvalue = [2, 17]"] ;
914 -> 916 ;
917 [label="gini = 0.0\nsamples = 5\nvalue = [0, 12]"] ;
916 -> 917 ;
918 [label="X[14] <= 801.415\ngini = 0.408\nsamples = 4\nvalue = [2, 5]"] ;
916 -> 918 ;
919 [label="X[27] <= 18959.461\ngini = 0.444\nsamples = 2\nvalue = [2, 1]"] ;
918 -> 919 ;
920 [label="gini = 0.0\nsamples = 1\nvalue = [2, 0]"] ;
919 -> 920 ;
921 [label="gini = 0.0\nsamples = 1\nvalue = [0, 1]"] ;
919 -> 921 ;
922 [label="gini = 0.0\nsamples = 2\nvalue = [0, 4]"] ;
918 -> 922 ;
923 [label="X[22] <= 201.5\ngini = 0.499\nsamples = 70\nvalue = [45, 49]"] ;
913 -> 923 ;
924 [label="X[22] <= 164.04\ngini = 0.476\nsamples = 45\nvalue = [36, 23]"] ;
923 -> 924 ;
925 [label="X[19] <= 1490.68\ngini = 0.493\nsamples = 41\nvalue = [29, 23]"] ;
924 -> 925 ;
926 [label="X[10] <= 1256.5\ngini = 0.412\nsamples = 23\nvalue = [22, 9]"] ;
925 -> 926 ;
927 [label="X[9] <= 276.5\ngini = 0.49\nsamples = 18\nvalue = [12, 9]"] ;
926 -> 927 ;
928 [label="gini = 0.0\nsamples = 5\nvalue = [5, 0]"] ;
927 -> 928 ;
929 [label="X[14] <= 1664.5\ngini = 0.492\nsamples = 13\nvalue = [7, 9]"] ;
927 -> 929 ;
930 [label="X[19] <= 1010.0\ngini = 0.426\nsamples = 11\nvalue = [4, 9]"] ;
929 -> 930 ;
931 [label="X[28] <= 5447.175\ngini = 0.48\nsamples = 4\nvalue = [3, 2]"] ;
930 -> 931 ;
932 [label="X[20] <= 1270.5\ngini = 0.375\nsamples = 3\nvalue = [3, 1]"] ;
931 -> 932 ;
933 [label="gini = 0.0\nsamples = 2\nvalue = [3, 0]"] ;
932 -> 933 ;
934 [label="gini = 0.0\nsamples = 1\nvalue = [0, 1]"] ;
932 -> 934 ;
935 [label="gini = 0.0\nsamples = 1\nvalue = [0, 1]"] ;
931 -> 935 ;
936 [label="X[24] <= 1128.155\ngini = 0.219\nsamples = 7\nvalue = [1, 7]"] ;
930 -> 936 ;
937 [label="gini = 0.0\nsamples = 6\nvalue = [0, 7]"] ;
936 -> 937 ;
938 [label="gini = 0.0\nsamples = 1\nvalue = [1, 0]"] ;
936 -> 938 ;
939 [label="gini = 0.0\nsamples = 2\nvalue = [3, 0]"] ;
929 -> 939 ;
940 [label="gini = 0.0\nsamples = 5\nvalue = [10, 0]"] ;
926 -> 940 ;
941 [label="X[20] <= 2275.57\ngini = 0.444\nsamples = 18\nvalue = [7, 14]"] ;
925 -> 941 ;
942 [label="X[21] <= 2802.5\ngini = 0.346\nsamples = 16\nvalue = [4, 14]"] ;
941 -> 942 ;
943 [label="gini = 0.0\nsamples = 3\nvalue = [3, 0]"] ;
942 -> 943 ;
944 [label="X[19] <= 1823.0\ngini = 0.124\nsamples = 13\nvalue = [1, 14]"] ;
942 -> 944 ;
945 [label="gini = 0.0\nsamples = 8\nvalue = [0, 9]"] ;
944 -> 945 ;
946 [label="X[16] <= 581.095\ngini = 0.278\nsamples = 5\nvalue = [1, 5]"] ;
944 -> 946 ;
947 [label="gini = 0.0\nsamples = 4\nvalue = [0, 5]"] ;
946 -> 947 ;
948 [label="gini = 0.0\nsamples = 1\nvalue = [1, 0]"] ;
946 -> 948 ;
949 [label="gini = 0.0\nsamples = 2\nvalue = [3, 0]"] ;
941 -> 949 ;
950 [label="gini = 0.0\nsamples = 4\nvalue = [7, 0]"] ;
924 -> 950 ;
951 [label="X[23] <= 1341.83\ngini = 0.382\nsamples = 25\nvalue = [9, 26]"] ;
923 -> 951 ;
952 [label="X[2] <= 0.5\ngini = 0.32\nsamples = 5\nvalue = [4, 1]"] ;
951 -> 952 ;
953 [label="X[19] <= 1050.61\ngini = 0.5\nsamples = 2\nvalue = [1, 1]"] ;
952 -> 953 ;
954 [label="gini = 0.0\nsamples = 1\nvalue = [0, 1]"] ;
953 -> 954 ;
955 [label="gini = 0.0\nsamples = 1\nvalue = [1, 0]"] ;
953 -> 955 ;
956 [label="gini = 0.0\nsamples = 3\nvalue = [3, 0]"] ;
952 -> 956 ;
957 [label="X[11] <= 1488.5\ngini = 0.278\nsamples = 20\nvalue = [5, 25]"] ;
951 -> 957 ;
958 [label="X[28] <= 2541.5\ngini = 0.087\nsamples = 13\nvalue = [1, 21]"] ;
957 -> 958 ;
959 [label="gini = 0.0\nsamples = 9\nvalue = [0, 17]"] ;
958 -> 959 ;
960 [label="X[14] <= 1926.0\ngini = 0.32\nsamples = 4\nvalue = [1, 4]"] ;
958 -> 960 ;
961 [label="gini = 0.0\nsamples = 3\nvalue = [0, 4]"] ;
960 -> 961 ;
962 [label="gini = 0.0\nsamples = 1\nvalue = [1, 0]"] ;
960 -> 962 ;
963 [label="X[21] <= 2612.48\ngini = 0.5\nsamples = 7\nvalue = [4, 4]"] ;
957 -> 963 ;
964 [label="gini = 0.0\nsamples = 2\nvalue = [3, 0]"] ;
963 -> 964 ;
965 [label="X[8] <= 410.0\ngini = 0.32\nsamples = 5\nvalue = [1, 4]"] ;
963 -> 965 ;
966 [label="gini = 0.0\nsamples = 4\nvalue = [0, 4]"] ;
965 -> 966 ;
967 [label="gini = 0.0\nsamples = 1\nvalue = [1, 0]"] ;
965 -> 967 ;
968 [label="gini = 0.0\nsamples = 5\nvalue = [0, 9]"] ;
906 -> 968 ;
969 [label="X[10] <= 1699.5\ngini = 0.219\nsamples = 4\nvalue = [7, 1]"] ;
905 -> 969 ;
970 [label="gini = 0.0\nsamples = 2\nvalue = [6, 0]"] ;
969 -> 970 ;
971 [label="X[7] <= 1219.0\ngini = 0.5\nsamples = 2\nvalue = [1, 1]"] ;
969 -> 971 ;
972 [label="gini = 0.0\nsamples = 1\nvalue = [0, 1]"] ;
971 -> 972 ;
973 [label="gini = 0.0\nsamples = 1\nvalue = [1, 0]"] ;
971 -> 973 ;
974 [label="X[15] <= 279.0\ngini = 0.198\nsamples = 5\nvalue = [8, 1]"] ;
904 -> 974 ;
975 [label="gini = 0.0\nsamples = 4\nvalue = [8, 0]"] ;
974 -> 975 ;
976 [label="gini = 0.0\nsamples = 1\nvalue = [0, 1]"] ;
974 -> 976 ;
977 [label="X[22] <= 755.5\ngini = 0.142\nsamples = 27\nvalue = [3, 36]"] ;
883 -> 977 ;
978 [label="gini = 0.0\nsamples = 19\nvalue = [0, 28]"] ;
977 -> 978 ;
979 [label="X[9] <= 2234.0\ngini = 0.397\nsamples = 8\nvalue = [3, 8]"] ;
977 -> 979 ;
980 [label="X[9] <= 1057.5\ngini = 0.5\nsamples = 5\nvalue = [3, 3]"] ;
979 -> 980 ;
981 [label="gini = 0.0\nsamples = 3\nvalue = [0, 3]"] ;
980 -> 981 ;
982 [label="gini = 0.0\nsamples = 2\nvalue = [3, 0]"] ;
980 -> 982 ;
983 [label="gini = 0.0\nsamples = 3\nvalue = [0, 5]"] ;
979 -> 983 ;
984 [label="X[18] <= 3238.5\ngini = 0.5\nsamples = 805\nvalue = [660, 622]"] ;
882 -> 984 ;
985 [label="X[22] <= 60.175\ngini = 0.497\nsamples = 669\nvalue = [571, 486]"] ;
984 -> 985 ;
986 [label="X[29] <= 24534.65\ngini = 0.471\nsamples = 272\nvalue = [274, 168]"] ;
985 -> 986 ;
987 [label="X[15] <= 48.0\ngini = 0.458\nsamples = 255\nvalue = [268, 148]"] ;
986 -> 987 ;
988 [label="X[1] <= 3083.117\ngini = 0.391\nsamples = 122\nvalue = [143, 52]"] ;
987 -> 988 ;
989 [label="X[18] <= 997.0\ngini = 0.423\nsamples = 110\nvalue = [117, 51]"] ;
988 -> 989 ;
990 [label="X[17] <= 35848.59\ngini = 0.447\nsamples = 98\nvalue = [98, 50]"] ;
989 -> 990 ;
991 [label="X[19] <= 16614.32\ngini = 0.419\nsamples = 91\nvalue = [96, 41]"] ;
990 -> 991 ;
992 [label="X[14] <= 4301.04\ngini = 0.466\nsamples = 70\nvalue = [65, 38]"] ;
991 -> 992 ;
993 [label="X[17] <= 2952.465\ngini = 0.301\nsamples = 24\nvalue = [31, 7]"] ;
992 -> 993 ;
994 [label="X[20] <= 3810.16\ngini = 0.375\nsamples = 14\nvalue = [18, 6]"] ;
993 -> 994 ;
995 [label="X[7] <= 289.5\ngini = 0.34\nsamples = 13\nvalue = [18, 5]"] ;
994 -> 995 ;
996 [label="X[1] <= 818.673\ngini = 0.494\nsamples = 6\nvalue = [5, 4]"] ;
995 -> 996 ;
997 [label="X[20] <= 3609.0\ngini = 0.469\nsamples = 5\nvalue = [5, 3]"] ;
996 -> 997 ;
998 [label="X[11] <= 2968.5\ngini = 0.375\nsamples = 3\nvalue = [1, 3]"] ;
997 -> 998 ;
999 [label="gini = 0.0\nsamples = 2\nvalue = [0, 3]"] ;
998 -> 999 ;
1000 [label="gini = 0.0\nsamples = 1\nvalue = [1, 0]"] ;
998 -> 1000 ;
1001 [label="gini = 0.0\nsamples = 2\nvalue = [4, 0]"] ;
997 -> 1001 ;
1002 [label="gini = 0.0\nsamples = 1\nvalue = [0, 1]"] ;
996 -> 1002 ;
1003 [label="X[9] <= 2073.363\ngini = 0.133\nsamples = 7\nvalue = [13, 1]"] ;
995 -> 1003 ;
1004 [label="gini = 0.0\nsamples = 4\nvalue = [8, 0]"] ;
1003 -> 1004 ;
1005 [label="X[1] <= 358.582\ngini = 0.278\nsamples = 3\nvalue = [5, 1]"] ;
1003 -> 1005 ;
1006 [label="X[14] <= 3194.03\ngini = 0.5\nsamples = 2\nvalue = [1, 1]"] ;
1005 -> 1006 ;
1007 [label="gini = 0.0\nsamples = 1\nvalue = [0, 1]"] ;
1006 -> 1007 ;
1008 [label="gini = 0.0\nsamples = 1\nvalue = [1, 0]"] ;
1006 -> 1008 ;
1009 [label="gini = 0.0\nsamples = 1\nvalue = [4, 0]"] ;
1005 -> 1009 ;
1010 [label="gini = 0.0\nsamples = 1\nvalue = [0, 1]"] ;
994 -> 1010 ;
1011 [label="X[9] <= 2382.103\ngini = 0.133\nsamples = 10\nvalue = [13, 1]"] ;
993 -> 1011 ;
1012 [label="gini = 0.0\nsamples = 1\nvalue = [0, 1]"] ;
1011 -> 1012 ;
1013 [label="gini = 0.0\nsamples = 9\nvalue = [13, 0]"] ;
1011 -> 1013 ;
1014 [label="X[17] <= 6873.8\ngini = 0.499\nsamples = 46\nvalue = [34, 31]"] ;
992 -> 1014 ;
1015 [label="X[1] <= 1057.204\ngini = 0.478\nsamples = 27\nvalue = [15, 23]"] ;
1014 -> 1015 ;
1016 [label="X[2] <= 0.5\ngini = 0.287\nsamples = 17\nvalue = [4, 19]"] ;
1015 -> 1016 ;
1017 [label="gini = 0.0\nsamples = 3\nvalue = [0, 4]"] ;
1016 -> 1017 ;
1018 [label="X[11] <= 3965.5\ngini = 0.332\nsamples = 14\nvalue = [4, 15]"] ;
1016 -> 1018 ;
1019 [label="X[10] <= 7581.0\ngini = 0.444\nsamples = 3\nvalue = [2, 1]"] ;
1018 -> 1019 ;
1020 [label="gini = 0.0\nsamples = 2\nvalue = [2, 0]"] ;
1019 -> 1020 ;
1021 [label="gini = 0.0\nsamples = 1\nvalue = [0, 1]"] ;
1019 -> 1021 ;
1022 [label="X[27] <= 6003.5\ngini = 0.219\nsamples = 11\nvalue = [2, 14]"] ;
1018 -> 1022 ;
1023 [label="gini = 0.0\nsamples = 7\nvalue = [0, 8]"] ;
1022 -> 1023 ;
1024 [label="X[29] <= 2037.0\ngini = 0.375\nsamples = 4\nvalue = [2, 6]"] ;
1022 -> 1024 ;
1025 [label="X[27] <= 6437.3\ngini = 0.444\nsamples = 3\nvalue = [2, 4]"] ;
1024 -> 1025 ;
1026 [label="gini = 0.0\nsamples = 1\nvalue = [2, 0]"] ;
1025 -> 1026 ;
1027 [label="gini = 0.0\nsamples = 2\nvalue = [0, 4]"] ;
1025 -> 1027 ;
1028 [label="gini = 0.0\nsamples = 1\nvalue = [0, 2]"] ;
1024 -> 1028 ;
1029 [label="X[29] <= 11635.73\ngini = 0.391\nsamples = 10\nvalue = [11, 4]"] ;
1015 -> 1029 ;
1030 [label="X[7] <= 2382.0\ngini = 0.337\nsamples = 9\nvalue = [11, 3]"] ;
1029 -> 1030 ;
1031 [label="gini = 0.0\nsamples = 7\nvalue = [11, 0]"] ;
1030 -> 1031 ;
1032 [label="gini = 0.0\nsamples = 2\nvalue = [0, 3]"] ;
1030 -> 1032 ;
1033 [label="gini = 0.0\nsamples = 1\nvalue = [0, 1]"] ;
1029 -> 1033 ;
1034 [label="X[11] <= 8791.65\ngini = 0.417\nsamples = 19\nvalue = [19, 8]"] ;
1014 -> 1034 ;
1035 [label="X[5] <= 98.095\ngini = 0.133\nsamples = 9\nvalue = [13, 1]"] ;
1034 -> 1035 ;
1036 [label="gini = 0.0\nsamples = 8\nvalue = [13, 0]"] ;
1035 -> 1036 ;
1037 [label="gini = 0.0\nsamples = 1\nvalue = [0, 1]"] ;
1035 -> 1037 ;
1038 [label="X[29] <= 11479.175\ngini = 0.497\nsamples = 10\nvalue = [6, 7]"] ;
1034 -> 1038 ;
1039 [label="X[10] <= 13060.2\ngini = 0.219\nsamples = 6\nvalue = [1, 7]"] ;
1038 -> 1039 ;
1040 [label="gini = 0.0\nsamples = 4\nvalue = [0, 6]"] ;
1039 -> 1040 ;
1041 [label="X[20] <= 14592.52\ngini = 0.5\nsamples = 2\nvalue = [1, 1]"] ;
1039 -> 1041 ;
1042 [label="gini = 0.0\nsamples = 1\nvalue = [1, 0]"] ;
1041 -> 1042 ;
1043 [label="gini = 0.0\nsamples = 1\nvalue = [0, 1]"] ;
1041 -> 1043 ;
1044 [label="gini = 0.0\nsamples = 4\nvalue = [5, 0]"] ;
1038 -> 1044 ;
1045 [label="X[7] <= 91.0\ngini = 0.161\nsamples = 21\nvalue = [31, 3]"] ;
991 -> 1045 ;
1046 [label="X[24] <= 505.905\ngini = 0.444\nsamples = 7\nvalue = [6, 3]"] ;
1045 -> 1046 ;
1047 [label="X[28] <= 24500.0\ngini = 0.245\nsamples = 6\nvalue = [6, 1]"] ;
1046 -> 1047 ;
1048 [label="gini = 0.0\nsamples = 5\nvalue = [6, 0]"] ;
1047 -> 1048 ;
1049 [label="gini = 0.0\nsamples = 1\nvalue = [0, 1]"] ;
1047 -> 1049 ;
1050 [label="gini = 0.0\nsamples = 1\nvalue = [0, 2]"] ;
1046 -> 1050 ;
1051 [label="gini = 0.0\nsamples = 14\nvalue = [25, 0]"] ;
1045 -> 1051 ;
1052 [label="X[19] <= 3849.0\ngini = 0.298\nsamples = 7\nvalue = [2, 9]"] ;
990 -> 1052 ;
1053 [label="gini = 0.0\nsamples = 1\nvalue = [1, 0]"] ;
1052 -> 1053 ;
1054 [label="X[18] <= 37.5\ngini = 0.18\nsamples = 6\nvalue = [1, 9]"] ;
1052 -> 1054 ;
1055 [label="X[9] <= 10524.5\ngini = 0.444\nsamples = 2\nvalue = [1, 2]"] ;
1054 -> 1055 ;
1056 [label="gini = 0.0\nsamples = 1\nvalue = [0, 2]"] ;
1055 -> 1056 ;
1057 [label="gini = 0.0\nsamples = 1\nvalue = [1, 0]"] ;
1055 -> 1057 ;
1058 [label="gini = 0.0\nsamples = 4\nvalue = [0, 7]"] ;
1054 -> 1058 ;
1059 [label="X[19] <= 11428.975\ngini = 0.095\nsamples = 12\nvalue = [19, 1]"] ;
989 -> 1059 ;
1060 [label="gini = 0.0\nsamples = 7\nvalue = [14, 0]"] ;
1059 -> 1060 ;
1061 [label="X[14] <= 13128.061\ngini = 0.278\nsamples = 5\nvalue = [5, 1]"] ;
1059 -> 1061 ;
1062 [label="gini = 0.0\nsamples = 1\nvalue = [0, 1]"] ;
1061 -> 1062 ;
1063 [label="gini = 0.0\nsamples = 4\nvalue = [5, 0]"] ;
1061 -> 1063 ;
1064 [label="X[11] <= 20869.525\ngini = 0.071\nsamples = 12\nvalue = [26, 1]"] ;
988 -> 1064 ;
1065 [label="gini = 0.0\nsamples = 8\nvalue = [16, 0]"] ;
1064 -> 1065 ;
1066 [label="X[18] <= 289.0\ngini = 0.165\nsamples = 4\nvalue = [10, 1]"] ;
1064 -> 1066 ;
1067 [label="X[19] <= 21749.525\ngini = 0.375\nsamples = 2\nvalue = [3, 1]"] ;
1066 -> 1067 ;
1068 [label="gini = 0.0\nsamples = 1\nvalue = [0, 1]"] ;
1067 -> 1068 ;
1069 [label="gini = 0.0\nsamples = 1\nvalue = [3, 0]"] ;
1067 -> 1069 ;
1070 [label="gini = 0.0\nsamples = 2\nvalue = [7, 0]"] ;
1066 -> 1070 ;
1071 [label="X[19] <= 1122.5\ngini = 0.491\nsamples = 133\nvalue = [125, 96]"] ;
987 -> 1071 ;
1072 [label="X[15] <= 2438.25\ngini = 0.175\nsamples = 17\nvalue = [28, 3]"] ;
1071 -> 1072 ;
1073 [label="gini = 0.0\nsamples = 1\nvalue = [0, 2]"] ;
1072 -> 1073 ;
1074 [label="X[29] <= 7347.5\ngini = 0.067\nsamples = 16\nvalue = [28, 1]"] ;
1072 -> 1074 ;
1075 [label="gini = 0.0\nsamples = 13\nvalue = [23, 0]"] ;
1074 -> 1075 ;
1076 [label="X[0] <= 2649.577\ngini = 0.278\nsamples = 3\nvalue = [5, 1]"] ;
1074 -> 1076 ;
1077 [label="gini = 0.0\nsamples = 1\nvalue = [0, 1]"] ;
1076 -> 1077 ;
1078 [label="gini = 0.0\nsamples = 2\nvalue = [5, 0]"] ;
1076 -> 1078 ;
1079 [label="X[0] <= 1416.537\ngini = 0.5\nsamples = 116\nvalue = [97, 93]"] ;
1071 -> 1079 ;
1080 [label="X[0] <= 855.17\ngini = 0.487\nsamples = 74\nvalue = [50, 69]"] ;
1079 -> 1080 ;
1081 [label="X[16] <= 686.52\ngini = 0.5\nsamples = 62\nvalue = [47, 50]"] ;
1080 -> 1081 ;
1082 [label="X[6] <= 22.5\ngini = 0.489\nsamples = 47\nvalue = [43, 32]"] ;
1081 -> 1082 ;
1083 [label="X[10] <= 1399.438\ngini = 0.448\nsamples = 38\nvalue = [39, 20]"] ;
1082 -> 1083 ;
1084 [label="X[7] <= 1727.715\ngini = 0.198\nsamples = 5\nvalue = [1, 8]"] ;
1083 -> 1084 ;
1085 [label="X[29] <= 850.5\ngini = 0.5\nsamples = 2\nvalue = [1, 1]"] ;
1084 -> 1085 ;
1086 [label="gini = 0.0\nsamples = 1\nvalue = [1, 0]"] ;
1085 -> 1086 ;
1087 [label="gini = 0.0\nsamples = 1\nvalue = [0, 1]"] ;
1085 -> 1087 ;
1088 [label="gini = 0.0\nsamples = 3\nvalue = [0, 7]"] ;
1084 -> 1088 ;
1089 [label="X[16] <= 12.175\ngini = 0.365\nsamples = 33\nvalue = [38, 12]"] ;
1083 -> 1089 ;
1090 [label="X[23] <= 9737.0\ngini = 0.461\nsamples = 17\nvalue = [16, 9]"] ;
1089 -> 1090 ;
1091 [label="X[21] <= 4269.025\ngini = 0.498\nsamples = 10\nvalue = [7, 8]"] ;
1090 -> 1091 ;
1092 [label="X[14] <= 8068.0\ngini = 0.278\nsamples = 4\nvalue = [5, 1]"] ;
1091 -> 1092 ;
1093 [label="X[1] <= 36.167\ngini = 0.5\nsamples = 2\nvalue = [1, 1]"] ;
1092 -> 1093 ;
1094 [label="gini = 0.0\nsamples = 1\nvalue = [0, 1]"] ;
1093 -> 1094 ;
1095 [label="gini = 0.0\nsamples = 1\nvalue = [1, 0]"] ;
1093 -> 1095 ;
1096 [label="gini = 0.0\nsamples = 2\nvalue = [4, 0]"] ;
1092 -> 1096 ;
1097 [label="X[11] <= 1551.0\ngini = 0.346\nsamples = 6\nvalue = [2, 7]"] ;
1091 -> 1097 ;
1098 [label="gini = 0.0\nsamples = 1\nvalue = [2, 0]"] ;
1097 -> 1098 ;
1099 [label="gini = 0.0\nsamples = 5\nvalue = [0, 7]"] ;
1097 -> 1099 ;
1100 [label="X[18] <= 877.5\ngini = 0.18\nsamples = 7\nvalue = [9, 1]"] ;
1090 -> 1100 ;
1101 [label="gini = 0.0\nsamples = 4\nvalue = [6, 0]"] ;
1100 -> 1101 ;
1102 [label="X[11] <= 13420.5\ngini = 0.375\nsamples = 3\nvalue = [3, 1]"] ;
1100 -> 1102 ;
1103 [label="gini = 0.0\nsamples = 2\nvalue = [3, 0]"] ;
1102 -> 1103 ;
1104 [label="gini = 0.0\nsamples = 1\nvalue = [0, 1]"] ;
1102 -> 1104 ;
1105 [label="X[7] <= 6757.85\ngini = 0.211\nsamples = 16\nvalue = [22, 3]"] ;
1089 -> 1105 ;
1106 [label="X[20] <= 2871.425\ngini = 0.153\nsamples = 15\nvalue = [22, 2]"] ;
1105 -> 1106 ;
1107 [label="X[9] <= 570.0\ngini = 0.5\nsamples = 2\nvalue = [2, 2]"] ;
1106 -> 1107 ;
1108 [label="gini = 0.0\nsamples = 1\nvalue = [2, 0]"] ;
1107 -> 1108 ;
1109 [label="gini = 0.0\nsamples = 1\nvalue = [0, 2]"] ;
1107 -> 1109 ;
1110 [label="gini = 0.0\nsamples = 13\nvalue = [20, 0]"] ;
1106 -> 1110 ;
1111 [label="gini = 0.0\nsamples = 1\nvalue = [0, 1]"] ;
1105 -> 1111 ;
1112 [label="X[18] <= 2078.5\ngini = 0.375\nsamples = 9\nvalue = [4, 12]"] ;
1082 -> 1112 ;
1113 [label="X[6] <= 244.0\ngini = 0.245\nsamples = 8\nvalue = [2, 12]"] ;
1112 -> 1113 ;
1114 [label="gini = 0.0\nsamples = 6\nvalue = [0, 12]"] ;
1113 -> 1114 ;
1115 [label="gini = 0.0\nsamples = 2\nvalue = [2, 0]"] ;
1113 -> 1115 ;
1116 [label="gini = 0.0\nsamples = 1\nvalue = [2, 0]"] ;
1112 -> 1116 ;
1117 [label="X[23] <= 21813.42\ngini = 0.298\nsamples = 15\nvalue = [4, 18]"] ;
1081 -> 1117 ;
1118 [label="gini = 0.0\nsamples = 6\nvalue = [0, 8]"] ;
1117 -> 1118 ;
1119 [label="X[17] <= 41931.617\ngini = 0.408\nsamples = 9\nvalue = [4, 10]"] ;
1117 -> 1119 ;
1120 [label="gini = 0.0\nsamples = 5\nvalue = [0, 8]"] ;
1119 -> 1120 ;
1121 [label="X[15] <= 2505.15\ngini = 0.444\nsamples = 4\nvalue = [4, 2]"] ;
1119 -> 1121 ;
1122 [label="gini = 0.0\nsamples = 1\nvalue = [0, 1]"] ;
1121 -> 1122 ;
1123 [label="X[10] <= 17040.672\ngini = 0.32\nsamples = 3\nvalue = [4, 1]"] ;
1121 -> 1123 ;
1124 [label="gini = 0.0\nsamples = 1\nvalue = [3, 0]"] ;
1123 -> 1124 ;
1125 [label="X[25] <= 64.5\ngini = 0.5\nsamples = 2\nvalue = [1, 1]"] ;
1123 -> 1125 ;
1126 [label="gini = 0.0\nsamples = 1\nvalue = [0, 1]"] ;
1125 -> 1126 ;
1127 [label="gini = 0.0\nsamples = 1\nvalue = [1, 0]"] ;
1125 -> 1127 ;
1128 [label="X[11] <= 2471.43\ngini = 0.236\nsamples = 12\nvalue = [3, 19]"] ;
1080 -> 1128 ;
1129 [label="X[1] <= 194.858\ngini = 0.49\nsamples = 4\nvalue = [3, 4]"] ;
1128 -> 1129 ;
1130 [label="gini = 0.0\nsamples = 2\nvalue = [0, 4]"] ;
1129 -> 1130 ;
1131 [label="gini = 0.0\nsamples = 2\nvalue = [3, 0]"] ;
1129 -> 1131 ;
1132 [label="gini = 0.0\nsamples = 8\nvalue = [0, 15]"] ;
1128 -> 1132 ;
1133 [label="X[6] <= 19.5\ngini = 0.448\nsamples = 42\nvalue = [47, 24]"] ;
1079 -> 1133 ;
1134 [label="X[23] <= 15741.779\ngini = 0.483\nsamples = 37\nvalue = [35, 24]"] ;
1133 -> 1134 ;
1135 [label="X[0] <= 3388.101\ngini = 0.497\nsamples = 22\nvalue = [18, 21]"] ;
1134 -> 1135 ;
1136 [label="X[19] <= 4933.375\ngini = 0.444\nsamples = 15\nvalue = [18, 9]"] ;
1135 -> 1136 ;
1137 [label="X[0] <= 1758.0\ngini = 0.32\nsamples = 10\nvalue = [16, 4]"] ;
1136 -> 1137 ;
1138 [label="gini = 0.0\nsamples = 4\nvalue = [7, 0]"] ;
1137 -> 1138 ;
1139 [label="X[28] <= 99.5\ngini = 0.426\nsamples = 6\nvalue = [9, 4]"] ;
1137 -> 1139 ;
1140 [label="X[15] <= 3969.04\ngini = 0.49\nsamples = 4\nvalue = [3, 4]"] ;
1139 -> 1140 ;
1141 [label="gini = 0.0\nsamples = 3\nvalue = [0, 4]"] ;
1140 -> 1141 ;
1142 [label="gini = 0.0\nsamples = 1\nvalue = [3, 0]"] ;
1140 -> 1142 ;
1143 [label="gini = 0.0\nsamples = 2\nvalue = [6, 0]"] ;
1139 -> 1143 ;
1144 [label="X[10] <= 6429.5\ngini = 0.408\nsamples = 5\nvalue = [2, 5]"] ;
1136 -> 1144 ;
1145 [label="gini = 0.0\nsamples = 4\nvalue = [0, 5]"] ;
1144 -> 1145 ;
1146 [label="gini = 0.0\nsamples = 1\nvalue = [2, 0]"] ;
1144 -> 1146 ;
1147 [label="gini = 0.0\nsamples = 7\nvalue = [0, 12]"] ;
1135 -> 1147 ;
1148 [label="X[21] <= 35027.141\ngini = 0.255\nsamples = 15\nvalue = [17, 3]"] ;
1134 -> 1148 ;
1149 [label="gini = 0.0\nsamples = 10\nvalue = [14, 0]"] ;
1148 -> 1149 ;
1150 [label="X[9] <= 17397.051\ngini = 0.5\nsamples = 5\nvalue = [3, 3]"] ;
1148 -> 1150 ;
1151 [label="gini = 0.0\nsamples = 2\nvalue = [3, 0]"] ;
1150 -> 1151 ;
1152 [label="gini = 0.0\nsamples = 3\nvalue = [0, 3]"] ;
1150 -> 1152 ;
1153 [label="gini = 0.0\nsamples = 5\nvalue = [12, 0]"] ;
1133 -> 1153 ;
1154 [label="X[24] <= 26797.4\ngini = 0.355\nsamples = 17\nvalue = [6, 20]"] ;
986 -> 1154 ;
1155 [label="gini = 0.0\nsamples = 4\nvalue = [0, 7]"] ;
1154 -> 1155 ;
1156 [label="X[28] <= 73190.547\ngini = 0.432\nsamples = 13\nvalue = [6, 13]"] ;
1154 -> 1156 ;
1157 [label="X[17] <= 21837.0\ngini = 0.401\nsamples = 12\nvalue = [5, 13]"] ;
1156 -> 1157 ;
1158 [label="X[15] <= 49.5\ngini = 0.32\nsamples = 4\nvalue = [4, 1]"] ;
1157 -> 1158 ;
1159 [label="gini = 0.0\nsamples = 3\nvalue = [4, 0]"] ;
1158 -> 1159 ;
1160 [label="gini = 0.0\nsamples = 1\nvalue = [0, 1]"] ;
1158 -> 1160 ;
1161 [label="X[24] <= 29130.33\ngini = 0.142\nsamples = 8\nvalue = [1, 12]"] ;
1157 -> 1161 ;
1162 [label="X[7] <= 966.12\ngini = 0.5\nsamples = 2\nvalue = [1, 1]"] ;
1161 -> 1162 ;
1163 [label="gini = 0.0\nsamples = 1\nvalue = [0, 1]"] ;
1162 -> 1163 ;
1164 [label="gini = 0.0\nsamples = 1\nvalue = [1, 0]"] ;
1162 -> 1164 ;
1165 [label="gini = 0.0\nsamples = 6\nvalue = [0, 11]"] ;
1161 -> 1165 ;
1166 [label="gini = 0.0\nsamples = 1\nvalue = [1, 0]"] ;
1156 -> 1166 ;
1167 [label="X[22] <= 5630.5\ngini = 0.499\nsamples = 397\nvalue = [297, 318]"] ;
985 -> 1167 ;
1168 [label="X[23] <= 24565.625\ngini = 0.496\nsamples = 340\nvalue = [240, 290]"] ;
1167 -> 1168 ;
1169 [label="X[21] <= 36411.508\ngini = 0.482\nsamples = 248\nvalue = [159, 233]"] ;
1168 -> 1169 ;
1170 [label="X[20] <= 6406.505\ngini = 0.49\nsamples = 234\nvalue = [158, 209]"] ;
1169 -> 1170 ;
1171 [label="X[13] <= 998.5\ngini = 0.499\nsamples = 115\nvalue = [95, 89]"] ;
1170 -> 1171 ;
1172 [label="X[21] <= 22441.555\ngini = 0.499\nsamples = 107\nvalue = [83, 89]"] ;
1171 -> 1172 ;
1173 [label="X[18] <= 3132.5\ngini = 0.494\nsamples = 99\nvalue = [71, 88]"] ;
1172 -> 1173 ;
1174 [label="X[1] <= 1353.083\ngini = 0.49\nsamples = 96\nvalue = [66, 88]"] ;
1173 -> 1174 ;
1175 [label="X[10] <= 3927.512\ngini = 0.494\nsamples = 93\nvalue = [66, 82]"] ;
1174 -> 1175 ;
1176 [label="X[19] <= 1155.335\ngini = 0.469\nsamples = 65\nvalue = [36, 60]"] ;
1175 -> 1176 ;
1177 [label="X[23] <= 9326.654\ngini = 0.415\nsamples = 12\nvalue = [12, 5]"] ;
1176 -> 1177 ;
1178 [label="X[29] <= 152.5\ngini = 0.469\nsamples = 7\nvalue = [3, 5]"] ;
1177 -> 1178 ;
1179 [label="gini = 0.0\nsamples = 4\nvalue = [0, 5]"] ;
1178 -> 1179 ;
1180 [label="gini = 0.0\nsamples = 3\nvalue = [3, 0]"] ;
1178 -> 1180 ;
1181 [label="gini = 0.0\nsamples = 5\nvalue = [9, 0]"] ;
1177 -> 1181 ;
1182 [label="X[15] <= 316.0\ngini = 0.423\nsamples = 53\nvalue = [24, 55]"] ;
1176 -> 1182 ;
1183 [label="X[10] <= 3079.0\ngini = 0.496\nsamples = 16\nvalue = [12, 10]"] ;
1182 -> 1183 ;
1184 [label="X[23] <= 5122.25\ngini = 0.198\nsamples = 7\nvalue = [8, 1]"] ;
1183 -> 1184 ;
1185 [label="gini = 0.0\nsamples = 6\nvalue = [8, 0]"] ;
1184 -> 1185 ;
1186 [label="gini = 0.0\nsamples = 1\nvalue = [0, 1]"] ;
1184 -> 1186 ;
1187 [label="X[27] <= 5433.875\ngini = 0.426\nsamples = 9\nvalue = [4, 9]"] ;
1183 -> 1187 ;
1188 [label="gini = 0.0\nsamples = 3\nvalue = [0, 7]"] ;
1187 -> 1188 ;
1189 [label="X[21] <= 13071.015\ngini = 0.444\nsamples = 6\nvalue = [4, 2]"] ;
1187 -> 1189 ;
1190 [label="gini = 0.0\nsamples = 4\nvalue = [4, 0]"] ;
1189 -> 1190 ;
1191 [label="gini = 0.0\nsamples = 2\nvalue = [0, 2]"] ;
1189 -> 1191 ;
1192 [label="X[14] <= 2671.925\ngini = 0.332\nsamples = 37\nvalue = [12, 45]"] ;
1182 -> 1192 ;
1193 [label="X[27] <= 5963.375\ngini = 0.469\nsamples = 5\nvalue = [5, 3]"] ;
1192 -> 1193 ;
1194 [label="X[27] <= 3986.5\ngini = 0.278\nsamples = 3\nvalue = [5, 1]"] ;
1193 -> 1194 ;
1195 [label="gini = 0.0\nsamples = 1\nvalue = [3, 0]"] ;
1194 -> 1195 ;
1196 [label="X[8] <= 89.0\ngini = 0.444\nsamples = 2\nvalue = [2, 1]"] ;
1194 -> 1196 ;
1197 [label="gini = 0.0\nsamples = 1\nvalue = [2, 0]"] ;
1196 -> 1197 ;
1198 [label="gini = 0.0\nsamples = 1\nvalue = [0, 1]"] ;
1196 -> 1198 ;
1199 [label="gini = 0.0\nsamples = 2\nvalue = [0, 2]"] ;
1193 -> 1199 ;
1200 [label="X[19] <= 2492.55\ngini = 0.245\nsamples = 32\nvalue = [7, 42]"] ;
1192 -> 1200 ;
1201 [label="X[28] <= 1659.875\ngini = 0.408\nsamples = 13\nvalue = [6, 15]"] ;
1200 -> 1201 ;
1202 [label="X[1] <= 230.77\ngini = 0.219\nsamples = 10\nvalue = [2, 14]"] ;
1201 -> 1202 ;
1203 [label="X[19] <= 2307.87\ngini = 0.444\nsamples = 5\nvalue = [2, 4]"] ;
1202 -> 1203 ;
1204 [label="gini = 0.0\nsamples = 4\nvalue = [0, 4]"] ;
1203 -> 1204 ;
1205 [label="gini = 0.0\nsamples = 1\nvalue = [2, 0]"] ;
1203 -> 1205 ;
1206 [label="gini = 0.0\nsamples = 5\nvalue = [0, 10]"] ;
1202 -> 1206 ;
1207 [label="X[9] <= 4213.025\ngini = 0.32\nsamples = 3\nvalue = [4, 1]"] ;
1201 -> 1207 ;
1208 [label="gini = 0.0\nsamples = 2\nvalue = [4, 0]"] ;
1207 -> 1208 ;
1209 [label="gini = 0.0\nsamples = 1\nvalue = [0, 1]"] ;
1207 -> 1209 ;
1210 [label="X[21] <= 9681.6\ngini = 0.069\nsamples = 19\nvalue = [1, 27]"] ;
1200 -> 1210 ;
1211 [label="gini = 0.0\nsamples = 13\nvalue = [0, 20]"] ;
1210 -> 1211 ;
1212 [label="X[7] <= 1264.5\ngini = 0.219\nsamples = 6\nvalue = [1, 7]"] ;
1210 -> 1212 ;
1213 [label="gini = 0.0\nsamples = 3\nvalue = [0, 5]"] ;
1212 -> 1213 ;
1214 [label="X[19] <= 3857.855\ngini = 0.444\nsamples = 3\nvalue = [1, 2]"] ;
1212 -> 1214 ;
1215 [label="gini = 0.0\nsamples = 1\nvalue = [1, 0]"] ;
1214 -> 1215 ;
1216 [label="gini = 0.0\nsamples = 2\nvalue = [0, 2]"] ;
1214 -> 1216 ;
1217 [label="X[15] <= 3022.07\ngini = 0.488\nsamples = 28\nvalue = [30, 22]"] ;
1175 -> 1217 ;
1218 [label="X[27] <= 9948.5\ngini = 0.5\nsamples = 24\nvalue = [23, 22]"] ;
1217 -> 1218 ;
1219 [label="X[15] <= 143.5\ngini = 0.444\nsamples = 16\nvalue = [22, 11]"] ;
1218 -> 1219 ;
1220 [label="X[7] <= 4146.735\ngini = 0.499\nsamples = 9\nvalue = [11, 10]"] ;
1219 -> 1220 ;
1221 [label="X[18] <= 144.0\ngini = 0.444\nsamples = 7\nvalue = [5, 10]"] ;
1220 -> 1221 ;
1222 [label="X[22] <= 4163.0\ngini = 0.494\nsamples = 4\nvalue = [5, 4]"] ;
1221 -> 1222 ;
1223 [label="gini = 0.0\nsamples = 3\nvalue = [5, 0]"] ;
1222 -> 1223 ;
1224 [label="gini = 0.0\nsamples = 1\nvalue = [0, 4]"] ;
1222 -> 1224 ;
1225 [label="gini = 0.0\nsamples = 3\nvalue = [0, 6]"] ;
1221 -> 1225 ;
1226 [label="gini = 0.0\nsamples = 2\nvalue = [6, 0]"] ;
1220 -> 1226 ;
1227 [label="X[18] <= 1356.5\ngini = 0.153\nsamples = 7\nvalue = [11, 1]"] ;
1219 -> 1227 ;
1228 [label="gini = 0.0\nsamples = 5\nvalue = [10, 0]"] ;
1227 -> 1228 ;
1229 [label="X[22] <= 2635.5\ngini = 0.5\nsamples = 2\nvalue = [1, 1]"] ;
1227 -> 1229 ;
1230 [label="gini = 0.0\nsamples = 1\nvalue = [1, 0]"] ;
1229 -> 1230 ;
1231 [label="gini = 0.0\nsamples = 1\nvalue = [0, 1]"] ;
1229 -> 1231 ;
1232 [label="X[0] <= 147.667\ngini = 0.153\nsamples = 8\nvalue = [1, 11]"] ;
1218 -> 1232 ;
1233 [label="X[23] <= 4529.025\ngini = 0.278\nsamples = 4\nvalue = [1, 5]"] ;
1232 -> 1233 ;
1234 [label="gini = 0.0\nsamples = 1\nvalue = [1, 0]"] ;
1233 -> 1234 ;
1235 [label="gini = 0.0\nsamples = 3\nvalue = [0, 5]"] ;
1233 -> 1235 ;
1236 [label="gini = 0.0\nsamples = 4\nvalue = [0, 6]"] ;
1232 -> 1236 ;
1237 [label="gini = 0.0\nsamples = 4\nvalue = [7, 0]"] ;
1217 -> 1237 ;
1238 [label="gini = 0.0\nsamples = 3\nvalue = [0, 6]"] ;
1174 -> 1238 ;
1239 [label="gini = 0.0\nsamples = 3\nvalue = [5, 0]"] ;
1173 -> 1239 ;
1240 [label="X[17] <= 42081.141\ngini = 0.142\nsamples = 8\nvalue = [12, 1]"] ;
1172 -> 1240 ;
1241 [label="gini = 0.0\nsamples = 7\nvalue = [12, 0]"] ;
1240 -> 1241 ;
1242 [label="gini = 0.0\nsamples = 1\nvalue = [0, 1]"] ;
1240 -> 1242 ;
1243 [label="gini = 0.0\nsamples = 8\nvalue = [12, 0]"] ;
1171 -> 1243 ;
1244 [label="X[0] <= 7868.5\ngini = 0.451\nsamples = 119\nvalue = [63, 120]"] ;
1170 -> 1244 ;
1245 [label="X[14] <= 7005.98\ngini = 0.434\nsamples = 114\nvalue = [56, 120]"] ;
1244 -> 1245 ;
1246 [label="gini = 0.0\nsamples = 7\nvalue = [0, 13]"] ;
1245 -> 1246 ;
1247 [label="X[7] <= 3252.0\ngini = 0.451\nsamples = 107\nvalue = [56, 107]"] ;
1245 -> 1247 ;
1248 [label="X[20] <= 7206.5\ngini = 0.401\nsamples = 80\nvalue = [33, 86]"] ;
1247 -> 1248 ;
1249 [label="X[22] <= 2608.83\ngini = 0.245\nsamples = 6\nvalue = [6, 1]"] ;
1248 -> 1249 ;
1250 [label="gini = 0.0\nsamples = 5\nvalue = [6, 0]"] ;
1249 -> 1250 ;
1251 [label="gini = 0.0\nsamples = 1\nvalue = [0, 1]"] ;
1249 -> 1251 ;
1252 [label="X[18] <= 2766.5\ngini = 0.366\nsamples = 74\nvalue = [27, 85]"] ;
1248 -> 1252 ;
1253 [label="X[19] <= 9816.5\ngini = 0.327\nsamples = 70\nvalue = [22, 85]"] ;
1252 -> 1253 ;
1254 [label="X[29] <= 10838.5\ngini = 0.408\nsamples = 45\nvalue = [18, 45]"] ;
