digraph Tree {
node [shape=box] ;
0 [label="X[26] <= 553.515\ngini = 0.5\nsamples = 6198\nvalue = [4952, 4848]"] ;
1 [label="X[23] <= 138.5\ngini = 0.492\nsamples = 2517\nvalue = [2237, 1732]"] ;
0 -> 1 [labeldistance=2.5, labelangle=45, headlabel="True"] ;
2 [label="X[18] <= 3931.75\ngini = 0.385\nsamples = 162\nvalue = [176, 62]"] ;
1 -> 2 ;
3 [label="X[15] <= 75.0\ngini = 0.426\nsamples = 133\nvalue = [137, 61]"] ;
2 -> 3 ;
4 [label="X[28] <= 26418.18\ngini = 0.442\nsamples = 127\nvalue = [124, 61]"] ;
3 -> 4 ;
5 [label="X[28] <= 9194.904\ngini = 0.433\nsamples = 124\nvalue = [123, 57]"] ;
4 -> 5 ;
6 [label="X[18] <= 104.0\ngini = 0.441\nsamples = 120\nvalue = [117, 57]"] ;
5 -> 6 ;
7 [label="X[14] <= 73.5\ngini = 0.32\nsamples = 54\nvalue = [68, 17]"] ;
6 -> 7 ;
8 [label="gini = 0.0\nsamples = 2\nvalue = [0, 5]"] ;
7 -> 8 ;
9 [label="X[17] <= 5600.0\ngini = 0.255\nsamples = 52\nvalue = [68, 12]"] ;
7 -> 9 ;
10 [label="X[27] <= 2710.15\ngini = 0.291\nsamples = 44\nvalue = [56, 12]"] ;
9 -> 10 ;
11 [label="gini = 0.0\nsamples = 17\nvalue = [28, 0]"] ;
10 -> 11 ;
12 [label="X[21] <= 2907.5\ngini = 0.42\nsamples = 27\nvalue = [28, 12]"] ;
10 -> 12 ;
13 [label="X[17] <= 1561.0\ngini = 0.219\nsamples = 5\nvalue = [1, 7]"] ;
12 -> 13 ;
14 [label="gini = 0.0\nsamples = 2\nvalue = [0, 4]"] ;
13 -> 14 ;
15 [label="X[17] <= 3199.0\ngini = 0.375\nsamples = 3\nvalue = [1, 3]"] ;
13 -> 15 ;
16 [label="gini = 0.0\nsamples = 1\nvalue = [1, 0]"] ;
15 -> 16 ;
17 [label="gini = 0.0\nsamples = 2\nvalue = [0, 3]"] ;
15 -> 17 ;
18 [label="X[19] <= 46.5\ngini = 0.264\nsamples = 22\nvalue = [27, 5]"] ;
12 -> 18 ;
19 [label="X[21] <= 5054.5\ngini = 0.278\nsamples = 21\nvalue = [25, 5]"] ;
18 -> 19 ;
20 [label="X[27] <= 4861.0\ngini = 0.463\nsamples = 7\nvalue = [7, 4]"] ;
19 -> 20 ;
21 [label="X[27] <= 4165.0\ngini = 0.346\nsamples = 6\nvalue = [7, 2]"] ;
20 -> 21 ;
22 [label="X[21] <= 3702.0\ngini = 0.48\nsamples = 3\nvalue = [3, 2]"] ;
21 -> 22 ;
23 [label="gini = 0.0\nsamples = 2\nvalue = [3, 0]"] ;
22 -> 23 ;
24 [label="gini = 0.0\nsamples = 1\nvalue = [0, 2]"] ;
22 -> 24 ;
25 [label="gini = 0.0\nsamples = 3\nvalue = [4, 0]"] ;
21 -> 25 ;
26 [label="gini = 0.0\nsamples = 1\nvalue = [0, 2]"] ;
20 -> 26 ;
27 [label="X[27] <= 6178.0\ngini = 0.1\nsamples = 14\nvalue = [18, 1]"] ;
19 -> 27 ;
28 [label="X[28] <= 1995.0\ngini = 0.245\nsamples = 4\nvalue = [6, 1]"] ;
27 -> 28 ;
29 [label="X[21] <= 5495.5\ngini = 0.278\nsamples = 3\nvalue = [5, 1]"] ;
28 -> 29 ;
30 [label="gini = 0.0\nsamples = 2\nvalue = [5, 0]"] ;
29 -> 30 ;
31 [label="gini = 0.0\nsamples = 1\nvalue = [0, 1]"] ;
29 -> 31 ;
32 [label="gini = 0.0\nsamples = 1\nvalue = [1, 0]"] ;
28 -> 32 ;
33 [label="gini = 0.0\nsamples = 10\nvalue = [12, 0]"] ;
27 -> 33 ;
34 [label="gini = 0.0\nsamples = 1\nvalue = [2, 0]"] ;
18 -> 34 ;
35 [label="gini = 0.0\nsamples = 8\nvalue = [12, 0]"] ;
9 -> 35 ;
36 [label="X[18] <= 554.0\ngini = 0.495\nsamples = 66\nvalue = [49, 40]"] ;
6 -> 36 ;
37 [label="X[29] <= 94.0\ngini = 0.48\nsamples = 35\nvalue = [18, 27]"] ;
36 -> 37 ;
38 [label="X[9] <= 7.5\ngini = 0.459\nsamples = 32\nvalue = [15, 27]"] ;
37 -> 38 ;
39 [label="X[28] <= 634.0\ngini = 0.49\nsamples = 27\nvalue = [15, 20]"] ;
38 -> 39 ;
40 [label="X[21] <= 5580.0\ngini = 0.5\nsamples = 22\nvalue = [15, 15]"] ;
39 -> 40 ;
41 [label="X[27] <= 5916.29\ngini = 0.455\nsamples = 14\nvalue = [13, 7]"] ;
40 -> 41 ;
42 [label="X[17] <= 3602.515\ngini = 0.475\nsamples = 12\nvalue = [11, 7]"] ;
41 -> 42 ;
43 [label="X[18] <= 423.5\ngini = 0.43\nsamples = 11\nvalue = [11, 5]"] ;
42 -> 43 ;
44 [label="X[17] <= 1129.5\ngini = 0.26\nsamples = 9\nvalue = [11, 2]"] ;
43 -> 44 ;
45 [label="X[27] <= 967.5\ngini = 0.298\nsamples = 8\nvalue = [9, 2]"] ;
44 -> 45 ;
46 [label="X[18] <= 187.0\ngini = 0.346\nsamples = 7\nvalue = [7, 2]"] ;
45 -> 46 ;
47 [label="X[18] <= 157.5\ngini = 0.444\nsamples = 2\nvalue = [1, 2]"] ;
46 -> 47 ;
48 [label="gini = 0.0\nsamples = 1\nvalue = [1, 0]"] ;
47 -> 48 ;
49 [label="gini = 0.0\nsamples = 1\nvalue = [0, 2]"] ;
47 -> 49 ;
50 [label="gini = 0.0\nsamples = 5\nvalue = [6, 0]"] ;
46 -> 50 ;
51 [label="gini = 0.0\nsamples = 1\nvalue = [2, 0]"] ;
45 -> 51 ;
52 [label="gini = 0.0\nsamples = 1\nvalue = [2, 0]"] ;
44 -> 52 ;
53 [label="gini = 0.0\nsamples = 2\nvalue = [0, 3]"] ;
43 -> 53 ;
54 [label="gini = 0.0\nsamples = 1\nvalue = [0, 2]"] ;
42 -> 54 ;
55 [label="gini = 0.0\nsamples = 2\nvalue = [2, 0]"] ;
41 -> 55 ;
56 [label="X[21] <= 12760.425\ngini = 0.32\nsamples = 8\nvalue = [2, 8]"] ;
40 -> 56 ;
57 [label="gini = 0.0\nsamples = 4\nvalue = [0, 4]"] ;
56 -> 57 ;
58 [label="X[27] <= 17697.725\ngini = 0.444\nsamples = 4\nvalue = [2, 4]"] ;
56 -> 58 ;
59 [label="gini = 0.0\nsamples = 2\nvalue = [2, 0]"] ;
58 -> 59 ;
60 [label="gini = 0.0\nsamples = 2\nvalue = [0, 4]"] ;
58 -> 60 ;
61 [label="gini = 0.0\nsamples = 5\nvalue = [0, 5]"] ;
39 -> 61 ;
62 [label="gini = 0.0\nsamples = 5\nvalue = [0, 7]"] ;
38 -> 62 ;
63 [label="gini = 0.0\nsamples = 3\nvalue = [3, 0]"] ;
37 -> 63 ;
64 [label="X[21] <= 39095.023\ngini = 0.416\nsamples = 31\nvalue = [31, 13]"] ;
36 -> 64 ;
65 [label="X[15] <= 51.0\ngini = 0.387\nsamples = 29\nvalue = [31, 11]"] ;
64 -> 65 ;
66 [label="X[21] <= 1287.55\ngini = 0.369\nsamples = 28\nvalue = [31, 10]"] ;
65 -> 66 ;
67 [label="X[15] <= -446.625\ngini = 0.5\nsamples = 4\nvalue = [3, 3]"] ;
66 -> 67 ;
68 [label="gini = 0.0\nsamples = 1\nvalue = [1, 0]"] ;
67 -> 68 ;
69 [label="X[21] <= 1081.5\ngini = 0.48\nsamples = 3\nvalue = [2, 3]"] ;
67 -> 69 ;
70 [label="gini = 0.0\nsamples = 2\nvalue = [2, 0]"] ;
69 -> 70 ;
71 [label="gini = 0.0\nsamples = 1\nvalue = [0, 3]"] ;
69 -> 71 ;
72 [label="X[9] <= 18.5\ngini = 0.32\nsamples = 24\nvalue = [28, 7]"] ;
66 -> 72 ;
73 [label="X[21] <= 3237.025\ngini = 0.358\nsamples = 21\nvalue = [23, 7]"] ;
72 -> 73 ;
74 [label="gini = 0.0\nsamples = 7\nvalue = [9, 0]"] ;
73 -> 74 ;
75 [label="X[18] <= 1133.0\ngini = 0.444\nsamples = 14\nvalue = [14, 7]"] ;
73 -> 75 ;
76 [label="gini = 0.0\nsamples = 5\nvalue = [8, 0]"] ;
75 -> 76 ;
77 [label="X[18] <= 1833.0\ngini = 0.497\nsamples = 9\nvalue = [6, 7]"] ;
75 -> 77 ;
78 [label="gini = 0.0\nsamples = 2\nvalue = [0, 2]"] ;
77 -> 78 ;
79 [label="X[27] <= 2248.0\ngini = 0.496\nsamples = 7\nvalue = [6, 5]"] ;
77 -> 79 ;
80 [label="gini = 0.0\nsamples = 1\nvalue = [0, 2]"] ;
79 -> 80 ;
81 [label="X[21] <= 27358.5\ngini = 0.444\nsamples = 6\nvalue = [6, 3]"] ;
79 -> 81 ;
82 [label="X[18] <= 2887.5\ngini = 0.48\nsamples = 4\nvalue = [2, 3]"] ;
81 -> 82 ;
83 [label="gini = 0.0\nsamples = 1\nvalue = [2, 0]"] ;
82 -> 83 ;
84 [label="gini = 0.0\nsamples = 3\nvalue = [0, 3]"] ;
82 -> 84 ;
85 [label="gini = 0.0\nsamples = 2\nvalue = [4, 0]"] ;
81 -> 85 ;
86 [label="gini = 0.0\nsamples = 3\nvalue = [5, 0]"] ;
72 -> 86 ;
87 [label="gini = 0.0\nsamples = 1\nvalue = [0, 1]"] ;
65 -> 87 ;
88 [label="gini = 0.0\nsamples = 2\nvalue = [0, 2]"] ;
64 -> 88 ;
89 [label="gini = 0.0\nsamples = 4\nvalue = [6, 0]"] ;
5 -> 89 ;
90 [label="X[18] <= 255.0\ngini = 0.32\nsamples = 3\nvalue = [1, 4]"] ;
4 -> 90 ;
91 [label="gini = 0.0\nsamples = 2\nvalue = [0, 4]"] ;
90 -> 91 ;
92 [label="gini = 0.0\nsamples = 1\nvalue = [1, 0]"] ;
90 -> 92 ;
93 [label="gini = 0.0\nsamples = 6\nvalue = [13, 0]"] ;
3 -> 93 ;
94 [label="X[21] <= 6853.0\ngini = 0.049\nsamples = 29\nvalue = [39, 1]"] ;
2 -> 94 ;
95 [label="X[18] <= 6736.0\ngini = 0.245\nsamples = 6\nvalue = [6, 1]"] ;
94 -> 95 ;
96 [label="gini = 0.0\nsamples = 5\nvalue = [6, 0]"] ;
95 -> 96 ;
97 [label="gini = 0.0\nsamples = 1\nvalue = [0, 1]"] ;
95 -> 97 ;
98 [label="gini = 0.0\nsamples = 23\nvalue = [33, 0]"] ;
94 -> 98 ;
99 [label="X[18] <= 2742.0\ngini = 0.495\nsamples = 2355\nvalue = [2061, 1670]"] ;
1 -> 99 ;
100 [label="X[21] <= 2545.865\ngini = 0.499\nsamples = 1571\nvalue = [1291, 1173]"] ;
99 -> 100 ;
101 [label="X[14] <= 154.5\ngini = 0.482\nsamples = 508\nvalue = [491, 333]"] ;
100 -> 101 ;
102 [label="X[20] <= 152.5\ngini = 0.142\nsamples = 8\nvalue = [1, 12]"] ;
101 -> 102 ;
103 [label="gini = 0.0\nsamples = 6\nvalue = [0, 8]"] ;
102 -> 103 ;
104 [label="X[18] <= 268.5\ngini = 0.32\nsamples = 2\nvalue = [1, 4]"] ;
102 -> 104 ;
105 [label="gini = 0.0\nsamples = 1\nvalue = [0, 4]"] ;
104 -> 105 ;
106 [label="gini = 0.0\nsamples = 1\nvalue = [1, 0]"] ;
104 -> 106 ;
107 [label="X[8] <= 2437.15\ngini = 0.478\nsamples = 500\nvalue = [490, 321]"] ;
101 -> 107 ;
108 [label="X[24] <= 28241.0\ngini = 0.477\nsamples = 496\nvalue = [489, 315]"] ;
107 -> 108 ;
109 [label="X[15] <= 5095.875\ngini = 0.475\nsamples = 491\nvalue = [488, 309]"] ;
108 -> 109 ;
110 [label="X[28] <= 6345.0\ngini = 0.482\nsamples = 434\nvalue = [413, 282]"] ;
109 -> 110 ;
111 [label="X[28] <= 3717.0\ngini = 0.486\nsamples = 417\nvalue = [390, 279]"] ;
110 -> 111 ;
112 [label="X[22] <= 864.5\ngini = 0.481\nsamples = 402\nvalue = [383, 259]"] ;
111 -> 112 ;
113 [label="X[27] <= 764.65\ngini = 0.471\nsamples = 356\nvalue = [353, 216]"] ;
112 -> 113 ;
114 [label="X[9] <= 226.5\ngini = 0.493\nsamples = 165\nvalue = [141, 111]"] ;
113 -> 114 ;
115 [label="X[26] <= 209.0\ngini = 0.442\nsamples = 60\nvalue = [63, 31]"] ;
114 -> 115 ;
116 [label="X[16] <= 5.325\ngini = 0.423\nsamples = 56\nvalue = [62, 27]"] ;
115 -> 116 ;
117 [label="X[7] <= 238.0\ngini = 0.387\nsamples = 49\nvalue = [59, 21]"] ;
116 -> 117 ;
118 [label="X[23] <= 750.0\ngini = 0.441\nsamples = 36\nvalue = [41, 20]"] ;
117 -> 118 ;
119 [label="X[8] <= 22.5\ngini = 0.473\nsamples = 31\nvalue = [32, 20]"] ;
118 -> 119 ;
120 [label="X[15] <= 610.0\ngini = 0.499\nsamples = 26\nvalue = [21, 19]"] ;
119 -> 120 ;
121 [label="X[21] <= 1909.0\ngini = 0.472\nsamples = 22\nvalue = [21, 13]"] ;
120 -> 121 ;
122 [label="X[3] <= 178.0\ngini = 0.437\nsamples = 21\nvalue = [21, 10]"] ;
121 -> 122 ;
123 [label="X[22] <= 104.5\ngini = 0.4\nsamples = 20\nvalue = [21, 8]"] ;
122 -> 123 ;
124 [label="X[21] <= 527.5\ngini = 0.33\nsamples = 16\nvalue = [19, 5]"] ;
123 -> 124 ;
125 [label="X[1] <= 41.133\ngini = 0.463\nsamples = 9\nvalue = [7, 4]"] ;
124 -> 125 ;
126 [label="X[4] <= 98.5\ngini = 0.5\nsamples = 6\nvalue = [4, 4]"] ;
125 -> 126 ;
127 [label="X[1] <= 19.102\ngini = 0.444\nsamples = 5\nvalue = [2, 4]"] ;
126 -> 127 ;
128 [label="X[11] <= 99.5\ngini = 0.5\nsamples = 4\nvalue = [2, 2]"] ;
127 -> 128 ;
129 [label="X[19] <= 242.0\ngini = 0.444\nsamples = 3\nvalue = [1, 2]"] ;
128 -> 129 ;
130 [label="gini = 0.0\nsamples = 2\nvalue = [0, 2]"] ;
129 -> 130 ;
131 [label="gini = 0.0\nsamples = 1\nvalue = [1, 0]"] ;
129 -> 131 ;
132 [label="gini = 0.0\nsamples = 1\nvalue = [1, 0]"] ;
128 -> 132 ;
133 [label="gini = 0.0\nsamples = 1\nvalue = [0, 2]"] ;
127 -> 133 ;
134 [label="gini = 0.0\nsamples = 1\nvalue = [2, 0]"] ;
126 -> 134 ;
135 [label="gini = 0.0\nsamples = 3\nvalue = [3, 0]"] ;
125 -> 135 ;
136 [label="X[9] <= 183.5\ngini = 0.142\nsamples = 7\nvalue = [12, 1]"] ;
124 -> 136 ;
137 [label="gini = 0.0\nsamples = 6\nvalue = [12, 0]"] ;
136 -> 137 ;
138 [label="gini = 0.0\nsamples = 1\nvalue = [0, 1]"] ;
136 -> 138 ;
139 [label="X[19] <= 418.5\ngini = 0.48\nsamples = 4\nvalue = [2, 3]"] ;
123 -> 139 ;
140 [label="X[22] <= 473.0\ngini = 0.375\nsamples = 3\nvalue = [1, 3]"] ;
139 -> 140 ;
141 [label="gini = 0.0\nsamples = 2\nvalue = [0, 3]"] ;
140 -> 141 ;
142 [label="gini = 0.0\nsamples = 1\nvalue = [1, 0]"] ;
140 -> 142 ;
143 [label="gini = 0.0\nsamples = 1\nvalue = [1, 0]"] ;
139 -> 143 ;
144 [label="gini = 0.0\nsamples = 1\nvalue = [0, 2]"] ;
122 -> 144 ;
145 [label="gini = 0.0\nsamples = 1\nvalue = [0, 3]"] ;
121 -> 145 ;
146 [label="gini = 0.0\nsamples = 4\nvalue = [0, 6]"] ;
120 -> 146 ;
147 [label="X[18] <= 187.0\ngini = 0.153\nsamples = 5\nvalue = [11, 1]"] ;
119 -> 147 ;
148 [label="gini = 0.0\nsamples = 1\nvalue = [0, 1]"] ;
147 -> 148 ;
149 [label="gini = 0.0\nsamples = 4\nvalue = [11, 0]"] ;
147 -> 149 ;
150 [label="gini = 0.0\nsamples = 5\nvalue = [9, 0]"] ;
118 -> 150 ;
151 [label="X[10] <= 1655.5\ngini = 0.1\nsamples = 13\nvalue = [18, 1]"] ;
117 -> 151 ;
152 [label="gini = 0.0\nsamples = 12\nvalue = [18, 0]"] ;
151 -> 152 ;
153 [label="gini = 0.0\nsamples = 1\nvalue = [0, 1]"] ;
151 -> 153 ;
154 [label="X[19] <= 251.675\ngini = 0.444\nsamples = 7\nvalue = [3, 6]"] ;
116 -> 154 ;
155 [label="X[2] <= 0.5\ngini = 0.375\nsamples = 3\nvalue = [3, 1]"] ;
154 -> 155 ;
156 [label="X[18] <= 696.875\ngini = 0.5\nsamples = 2\nvalue = [1, 1]"] ;
155 -> 156 ;
157 [label="gini = 0.0\nsamples = 1\nvalue = [0, 1]"] ;
156 -> 157 ;
158 [label="gini = 0.0\nsamples = 1\nvalue = [1, 0]"] ;
156 -> 158 ;
159 [label="gini = 0.0\nsamples = 1\nvalue = [2, 0]"] ;
155 -> 159 ;
160 [label="gini = 0.0\nsamples = 4\nvalue = [0, 5]"] ;
154 -> 160 ;
161 [label="X[10] <= 253.0\ngini = 0.32\nsamples = 4\nvalue = [1, 4]"] ;
115 -> 161 ;
162 [label="gini = 0.0\nsamples = 3\nvalue = [0, 4]"] ;
161 -> 162 ;
163 [label="gini = 0.0\nsamples = 1\nvalue = [1, 0]"] ;
161 -> 163 ;
164 [label="X[27] <= 340.5\ngini = 0.5\nsamples = 105\nvalue = [78, 80]"] ;
114 -> 164 ;
165 [label="X[15] <= 334.5\ngini = 0.493\nsamples = 81\nvalue = [69, 54]"] ;
164 -> 165 ;
166 [label="X[0] <= 523.0\ngini = 0.489\nsamples = 40\nvalue = [26, 35]"] ;
165 -> 166 ;
167 [label="X[8] <= 294.5\ngini = 0.5\nsamples = 34\nvalue = [25, 24]"] ;
166 -> 167 ;
168 [label="X[0] <= 290.5\ngini = 0.496\nsamples = 32\nvalue = [20, 24]"] ;
167 -> 168 ;
169 [label="X[12] <= 4.975\ngini = 0.42\nsamples = 22\nvalue = [9, 21]"] ;
168 -> 169 ;
170 [label="X[0] <= 14.5\ngini = 0.375\nsamples = 21\nvalue = [7, 21]"] ;
169 -> 170 ;
171 [label="X[19] <= 729.5\ngini = 0.496\nsamples = 7\nvalue = [5, 6]"] ;
170 -> 171 ;
172 [label="X[18] <= 307.5\ngini = 0.408\nsamples = 5\nvalue = [5, 2]"] ;
171 -> 172 ;
173 [label="gini = 0.0\nsamples = 1\nvalue = [0, 2]"] ;
172 -> 173 ;
174 [label="gini = 0.0\nsamples = 4\nvalue = [5, 0]"] ;
172 -> 174 ;
175 [label="gini = 0.0\nsamples = 2\nvalue = [0, 4]"] ;
171 -> 175 ;
176 [label="X[9] <= 254.0\ngini = 0.208\nsamples = 14\nvalue = [2, 15]"] ;
170 -> 176 ;
177 [label="gini = 0.0\nsamples = 1\nvalue = [1, 0]"] ;
176 -> 177 ;
178 [label="X[4] <= 264.5\ngini = 0.117\nsamples = 13\nvalue = [1, 15]"] ;
176 -> 178 ;
179 [label="gini = 0.0\nsamples = 10\nvalue = [0, 13]"] ;
178 -> 179 ;
180 [label="X[0] <= 269.5\ngini = 0.444\nsamples = 3\nvalue = [1, 2]"] ;
178 -> 180 ;
181 [label="gini = 0.0\nsamples = 1\nvalue = [1, 0]"] ;
180 -> 181 ;
182 [label="gini = 0.0\nsamples = 2\nvalue = [0, 2]"] ;
180 -> 182 ;
183 [label="gini = 0.0\nsamples = 1\nvalue = [2, 0]"] ;
169 -> 183 ;
184 [label="X[15] <= 314.0\ngini = 0.337\nsamples = 10\nvalue = [11, 3]"] ;
168 -> 184 ;
185 [label="X[6] <= 415.5\ngini = 0.153\nsamples = 8\nvalue = [11, 1]"] ;
184 -> 185 ;
186 [label="gini = 0.0\nsamples = 6\nvalue = [9, 0]"] ;
185 -> 186 ;
187 [label="X[2] <= 1.5\ngini = 0.444\nsamples = 2\nvalue = [2, 1]"] ;
185 -> 187 ;
188 [label="gini = 0.0\nsamples = 1\nvalue = [0, 1]"] ;
187 -> 188 ;
189 [label="gini = 0.0\nsamples = 1\nvalue = [2, 0]"] ;
187 -> 189 ;
190 [label="gini = 0.0\nsamples = 2\nvalue = [0, 2]"] ;
184 -> 190 ;
191 [label="gini = 0.0\nsamples = 2\nvalue = [5, 0]"] ;
167 -> 191 ;
192 [label="X[29] <= 1381.0\ngini = 0.153\nsamples = 6\nvalue = [1, 11]"] ;
166 -> 192 ;
193 [label="gini = 0.0\nsamples = 5\nvalue = [0, 11]"] ;
192 -> 193 ;
194 [label="gini = 0.0\nsamples = 1\nvalue = [1, 0]"] ;
192 -> 194 ;
195 [label="X[1] <= 226.399\ngini = 0.425\nsamples = 41\nvalue = [43, 19]"] ;
165 -> 195 ;
196 [label="X[9] <= 479.0\ngini = 0.469\nsamples = 31\nvalue = [30, 18]"] ;
195 -> 196 ;
197 [label="X[26] <= 241.5\ngini = 0.153\nsamples = 8\nvalue = [11, 1]"] ;
196 -> 197 ;
198 [label="gini = 0.0\nsamples = 6\nvalue = [10, 0]"] ;
197 -> 198 ;
199 [label="X[14] <= 404.0\ngini = 0.5\nsamples = 2\nvalue = [1, 1]"] ;
197 -> 199 ;
200 [label="gini = 0.0\nsamples = 1\nvalue = [0, 1]"] ;
199 -> 200 ;
201 [label="gini = 0.0\nsamples = 1\nvalue = [1, 0]"] ;
199 -> 201 ;
202 [label="X[15] <= 505.5\ngini = 0.498\nsamples = 23\nvalue = [19, 17]"] ;
196 -> 202 ;
203 [label="X[11] <= 493.0\ngini = 0.346\nsamples = 5\nvalue = [2, 7]"] ;
202 -> 203 ;
204 [label="X[20] <= 491.5\ngini = 0.5\nsamples = 2\nvalue = [2, 2]"] ;
203 -> 204 ;
205 [label="gini = 0.0\nsamples = 1\nvalue = [0, 2]"] ;
204 -> 205 ;
206 [label="gini = 0.0\nsamples = 1\nvalue = [2, 0]"] ;
204 -> 206 ;
207 [label="gini = 0.0\nsamples = 3\nvalue = [0, 5]"] ;
203 -> 207 ;
208 [label="X[24] <= 957.5\ngini = 0.466\nsamples = 18\nvalue = [17, 10]"] ;
202 -> 208 ;
209 [label="X[22] <= 243.5\ngini = 0.435\nsamples = 17\nvalue = [17, 8]"] ;
208 -> 209 ;
210 [label="X[23] <= 784.0\ngini = 0.5\nsamples = 10\nvalue = [6, 6]"] ;
209 -> 210 ;
211 [label="gini = 0.0\nsamples = 3\nvalue = [0, 4]"] ;
210 -> 211 ;
212 [label="X[10] <= 546.5\ngini = 0.375\nsamples = 7\nvalue = [6, 2]"] ;
210 -> 212 ;
213 [label="X[23] <= 1056.0\ngini = 0.245\nsamples = 6\nvalue = [6, 1]"] ;
212 -> 213 ;
214 [label="gini = 0.0\nsamples = 3\nvalue = [4, 0]"] ;
213 -> 214 ;
215 [label="X[29] <= 635.5\ngini = 0.444\nsamples = 3\nvalue = [2, 1]"] ;
213 -> 215 ;
216 [label="gini = 0.0\nsamples = 2\nvalue = [2, 0]"] ;
215 -> 216 ;
217 [label="gini = 0.0\nsamples = 1\nvalue = [0, 1]"] ;
215 -> 217 ;
218 [label="gini = 0.0\nsamples = 1\nvalue = [0, 1]"] ;
212 -> 218 ;
219 [label="X[16] <= 31.875\ngini = 0.26\nsamples = 7\nvalue = [11, 2]"] ;
209 -> 219 ;
220 [label="X[7] <= 162.5\ngini = 0.153\nsamples = 6\nvalue = [11, 1]"] ;
219 -> 220 ;
221 [label="gini = 0.0\nsamples = 4\nvalue = [9, 0]"] ;
220 -> 221 ;
222 [label="X[24] <= 117.0\ngini = 0.444\nsamples = 2\nvalue = [2, 1]"] ;
220 -> 222 ;
223 [label="gini = 0.0\nsamples = 1\nvalue = [0, 1]"] ;
222 -> 223 ;
224 [label="gini = 0.0\nsamples = 1\nvalue = [2, 0]"] ;
222 -> 224 ;
225 [label="gini = 0.0\nsamples = 1\nvalue = [0, 1]"] ;
219 -> 225 ;
226 [label="gini = 0.0\nsamples = 1\nvalue = [0, 2]"] ;
208 -> 226 ;
227 [label="X[7] <= 302.5\ngini = 0.133\nsamples = 10\nvalue = [13, 1]"] ;
195 -> 227 ;
228 [label="gini = 0.0\nsamples = 8\nvalue = [12, 0]"] ;
227 -> 228 ;
229 [label="X[1] <= 317.772\ngini = 0.5\nsamples = 2\nvalue = [1, 1]"] ;
227 -> 229 ;
230 [label="gini = 0.0\nsamples = 1\nvalue = [1, 0]"] ;
229 -> 230 ;
231 [label="gini = 0.0\nsamples = 1\nvalue = [0, 1]"] ;
229 -> 231 ;
232 [label="X[27] <= 691.0\ngini = 0.382\nsamples = 24\nvalue = [9, 26]"] ;
164 -> 232 ;
233 [label="X[0] <= 551.66\ngini = 0.153\nsamples = 16\nvalue = [2, 22]"] ;
232 -> 233 ;
234 [label="gini = 0.0\nsamples = 15\nvalue = [0, 22]"] ;
233 -> 234 ;
235 [label="gini = 0.0\nsamples = 1\nvalue = [2, 0]"] ;
233 -> 235 ;
236 [label="X[29] <= 686.96\ngini = 0.463\nsamples = 8\nvalue = [7, 4]"] ;
232 -> 236 ;
237 [label="X[15] <= 185.0\ngini = 0.346\nsamples = 7\nvalue = [7, 2]"] ;
236 -> 237 ;
238 [label="gini = 0.0\nsamples = 1\nvalue = [0, 1]"] ;
237 -> 238 ;
239 [label="X[14] <= 836.5\ngini = 0.219\nsamples = 6\nvalue = [7, 1]"] ;
237 -> 239 ;
240 [label="gini = 0.0\nsamples = 5\nvalue = [7, 0]"] ;
239 -> 240 ;
241 [label="gini = 0.0\nsamples = 1\nvalue = [0, 1]"] ;
239 -> 241 ;
242 [label="gini = 0.0\nsamples = 1\nvalue = [0, 2]"] ;
236 -> 242 ;
243 [label="X[1] <= 973.429\ngini = 0.443\nsamples = 191\nvalue = [212, 105]"] ;
113 -> 243 ;
244 [label="X[27] <= 5256.77\ngini = 0.416\nsamples = 168\nvalue = [196, 82]"] ;
243 -> 244 ;
245 [label="X[5] <= 102.5\ngini = 0.376\nsamples = 111\nvalue = [143, 48]"] ;
244 -> 245 ;
246 [label="X[21] <= 953.0\ngini = 0.353\nsamples = 102\nvalue = [135, 40]"] ;
245 -> 246 ;
247 [label="X[29] <= 1994.0\ngini = 0.461\nsamples = 31\nvalue = [32, 18]"] ;
246 -> 247 ;
248 [label="X[10] <= 604.0\ngini = 0.5\nsamples = 25\nvalue = [19, 18]"] ;
247 -> 248 ;
249 [label="X[20] <= 776.535\ngini = 0.401\nsamples = 12\nvalue = [13, 5]"] ;
248 -> 249 ;
250 [label="X[7] <= 172.5\ngini = 0.375\nsamples = 3\nvalue = [1, 3]"] ;
249 -> 250 ;
251 [label="gini = 0.0\nsamples = 2\nvalue = [0, 3]"] ;
250 -> 251 ;
252 [label="gini = 0.0\nsamples = 1\nvalue = [1, 0]"] ;
250 -> 252 ;
253 [label="X[14] <= 2156.0\ngini = 0.245\nsamples = 9\nvalue = [12, 2]"] ;
249 -> 253 ;
254 [label="gini = 0.0\nsamples = 5\nvalue = [8, 0]"] ;
253 -> 254 ;
255 [label="X[24] <= 323.495\ngini = 0.444\nsamples = 4\nvalue = [4, 2]"] ;
253 -> 255 ;
256 [label="X[14] <= 3489.5\ngini = 0.32\nsamples = 3\nvalue = [4, 1]"] ;
255 -> 256 ;
257 [label="gini = 0.0\nsamples = 1\nvalue = [0, 1]"] ;
256 -> 257 ;
258 [label="gini = 0.0\nsamples = 2\nvalue = [4, 0]"] ;
256 -> 258 ;
259 [label="gini = 0.0\nsamples = 1\nvalue = [0, 1]"] ;
255 -> 259 ;
260 [label="X[19] <= 4565.0\ngini = 0.432\nsamples = 13\nvalue = [6, 13]"] ;
248 -> 260 ;
261 [label="X[20] <= 3310.78\ngini = 0.49\nsamples = 10\nvalue = [6, 8]"] ;
260 -> 261 ;
262 [label="X[7] <= 672.5\ngini = 0.32\nsamples = 7\nvalue = [2, 8]"] ;
261 -> 262 ;
263 [label="gini = 0.0\nsamples = 6\nvalue = [0, 8]"] ;
262 -> 263 ;
264 [label="gini = 0.0\nsamples = 1\nvalue = [2, 0]"] ;
262 -> 264 ;
265 [label="gini = 0.0\nsamples = 3\nvalue = [4, 0]"] ;
261 -> 265 ;
266 [label="gini = 0.0\nsamples = 3\nvalue = [0, 5]"] ;
260 -> 266 ;
267 [label="gini = 0.0\nsamples = 6\nvalue = [13, 0]"] ;
247 -> 267 ;
268 [label="X[15] <= 380.5\ngini = 0.29\nsamples = 71\nvalue = [103, 22]"] ;
246 -> 268 ;
269 [label="X[20] <= 1537.5\ngini = 0.367\nsamples = 39\nvalue = [50, 16]"] ;
268 -> 269 ;
270 [label="X[9] <= 649.25\ngini = 0.426\nsamples = 30\nvalue = [36, 16]"] ;
269 -> 270 ;
271 [label="X[21] <= 2339.0\ngini = 0.307\nsamples = 22\nvalue = [30, 7]"] ;
270 -> 271 ;
272 [label="X[14] <= 242.275\ngini = 0.384\nsamples = 17\nvalue = [20, 7]"] ;
271 -> 272 ;
273 [label="X[11] <= 186.0\ngini = 0.165\nsamples = 7\nvalue = [10, 1]"] ;
272 -> 273 ;
274 [label="gini = 0.0\nsamples = 5\nvalue = [9, 0]"] ;
273 -> 274 ;
275 [label="X[18] <= 201.5\ngini = 0.5\nsamples = 2\nvalue = [1, 1]"] ;
273 -> 275 ;
276 [label="gini = 0.0\nsamples = 1\nvalue = [0, 1]"] ;
275 -> 276 ;
277 [label="gini = 0.0\nsamples = 1\nvalue = [1, 0]"] ;
275 -> 277 ;
278 [label="X[14] <= 478.275\ngini = 0.469\nsamples = 10\nvalue = [10, 6]"] ;
272 -> 278 ;
279 [label="X[0] <= 25.0\ngini = 0.375\nsamples = 3\nvalue = [1, 3]"] ;
278 -> 279 ;
280 [label="gini = 0.0\nsamples = 1\nvalue = [1, 0]"] ;
279 -> 280 ;
281 [label="gini = 0.0\nsamples = 2\nvalue = [0, 3]"] ;
279 -> 281 ;
282 [label="X[19] <= 980.0\ngini = 0.375\nsamples = 7\nvalue = [9, 3]"] ;
278 -> 282 ;
283 [label="gini = 0.0\nsamples = 3\nvalue = [6, 0]"] ;
282 -> 283 ;
284 [label="X[22] <= 114.5\ngini = 0.5\nsamples = 4\nvalue = [3, 3]"] ;
282 -> 284 ;
285 [label="X[27] <= 1345.0\ngini = 0.375\nsamples = 2\nvalue = [3, 1]"] ;
284 -> 285 ;
286 [label="gini = 0.0\nsamples = 1\nvalue = [0, 1]"] ;
285 -> 286 ;
287 [label="gini = 0.0\nsamples = 1\nvalue = [3, 0]"] ;
285 -> 287 ;
288 [label="gini = 0.0\nsamples = 2\nvalue = [0, 2]"] ;
284 -> 288 ;
289 [label="gini = 0.0\nsamples = 5\nvalue = [10, 0]"] ;
271 -> 289 ;
290 [label="X[24] <= 1273.0\ngini = 0.48\nsamples = 8\nvalue = [6, 9]"] ;
270 -> 290 ;
291 [label="X[16] <= 85.095\ngini = 0.5\nsamples = 7\nvalue = [6, 6]"] ;
290 -> 291 ;
292 [label="X[27] <= 1340.0\ngini = 0.48\nsamples = 6\nvalue = [4, 6]"] ;
291 -> 292 ;
293 [label="X[15] <= 169.0\ngini = 0.444\nsamples = 4\nvalue = [4, 2]"] ;
292 -> 293 ;
294 [label="gini = 0.0\nsamples = 2\nvalue = [3, 0]"] ;
293 -> 294 ;
295 [label="X[23] <= 1174.0\ngini = 0.444\nsamples = 2\nvalue = [1, 2]"] ;
293 -> 295 ;
296 [label="gini = 0.0\nsamples = 1\nvalue = [1, 0]"] ;
295 -> 296 ;
297 [label="gini = 0.0\nsamples = 1\nvalue = [0, 2]"] ;
295 -> 297 ;
298 [label="gini = 0.0\nsamples = 2\nvalue = [0, 4]"] ;
292 -> 298 ;
299 [label="gini = 0.0\nsamples = 1\nvalue = [2, 0]"] ;
291 -> 299 ;
300 [label="gini = 0.0\nsamples = 1\nvalue = [0, 3]"] ;
290 -> 300 ;
301 [label="gini = 0.0\nsamples = 9\nvalue = [14, 0]"] ;
269 -> 301 ;
302 [label="X[14] <= 3718.5\ngini = 0.183\nsamples = 32\nvalue = [53, 6]"] ;
268 -> 302 ;
303 [label="X[7] <= 595.5\ngini = 0.131\nsamples = 30\nvalue = [53, 4]"] ;
302 -> 303 ;
304 [label="gini = 0.0\nsamples = 23\nvalue = [47, 0]"] ;
303 -> 304 ;
305 [label="X[27] <= 1794.5\ngini = 0.48\nsamples = 7\nvalue = [6, 4]"] ;
303 -> 305 ;
306 [label="X[27] <= 1445.0\ngini = 0.32\nsamples = 4\nvalue = [1, 4]"] ;
305 -> 306 ;
307 [label="gini = 0.0\nsamples = 1\nvalue = [1, 0]"] ;
306 -> 307 ;
308 [label="gini = 0.0\nsamples = 3\nvalue = [0, 4]"] ;
306 -> 308 ;
309 [label="gini = 0.0\nsamples = 3\nvalue = [5, 0]"] ;
305 -> 309 ;
310 [label="gini = 0.0\nsamples = 2\nvalue = [0, 2]"] ;
302 -> 310 ;
311 [label="X[0] <= 383.635\ngini = 0.5\nsamples = 9\nvalue = [8, 8]"] ;
245 -> 311 ;
312 [label="X[23] <= 1212.405\ngini = 0.346\nsamples = 5\nvalue = [2, 7]"] ;
311 -> 312 ;
313 [label="gini = 0.0\nsamples = 4\nvalue = [0, 7]"] ;
312 -> 313 ;
314 [label="gini = 0.0\nsamples = 1\nvalue = [2, 0]"] ;
312 -> 314 ;
315 [label="X[24] <= 797.75\ngini = 0.245\nsamples = 4\nvalue = [6, 1]"] ;
311 -> 315 ;
316 [label="gini = 0.0\nsamples = 3\nvalue = [6, 0]"] ;
315 -> 316 ;
317 [label="gini = 0.0\nsamples = 1\nvalue = [0, 1]"] ;
315 -> 317 ;
318 [label="X[21] <= 616.125\ngini = 0.476\nsamples = 57\nvalue = [53, 34]"] ;
244 -> 318 ;
319 [label="X[24] <= 84.5\ngini = 0.489\nsamples = 19\nvalue = [14, 19]"] ;
318 -> 319 ;
320 [label="X[19] <= 3739.0\ngini = 0.497\nsamples = 17\nvalue = [14, 12]"] ;
319 -> 320 ;
321 [label="gini = 0.0\nsamples = 4\nvalue = [6, 0]"] ;
320 -> 321 ;
322 [label="X[15] <= 74.5\ngini = 0.48\nsamples = 13\nvalue = [8, 12]"] ;
320 -> 322 ;
323 [label="X[23] <= 6207.0\ngini = 0.498\nsamples = 12\nvalue = [8, 9]"] ;
322 -> 323 ;
324 [label="gini = 0.0\nsamples = 2\nvalue = [0, 3]"] ;
323 -> 324 ;
325 [label="X[27] <= 10955.5\ngini = 0.49\nsamples = 10\nvalue = [8, 6]"] ;
323 -> 325 ;
326 [label="gini = 0.0\nsamples = 4\nvalue = [5, 0]"] ;
325 -> 326 ;
327 [label="X[14] <= 22762.949\ngini = 0.444\nsamples = 6\nvalue = [3, 6]"] ;
325 -> 327 ;
328 [label="X[10] <= 16963.699\ngini = 0.245\nsamples = 4\nvalue = [1, 6]"] ;
327 -> 328 ;
329 [label="X[20] <= 13060.2\ngini = 0.5\nsamples = 2\nvalue = [1, 1]"] ;
328 -> 329 ;
330 [label="gini = 0.0\nsamples = 1\nvalue = [0, 1]"] ;
329 -> 330 ;
331 [label="gini = 0.0\nsamples = 1\nvalue = [1, 0]"] ;
329 -> 331 ;
332 [label="gini = 0.0\nsamples = 2\nvalue = [0, 5]"] ;
328 -> 332 ;
333 [label="gini = 0.0\nsamples = 2\nvalue = [2, 0]"] ;
327 -> 333 ;
334 [label="gini = 0.0\nsamples = 1\nvalue = [0, 3]"] ;
322 -> 334 ;
335 [label="gini = 0.0\nsamples = 2\nvalue = [0, 7]"] ;
319 -> 335 ;
336 [label="X[23] <= 10721.025\ngini = 0.401\nsamples = 38\nvalue = [39, 15]"] ;
318 -> 336 ;
337 [label="X[22] <= 26.675\ngini = 0.478\nsamples = 28\nvalue = [23, 15]"] ;
336 -> 337 ;
338 [label="X[10] <= 4726.255\ngini = 0.497\nsamples = 22\nvalue = [12, 14]"] ;
337 -> 338 ;
339 [label="X[10] <= 1285.103\ngini = 0.455\nsamples = 18\nvalue = [7, 13]"] ;
338 -> 339 ;
340 [label="X[1] <= 52.583\ngini = 0.5\nsamples = 13\nvalue = [7, 7]"] ;
339 -> 340 ;
341 [label="X[20] <= 866.5\ngini = 0.444\nsamples = 8\nvalue = [3, 6]"] ;
340 -> 341 ;
342 [label="X[2] <= 0.5\ngini = 0.48\nsamples = 4\nvalue = [3, 2]"] ;
341 -> 342 ;
343 [label="gini = 0.0\nsamples = 1\nvalue = [1, 0]"] ;
342 -> 343 ;
344 [label="X[15] <= 174.015\ngini = 0.5\nsamples = 3\nvalue = [2, 2]"] ;
342 -> 344 ;
345 [label="gini = 0.0\nsamples = 2\nvalue = [2, 0]"] ;
344 -> 345 ;
346 [label="gini = 0.0\nsamples = 1\nvalue = [0, 2]"] ;
344 -> 346 ;
347 [label="gini = 0.0\nsamples = 4\nvalue = [0, 4]"] ;
341 -> 347 ;
348 [label="X[14] <= 1457.0\ngini = 0.32\nsamples = 5\nvalue = [4, 1]"] ;
340 -> 348 ;
349 [label="X[26] <= 193.5\ngini = 0.5\nsamples = 2\nvalue = [1, 1]"] ;
348 -> 349 ;
350 [label="gini = 0.0\nsamples = 1\nvalue = [0, 1]"] ;
349 -> 350 ;
351 [label="gini = 0.0\nsamples = 1\nvalue = [1, 0]"] ;
349 -> 351 ;
352 [label="gini = 0.0\nsamples = 3\nvalue = [3, 0]"] ;
348 -> 352 ;
353 [label="gini = 0.0\nsamples = 5\nvalue = [0, 6]"] ;
339 -> 353 ;
354 [label="X[18] <= 1493.125\ngini = 0.278\nsamples = 4\nvalue = [5, 1]"] ;
338 -> 354 ;
355 [label="gini = 0.0\nsamples = 3\nvalue = [5, 0]"] ;
354 -> 355 ;
356 [label="gini = 0.0\nsamples = 1\nvalue = [0, 1]"] ;
354 -> 356 ;
357 [label="X[18] <= 838.0\ngini = 0.153\nsamples = 6\nvalue = [11, 1]"] ;
337 -> 357 ;
358 [label="gini = 0.0\nsamples = 5\nvalue = [11, 0]"] ;
357 -> 358 ;
359 [label="gini = 0.0\nsamples = 1\nvalue = [0, 1]"] ;
357 -> 359 ;
360 [label="gini = 0.0\nsamples = 10\nvalue = [16, 0]"] ;
336 -> 360 ;
361 [label="X[9] <= 12119.46\ngini = 0.484\nsamples = 23\nvalue = [16, 23]"] ;
243 -> 361 ;
362 [label="X[23] <= 8199.465\ngini = 0.346\nsamples = 9\nvalue = [4, 14]"] ;
361 -> 362 ;
363 [label="X[11] <= 5996.0\ngini = 0.494\nsamples = 6\nvalue = [4, 5]"] ;
362 -> 363 ;
364 [label="X[23] <= 5658.11\ngini = 0.278\nsamples = 3\nvalue = [1, 5]"] ;
363 -> 364 ;
365 [label="gini = 0.0\nsamples = 1\nvalue = [1, 0]"] ;
364 -> 365 ;
366 [label="gini = 0.0\nsamples = 2\nvalue = [0, 5]"] ;
364 -> 366 ;
367 [label="gini = 0.0\nsamples = 3\nvalue = [3, 0]"] ;
363 -> 367 ;
368 [label="gini = 0.0\nsamples = 3\nvalue = [0, 9]"] ;
362 -> 368 ;
369 [label="X[22] <= 119.5\ngini = 0.49\nsamples = 14\nvalue = [12, 9]"] ;
361 -> 369 ;
370 [label="X[10] <= 17570.5\ngini = 0.465\nsamples = 13\nvalue = [12, 7]"] ;
369 -> 370 ;
371 [label="X[1] <= 1923.307\ngini = 0.18\nsamples = 6\nvalue = [9, 1]"] ;
370 -> 371 ;
372 [label="gini = 0.0\nsamples = 1\nvalue = [0, 1]"] ;
371 -> 372 ;
373 [label="gini = 0.0\nsamples = 5\nvalue = [9, 0]"] ;
371 -> 373 ;
374 [label="X[24] <= 22253.525\ngini = 0.444\nsamples = 7\nvalue = [3, 6]"] ;
370 -> 374 ;
375 [label="gini = 0.0\nsamples = 4\nvalue = [0, 5]"] ;
374 -> 375 ;
376 [label="X[21] <= 1156.0\ngini = 0.375\nsamples = 3\nvalue = [3, 1]"] ;
374 -> 376 ;
377 [label="X[27] <= 24284.4\ngini = 0.5\nsamples = 2\nvalue = [1, 1]"] ;
376 -> 377 ;
378 [label="gini = 0.0\nsamples = 1\nvalue = [1, 0]"] ;
377 -> 378 ;
379 [label="gini = 0.0\nsamples = 1\nvalue = [0, 1]"] ;
377 -> 379 ;
380 [label="gini = 0.0\nsamples = 1\nvalue = [2, 0]"] ;
376 -> 380 ;
381 [label="gini = 0.0\nsamples = 1\nvalue = [0, 2]"] ;
369 -> 381 ;
382 [label="X[14] <= 7269.39\ngini = 0.484\nsamples = 46\nvalue = [30, 43]"] ;
112 -> 382 ;
383 [label="X[13] <= 1167.5\ngini = 0.437\nsamples = 38\nvalue = [19, 40]"] ;
382 -> 383 ;
384 [label="X[0] <= 150.0\ngini = 0.397\nsamples = 34\nvalue = [15, 40]"] ;
383 -> 384 ;
385 [label="X[0] <= 50.0\ngini = 0.493\nsamples = 16\nvalue = [11, 14]"] ;
384 -> 385 ;
386 [label="X[15] <= 2737.5\ngini = 0.444\nsamples = 15\nvalue = [7, 14]"] ;
385 -> 386 ;
387 [label="X[20] <= 985.5\ngini = 0.388\nsamples = 14\nvalue = [5, 14]"] ;
386 -> 387 ;
388 [label="gini = 0.0\nsamples = 1\nvalue = [1, 0]"] ;
387 -> 388 ;
389 [label="X[15] <= 1092.0\ngini = 0.346\nsamples = 13\nvalue = [4, 14]"] ;
387 -> 389 ;
390 [label="X[22] <= 1061.5\ngini = 0.444\nsamples = 10\nvalue = [4, 8]"] ;
389 -> 390 ;
391 [label="gini = 0.0\nsamples = 3\nvalue = [0, 4]"] ;
390 -> 391 ;
392 [label="X[14] <= 1248.0\ngini = 0.5\nsamples = 7\nvalue = [4, 4]"] ;
390 -> 392 ;
393 [label="gini = 0.0\nsamples = 2\nvalue = [2, 0]"] ;
392 -> 393 ;
394 [label="X[19] <= 2307.0\ngini = 0.444\nsamples = 5\nvalue = [2, 4]"] ;
392 -> 394 ;
395 [label="gini = 0.0\nsamples = 2\nvalue = [0, 2]"] ;
394 -> 395 ;
396 [label="X[14] <= 4407.0\ngini = 0.5\nsamples = 3\nvalue = [2, 2]"] ;
394 -> 396 ;
397 [label="gini = 0.0\nsamples = 1\nvalue = [2, 0]"] ;
396 -> 397 ;
398 [label="gini = 0.0\nsamples = 2\nvalue = [0, 2]"] ;
396 -> 398 ;
399 [label="gini = 0.0\nsamples = 3\nvalue = [0, 6]"] ;
389 -> 399 ;
400 [label="gini = 0.0\nsamples = 1\nvalue = [2, 0]"] ;
386 -> 400 ;
401 [label="gini = 0.0\nsamples = 1\nvalue = [4, 0]"] ;
385 -> 401 ;
402 [label="X[8] <= 972.0\ngini = 0.231\nsamples = 18\nvalue = [4, 26]"] ;
384 -> 402 ;
403 [label="X[3] <= 417.5\ngini = 0.083\nsamples = 12\nvalue = [1, 22]"] ;
402 -> 403 ;
404 [label="gini = 0.0\nsamples = 11\nvalue = [0, 22]"] ;
403 -> 404 ;
405 [label="gini = 0.0\nsamples = 1\nvalue = [1, 0]"] ;
403 -> 405 ;
406 [label="X[22] <= 1089.0\ngini = 0.49\nsamples = 6\nvalue = [3, 4]"] ;
402 -> 406 ;
407 [label="X[11] <= 2223.5\ngini = 0.375\nsamples = 4\nvalue = [3, 1]"] ;
406 -> 407 ;
408 [label="gini = 0.0\nsamples = 3\nvalue = [3, 0]"] ;
407 -> 408 ;
409 [label="gini = 0.0\nsamples = 1\nvalue = [0, 1]"] ;
407 -> 409 ;
410 [label="gini = 0.0\nsamples = 2\nvalue = [0, 3]"] ;
406 -> 410 ;
411 [label="gini = 0.0\nsamples = 4\nvalue = [4, 0]"] ;
383 -> 411 ;
412 [label="X[20] <= 13126.09\ngini = 0.337\nsamples = 8\nvalue = [11, 3]"] ;
382 -> 412 ;
413 [label="gini = 0.0\nsamples = 4\nvalue = [8, 0]"] ;
412 -> 413 ;
414 [label="X[27] <= 14964.285\ngini = 0.5\nsamples = 4\nvalue = [3, 3]"] ;
412 -> 414 ;
415 [label="gini = 0.0\nsamples = 1\nvalue = [0, 2]"] ;
414 -> 415 ;
416 [label="X[23] <= 14871.375\ngini = 0.375\nsamples = 3\nvalue = [3, 1]"] ;
414 -> 416 ;
417 [label="gini = 0.0\nsamples = 1\nvalue = [0, 1]"] ;
416 -> 417 ;
418 [label="gini = 0.0\nsamples = 2\nvalue = [3, 0]"] ;
416 -> 418 ;
419 [label="X[18] <= 345.5\ngini = 0.384\nsamples = 15\nvalue = [7, 20]"] ;
111 -> 419 ;
420 [label="X[23] <= 976.5\ngini = 0.236\nsamples = 13\nvalue = [3, 19]"] ;
419 -> 420 ;
421 [label="X[18] <= 148.5\ngini = 0.5\nsamples = 2\nvalue = [1, 1]"] ;
420 -> 421 ;
422 [label="gini = 0.0\nsamples = 1\nvalue = [1, 0]"] ;
421 -> 422 ;
423 [label="gini = 0.0\nsamples = 1\nvalue = [0, 1]"] ;
421 -> 423 ;
424 [label="X[18] <= 98.5\ngini = 0.18\nsamples = 11\nvalue = [2, 18]"] ;
420 -> 424 ;
425 [label="X[20] <= 5140.0\ngini = 0.105\nsamples = 9\nvalue = [1, 17]"] ;
424 -> 425 ;
426 [label="gini = 0.0\nsamples = 5\nvalue = [0, 10]"] ;
425 -> 426 ;
427 [label="X[0] <= 4232.25\ngini = 0.219\nsamples = 4\nvalue = [1, 7]"] ;
425 -> 427 ;
428 [label="gini = 0.0\nsamples = 3\nvalue = [0, 7]"] ;
427 -> 428 ;
429 [label="gini = 0.0\nsamples = 1\nvalue = [1, 0]"] ;
427 -> 429 ;
430 [label="X[23] <= 3539.5\ngini = 0.5\nsamples = 2\nvalue = [1, 1]"] ;
424 -> 430 ;
431 [label="gini = 0.0\nsamples = 1\nvalue = [0, 1]"] ;
430 -> 431 ;
432 [label="gini = 0.0\nsamples = 1\nvalue = [1, 0]"] ;
430 -> 432 ;
433 [label="X[18] <= 1192.5\ngini = 0.32\nsamples = 2\nvalue = [4, 1]"] ;
419 -> 433 ;
434 [label="gini = 0.0\nsamples = 1\nvalue = [4, 0]"] ;
433 -> 434 ;
435 [label="gini = 0.0\nsamples = 1\nvalue = [0, 1]"] ;
433 -> 435 ;
436 [label="X[23] <= 1521.55\ngini = 0.204\nsamples = 17\nvalue = [23, 3]"] ;
110 -> 436 ;
437 [label="gini = 0.0\nsamples = 2\nvalue = [0, 3]"] ;
436 -> 437 ;
438 [label="gini = 0.0\nsamples = 15\nvalue = [23, 0]"] ;
436 -> 438 ;
439 [label="X[29] <= 8245.5\ngini = 0.389\nsamples = 57\nvalue = [75, 27]"] ;
109 -> 439 ;
440 [label="X[8] <= 426.5\ngini = 0.326\nsamples = 46\nvalue = [66, 17]"] ;
439 -> 440 ;
441 [label="X[18] <= 504.5\ngini = 0.292\nsamples = 44\nvalue = [65, 14]"] ;
440 -> 441 ;
442 [label="X[16] <= 1271.225\ngini = 0.362\nsamples = 33\nvalue = [45, 14]"] ;
441 -> 442 ;
443 [label="X[28] <= 6979.5\ngini = 0.273\nsamples = 27\nvalue = [41, 8]"] ;
442 -> 443 ;
444 [label="X[27] <= 6542.65\ngini = 0.145\nsamples = 23\nvalue = [35, 3]"] ;
443 -> 444 ;
445 [label="X[20] <= 5294.65\ngini = 0.5\nsamples = 2\nvalue = [1, 1]"] ;
444 -> 445 ;
446 [label="gini = 0.0\nsamples = 1\nvalue = [1, 0]"] ;
445 -> 446 ;
447 [label="gini = 0.0\nsamples = 1\nvalue = [0, 1]"] ;
445 -> 447 ;
448 [label="X[10] <= 354.815\ngini = 0.105\nsamples = 21\nvalue = [34, 2]"] ;
444 -> 448 ;
449 [label="gini = 0.0\nsamples = 14\nvalue = [23, 0]"] ;
448 -> 449 ;
450 [label="X[19] <= 453.525\ngini = 0.26\nsamples = 7\nvalue = [11, 2]"] ;
448 -> 450 ;
451 [label="gini = 0.0\nsamples = 2\nvalue = [0, 2]"] ;
450 -> 451 ;
452 [label="gini = 0.0\nsamples = 5\nvalue = [11, 0]"] ;
450 -> 452 ;
453 [label="X[28] <= 16536.525\ngini = 0.496\nsamples = 4\nvalue = [6, 5]"] ;
443 -> 453 ;
454 [label="X[15] <= 6695.875\ngini = 0.408\nsamples = 3\nvalue = [2, 5]"] ;
453 -> 454 ;
455 [label="gini = 0.0\nsamples = 1\nvalue = [2, 0]"] ;
454 -> 455 ;
456 [label="gini = 0.0\nsamples = 2\nvalue = [0, 5]"] ;
454 -> 456 ;
457 [label="gini = 0.0\nsamples = 1\nvalue = [4, 0]"] ;
453 -> 457 ;
458 [label="X[16] <= 2134.8\ngini = 0.48\nsamples = 6\nvalue = [4, 6]"] ;
442 -> 458 ;
459 [label="gini = 0.0\nsamples = 3\nvalue = [0, 6]"] ;
458 -> 459 ;
460 [label="gini = 0.0\nsamples = 3\nvalue = [4, 0]"] ;
458 -> 460 ;
461 [label="gini = 0.0\nsamples = 11\nvalue = [20, 0]"] ;
441 -> 461 ;
462 [label="X[3] <= 224.0\ngini = 0.375\nsamples = 2\nvalue = [1, 3]"] ;
440 -> 462 ;
463 [label="gini = 0.0\nsamples = 1\nvalue = [0, 3]"] ;
462 -> 463 ;
464 [label="gini = 0.0\nsamples = 1\nvalue = [1, 0]"] ;
462 -> 464 ;
465 [label="X[18] <= 175.5\ngini = 0.499\nsamples = 11\nvalue = [9, 10]"] ;
439 -> 465 ;
466 [label="X[19] <= 545.0\ngini = 0.278\nsamples = 7\nvalue = [2, 10]"] ;
465 -> 466 ;
467 [label="gini = 0.0\nsamples = 6\nvalue = [0, 10]"] ;
466 -> 467 ;
468 [label="gini = 0.0\nsamples = 1\nvalue = [2, 0]"] ;
466 -> 468 ;
469 [label="gini = 0.0\nsamples = 4\nvalue = [7, 0]"] ;
465 -> 469 ;
470 [label="X[7] <= 124.0\ngini = 0.245\nsamples = 5\nvalue = [1, 6]"] ;
108 -> 470 ;
471 [label="gini = 0.0\nsamples = 4\nvalue = [0, 6]"] ;
470 -> 471 ;
472 [label="gini = 0.0\nsamples = 1\nvalue = [1, 0]"] ;
470 -> 472 ;
473 [label="X[21] <= 1407.0\ngini = 0.245\nsamples = 4\nvalue = [1, 6]"] ;
107 -> 473 ;
474 [label="X[17] <= 18643.75\ngini = 0.5\nsamples = 2\nvalue = [1, 1]"] ;
473 -> 474 ;
475 [label="gini = 0.0\nsamples = 1\nvalue = [0, 1]"] ;
474 -> 475 ;
476 [label="gini = 0.0\nsamples = 1\nvalue = [1, 0]"] ;
474 -> 476 ;
477 [label="gini = 0.0\nsamples = 2\nvalue = [0, 5]"] ;
473 -> 477 ;
478 [label="X[6] <= 505.5\ngini = 0.5\nsamples = 1063\nvalue = [800, 840]"] ;
100 -> 478 ;
479 [label="X[28] <= 15725.5\ngini = 0.499\nsamples = 1048\nvalue = [782, 836]"] ;
478 -> 479 ;
480 [label="X[2] <= 2.5\ngini = 0.498\nsamples = 946\nvalue = [687, 779]"] ;
479 -> 480 ;
481 [label="X[0] <= 2682.5\ngini = 0.5\nsamples = 861\nvalue = [648, 688]"] ;
480 -> 481 ;
482 [label="X[12] <= 14.505\ngini = 0.497\nsamples = 693\nvalue = [505, 584]"] ;
481 -> 482 ;
483 [label="X[24] <= 5217.25\ngini = 0.497\nsamples = 688\nvalue = [497, 584]"] ;
482 -> 483 ;
484 [label="X[18] <= 714.25\ngini = 0.498\nsamples = 669\nvalue = [492, 560]"] ;
483 -> 484 ;
485 [label="X[27] <= 2342.25\ngini = 0.49\nsamples = 435\nvalue = [298, 394]"] ;
484 -> 485 ;
486 [label="X[7] <= 884.0\ngini = 0.172\nsamples = 12\nvalue = [2, 19]"] ;
485 -> 486 ;
487 [label="gini = 0.0\nsamples = 9\nvalue = [0, 14]"] ;
486 -> 487 ;
488 [label="X[26] <= 53.0\ngini = 0.408\nsamples = 3\nvalue = [2, 5]"] ;
486 -> 488 ;
489 [label="gini = 0.0\nsamples = 2\nvalue = [0, 5]"] ;
488 -> 489 ;
490 [label="gini = 0.0\nsamples = 1\nvalue = [2, 0]"] ;
488 -> 490 ;
491 [label="X[2] <= 1.5\ngini = 0.493\nsamples = 423\nvalue = [296, 375]"] ;
485 -> 491 ;
492 [label="X[29] <= 4304.235\ngini = 0.498\nsamples = 342\nvalue = [255, 290]"] ;
491 -> 492 ;
493 [label="X[4] <= 254.28\ngini = 0.496\nsamples = 339\nvalue = [244, 290]"] ;
492 -> 493 ;
494 [label="X[10] <= 11940.875\ngini = 0.493\nsamples = 323\nvalue = [226, 287]"] ;
493 -> 494 ;
495 [label="X[14] <= 23691.5\ngini = 0.488\nsamples = 292\nvalue = [196, 268]"] ;
494 -> 495 ;
496 [label="X[19] <= 6225.875\ngini = 0.483\nsamples = 279\nvalue = [181, 262]"] ;
495 -> 496 ;
497 [label="X[22] <= 1074.5\ngini = 0.489\nsamples = 262\nvalue = [177, 238]"] ;
496 -> 497 ;
498 [label="X[14] <= 882.0\ngini = 0.497\nsamples = 220\nvalue = [163, 188]"] ;
497 -> 498 ;
499 [label="X[21] <= 11965.0\ngini = 0.436\nsamples = 51\nvalue = [26, 55]"] ;
498 -> 499 ;
500 [label="X[24] <= 169.0\ngini = 0.335\nsamples = 38\nvalue = [13, 48]"] ;
499 -> 500 ;
501 [label="X[27] <= 2928.375\ngini = 0.424\nsamples = 22\nvalue = [11, 25]"] ;
500 -> 501 ;
502 [label="gini = 0.0\nsamples = 2\nvalue = [4, 0]"] ;
501 -> 502 ;
503 [label="X[10] <= 239.0\ngini = 0.342\nsamples = 20\nvalue = [7, 25]"] ;
501 -> 503 ;
504 [label="X[0] <= 81.5\ngini = 0.105\nsamples = 10\nvalue = [1, 17]"] ;
503 -> 504 ;
505 [label="gini = 0.0\nsamples = 9\nvalue = [0, 17]"] ;
504 -> 505 ;
506 [label="gini = 0.0\nsamples = 1\nvalue = [1, 0]"] ;
504 -> 506 ;
507 [label="X[10] <= 468.0\ngini = 0.49\nsamples = 10\nvalue = [6, 8]"] ;
503 -> 507 ;
508 [label="X[23] <= 326.0\ngini = 0.375\nsamples = 4\nvalue = [6, 2]"] ;
507 -> 508 ;
509 [label="X[2] <= 0.5\ngini = 0.444\nsamples = 2\nvalue = [1, 2]"] ;
508 -> 509 ;
510 [label="gini = 0.0\nsamples = 1\nvalue = [0, 2]"] ;
509 -> 510 ;
511 [label="gini = 0.0\nsamples = 1\nvalue = [1, 0]"] ;
509 -> 511 ;
512 [label="gini = 0.0\nsamples = 2\nvalue = [5, 0]"] ;
508 -> 512 ;
513 [label="gini = 0.0\nsamples = 6\nvalue = [0, 6]"] ;
507 -> 513 ;
514 [label="X[18] <= 84.0\ngini = 0.147\nsamples = 16\nvalue = [2, 23]"] ;
500 -> 514 ;
515 [label="X[20] <= 368.265\ngini = 0.32\nsamples = 6\nvalue = [2, 8]"] ;
514 -> 515 ;
516 [label="gini = 0.0\nsamples = 1\nvalue = [1, 0]"] ;
515 -> 516 ;
517 [label="X[16] <= 16.38\ngini = 0.198\nsamples = 5\nvalue = [1, 8]"] ;
515 -> 517 ;
518 [label="gini = 0.0\nsamples = 3\nvalue = [0, 6]"] ;
517 -> 518 ;
519 [label="X[0] <= 702.28\ngini = 0.444\nsamples = 2\nvalue = [1, 2]"] ;
517 -> 519 ;
520 [label="gini = 0.0\nsamples = 1\nvalue = [1, 0]"] ;
519 -> 520 ;
521 [label="gini = 0.0\nsamples = 1\nvalue = [0, 2]"] ;
519 -> 521 ;
522 [label="gini = 0.0\nsamples = 10\nvalue = [0, 15]"] ;
514 -> 522 ;
523 [label="X[17] <= 2323.15\ngini = 0.455\nsamples = 13\nvalue = [13, 7]"] ;
499 -> 523 ;
524 [label="X[7] <= 87.0\ngini = 0.142\nsamples = 8\nvalue = [12, 1]"] ;
523 -> 524 ;
525 [label="X[21] <= 14850.25\ngini = 0.5\nsamples = 2\nvalue = [1, 1]"] ;
524 -> 525 ;
526 [label="gini = 0.0\nsamples = 1\nvalue = [0, 1]"] ;
525 -> 526 ;
527 [label="gini = 0.0\nsamples = 1\nvalue = [1, 0]"] ;
525 -> 527 ;
528 [label="gini = 0.0\nsamples = 6\nvalue = [11, 0]"] ;
524 -> 528 ;
529 [label="X[11] <= 77.0\ngini = 0.245\nsamples = 5\nvalue = [1, 6]"] ;
523 -> 529 ;
530 [label="gini = 0.0\nsamples = 3\nvalue = [0, 5]"] ;
529 -> 530 ;
531 [label="X[17] <= 27358.5\ngini = 0.5\nsamples = 2\nvalue = [1, 1]"] ;
529 -> 531 ;
532 [label="gini = 0.0\nsamples = 1\nvalue = [1, 0]"] ;
531 -> 532 ;
533 [label="gini = 0.0\nsamples = 1\nvalue = [0, 1]"] ;
531 -> 533 ;
534 [label="X[19] <= 1203.695\ngini = 0.5\nsamples = 169\nvalue = [137, 133]"] ;
498 -> 534 ;
535 [label="X[18] <= 144.0\ngini = 0.492\nsamples = 101\nvalue = [93, 72]"] ;
534 -> 535 ;
536 [label="X[0] <= 1812.0\ngini = 0.498\nsamples = 62\nvalue = [50, 56]"] ;
535 -> 536 ;
537 [label="X[7] <= 201.0\ngini = 0.5\nsamples = 59\nvalue = [50, 48]"] ;
536 -> 537 ;
538 [label="X[6] <= 34.5\ngini = 0.449\nsamples = 30\nvalue = [33, 17]"] ;
537 -> 538 ;
539 [label="X[14] <= 20466.5\ngini = 0.418\nsamples = 28\nvalue = [33, 14]"] ;
538 -> 539 ;
540 [label="X[19] <= 686.5\ngini = 0.391\nsamples = 27\nvalue = [33, 12]"] ;
539 -> 540 ;
541 [label="X[21] <= 3227.715\ngini = 0.438\nsamples = 23\nvalue = [25, 12]"] ;
540 -> 541 ;
542 [label="gini = 0.0\nsamples = 4\nvalue = [7, 0]"] ;
541 -> 542 ;
543 [label="X[21] <= 3932.65\ngini = 0.48\nsamples = 19\nvalue = [18, 12]"] ;
541 -> 543 ;
544 [label="gini = 0.0\nsamples = 4\nvalue = [0, 4]"] ;
543 -> 544 ;
545 [label="X[17] <= 43811.602\ngini = 0.426\nsamples = 15\nvalue = [18, 8]"] ;
543 -> 545 ;
546 [label="X[9] <= 3393.4\ngini = 0.375\nsamples = 14\nvalue = [18, 6]"] ;
545 -> 546 ;
547 [label="X[19] <= 252.2\ngini = 0.49\nsamples = 10\nvalue = [8, 6]"] ;
546 -> 547 ;
548 [label="X[28] <= 6645.5\ngini = 0.5\nsamples = 9\nvalue = [6, 6]"] ;
547 -> 548 ;
549 [label="X[20] <= 3884.25\ngini = 0.444\nsamples = 8\nvalue = [6, 3]"] ;
548 -> 549 ;
550 [label="X[21] <= 21425.75\ngini = 0.48\nsamples = 4\nvalue = [2, 3]"] ;
549 -> 550 ;
551 [label="X[20] <= 1322.0\ngini = 0.444\nsamples = 3\nvalue = [2, 1]"] ;
550 -> 551 ;
552 [label="gini = 0.0\nsamples = 1\nvalue = [0, 1]"] ;
551 -> 552 ;
553 [label="gini = 0.0\nsamples = 2\nvalue = [2, 0]"] ;
551 -> 553 ;
554 [label="gini = 0.0\nsamples = 1\nvalue = [0, 2]"] ;
550 -> 554 ;
555 [label="gini = 0.0\nsamples = 4\nvalue = [4, 0]"] ;
549 -> 555 ;
556 [label="gini = 0.0\nsamples = 1\nvalue = [0, 3]"] ;
548 -> 556 ;
557 [label="gini = 0.0\nsamples = 1\nvalue = [2, 0]"] ;
547 -> 557 ;
558 [label="gini = 0.0\nsamples = 4\nvalue = [10, 0]"] ;
546 -> 558 ;
559 [label="gini = 0.0\nsamples = 1\nvalue = [0, 2]"] ;
545 -> 559 ;
560 [label="gini = 0.0\nsamples = 4\nvalue = [8, 0]"] ;
540 -> 560 ;
561 [label="gini = 0.0\nsamples = 1\nvalue = [0, 2]"] ;
539 -> 561 ;
562 [label="gini = 0.0\nsamples = 2\nvalue = [0, 3]"] ;
538 -> 562 ;
563 [label="X[29] <= 1688.705\ngini = 0.457\nsamples = 29\nvalue = [17, 31]"] ;
537 -> 563 ;
564 [label="X[21] <= 4903.5\ngini = 0.416\nsamples = 28\nvalue = [13, 31]"] ;
563 -> 564 ;
565 [label="gini = 0.0\nsamples = 8\nvalue = [0, 12]"] ;
564 -> 565 ;
566 [label="X[21] <= 16970.83\ngini = 0.482\nsamples = 20\nvalue = [13, 19]"] ;
564 -> 566 ;
567 [label="X[7] <= 1414.71\ngini = 0.491\nsamples = 16\nvalue = [13, 10]"] ;
566 -> 567 ;
568 [label="X[15] <= 7176.7\ngini = 0.426\nsamples = 9\nvalue = [4, 9]"] ;
567 -> 568 ;
569 [label="X[17] <= 5543.5\ngini = 0.49\nsamples = 6\nvalue = [4, 3]"] ;
568 -> 569 ;
570 [label="X[20] <= 1008.655\ngini = 0.48\nsamples = 5\nvalue = [2, 3]"] ;
569 -> 570 ;
571 [label="gini = 0.0\nsamples = 1\nvalue = [1, 0]"] ;
570 -> 571 ;
572 [label="X[20] <= 5256.2\ngini = 0.375\nsamples = 4\nvalue = [1, 3]"] ;
570 -> 572 ;
573 [label="gini = 0.0\nsamples = 3\nvalue = [0, 3]"] ;
572 -> 573 ;
574 [label="gini = 0.0\nsamples = 1\nvalue = [1, 0]"] ;
572 -> 574 ;
575 [label="gini = 0.0\nsamples = 1\nvalue = [2, 0]"] ;
569 -> 575 ;
576 [label="gini = 0.0\nsamples = 3\nvalue = [0, 6]"] ;
568 -> 576 ;
577 [label="X[18] <= 22.5\ngini = 0.18\nsamples = 7\nvalue = [9, 1]"] ;
567 -> 577 ;
578 [label="gini = 0.0\nsamples = 5\nvalue = [8, 0]"] ;
577 -> 578 ;
579 [label="X[28] <= 4360.15\ngini = 0.5\nsamples = 2\nvalue = [1, 1]"] ;
577 -> 579 ;
580 [label="gini = 0.0\nsamples = 1\nvalue = [1, 0]"] ;
579 -> 580 ;
581 [label="gini = 0.0\nsamples = 1\nvalue = [0, 1]"] ;
579 -> 581 ;
582 [label="gini = 0.0\nsamples = 4\nvalue = [0, 9]"] ;
566 -> 582 ;
583 [label="gini = 0.0\nsamples = 1\nvalue = [4, 0]"] ;
563 -> 583 ;
584 [label="gini = 0.0\nsamples = 3\nvalue = [0, 8]"] ;
536 -> 584 ;
585 [label="X[5] <= 11.5\ngini = 0.395\nsamples = 39\nvalue = [43, 16]"] ;
535 -> 585 ;
586 [label="X[16] <= 638.875\ngini = 0.298\nsamples = 31\nvalue = [36, 8]"] ;
585 -> 586 ;
587 [label="X[18] <= 254.0\ngini = 0.184\nsamples = 27\nvalue = [35, 4]"] ;
586 -> 587 ;
588 [label="X[18] <= 206.5\ngini = 0.397\nsamples = 8\nvalue = [8, 3]"] ;
587 -> 588 ;
589 [label="gini = 0.0\nsamples = 5\nvalue = [8, 0]"] ;
588 -> 589 ;
590 [label="gini = 0.0\nsamples = 3\nvalue = [0, 3]"] ;
588 -> 590 ;
591 [label="X[7] <= 89.5\ngini = 0.069\nsamples = 19\nvalue = [27, 1]"] ;
587 -> 591 ;
592 [label="X[15] <= 399.0\ngini = 0.198\nsamples = 6\nvalue = [8, 1]"] ;
591 -> 592 ;
593 [label="gini = 0.0\nsamples = 1\nvalue = [0, 1]"] ;
592 -> 593 ;
594 [label="gini = 0.0\nsamples = 5\nvalue = [8, 0]"] ;
592 -> 594 ;
595 [label="gini = 0.0\nsamples = 13\nvalue = [19, 0]"] ;
591 -> 595 ;
596 [label="X[10] <= 217.0\ngini = 0.32\nsamples = 4\nvalue = [1, 4]"] ;
586 -> 596 ;
597 [label="gini = 0.0\nsamples = 2\nvalue = [0, 3]"] ;
596 -> 597 ;
598 [label="X[10] <= 697.515\ngini = 0.5\nsamples = 2\nvalue = [1, 1]"] ;
596 -> 598 ;
599 [label="gini = 0.0\nsamples = 1\nvalue = [1, 0]"] ;
598 -> 599 ;
600 [label="gini = 0.0\nsamples = 1\nvalue = [0, 1]"] ;
598 -> 600 ;
601 [label="X[11] <= 651.515\ngini = 0.498\nsamples = 8\nvalue = [7, 8]"] ;
585 -> 601 ;
602 [label="gini = 0.0\nsamples = 4\nvalue = [0, 6]"] ;
601 -> 602 ;
603 [label="X[11] <= 1307.0\ngini = 0.346\nsamples = 4\nvalue = [7, 2]"] ;
601 -> 603 ;
604 [label="X[20] <= 1307.5\ngini = 0.219\nsamples = 3\nvalue = [7, 1]"] ;
603 -> 604 ;
605 [label="gini = 0.0\nsamples = 1\nvalue = [0, 1]"] ;
604 -> 605 ;
606 [label="gini = 0.0\nsamples = 2\nvalue = [7, 0]"] ;
604 -> 606 ;
607 [label="gini = 0.0\nsamples = 1\nvalue = [0, 1]"] ;
603 -> 607 ;
608 [label="X[18] <= 534.0\ngini = 0.487\nsamples = 68\nvalue = [44, 61]"] ;
534 -> 608 ;
609 [label="X[27] <= 3799.05\ngini = 0.496\nsamples = 62\nvalue = [43, 51]"] ;
608 -> 609 ;
610 [label="X[14] <= 1478.0\ngini = 0.231\nsamples = 11\nvalue = [2, 13]"] ;
609 -> 610 ;
611 [label="gini = 0.0\nsamples = 1\nvalue = [1, 0]"] ;
610 -> 611 ;
612 [label="X[23] <= 3443.0\ngini = 0.133\nsamples = 10\nvalue = [1, 13]"] ;
610 -> 612 ;
613 [label="X[14] <= 3164.53\ngini = 0.245\nsamples = 6\nvalue = [1, 6]"] ;
612 -> 613 ;
614 [label="gini = 0.0\nsamples = 5\nvalue = [0, 6]"] ;
613 -> 614 ;
615 [label="gini = 0.0\nsamples = 1\nvalue = [1, 0]"] ;
613 -> 615 ;
616 [label="gini = 0.0\nsamples = 4\nvalue = [0, 7]"] ;
612 -> 616 ;
617 [label="X[19] <= 1737.0\ngini = 0.499\nsamples = 51\nvalue = [41, 38]"] ;
609 -> 617 ;
618 [label="X[17] <= 24668.625\ngini = 0.142\nsamples = 9\nvalue = [1, 12]"] ;
617 -> 618 ;
619 [label="gini = 0.0\nsamples = 8\nvalue = [0, 12]"] ;
618 -> 619 ;
620 [label="gini = 0.0\nsamples = 1\nvalue = [1, 0]"] ;
618 -> 620 ;
621 [label="X[20] <= 6812.675\ngini = 0.478\nsamples = 42\nvalue = [40, 26]"] ;
617 -> 621 ;
622 [label="X[16] <= 29.875\ngini = 0.422\nsamples = 34\nvalue = [37, 16]"] ;
621 -> 622 ;
623 [label="X[10] <= 1808.75\ngini = 0.32\nsamples = 25\nvalue = [32, 8]"] ;
622 -> 623 ;
624 [label="gini = 0.0\nsamples = 3\nvalue = [9, 0]"] ;
623 -> 624 ;
625 [label="X[28] <= 7183.9\ngini = 0.383\nsamples = 22\nvalue = [23, 8]"] ;
623 -> 625 ;
626 [label="X[15] <= 131.0\ngini = 0.293\nsamples = 20\nvalue = [23, 5]"] ;
625 -> 626 ;
627 [label="X[22] <= 74.0\ngini = 0.388\nsamples = 15\nvalue = [14, 5]"] ;
626 -> 627 ;
628 [label="X[17] <= 1223.275\ngini = 0.486\nsamples = 10\nvalue = [7, 5]"] ;
627 -> 628 ;
629 [label="X[1] <= 73.583\ngini = 0.469\nsamples = 7\nvalue = [3, 5]"] ;
628 -> 629 ;
630 [label="X[10] <= 6003.5\ngini = 0.408\nsamples = 6\nvalue = [2, 5]"] ;
629 -> 630 ;
631 [label="X[11] <= 2209.5\ngini = 0.278\nsamples = 5\nvalue = [1, 5]"] ;
630 -> 631 ;
632 [label="gini = 0.0\nsamples = 2\nvalue = [0, 3]"] ;
631 -> 632 ;
633 [label="X[14] <= 2856.875\ngini = 0.444\nsamples = 3\nvalue = [1, 2]"] ;
631 -> 633 ;
634 [label="gini = 0.0\nsamples = 1\nvalue = [1, 0]"] ;
633 -> 634 ;
635 [label="gini = 0.0\nsamples = 2\nvalue = [0, 2]"] ;
633 -> 635 ;
636 [label="gini = 0.0\nsamples = 1\nvalue = [1, 0]"] ;
630 -> 636 ;
637 [label="gini = 0.0\nsamples = 1\nvalue = [1, 0]"] ;
629 -> 637 ;
638 [label="gini = 0.0\nsamples = 3\nvalue = [4, 0]"] ;
628 -> 638 ;
639 [label="gini = 0.0\nsamples = 5\nvalue = [7, 0]"] ;
627 -> 639 ;
640 [label="gini = 0.0\nsamples = 5\nvalue = [9, 0]"] ;
626 -> 640 ;
641 [label="gini = 0.0\nsamples = 2\nvalue = [0, 3]"] ;
625 -> 641 ;
642 [label="X[21] <= 14309.5\ngini = 0.473\nsamples = 9\nvalue = [5, 8]"] ;
622 -> 642 ;
643 [label="X[17] <= 2280.15\ngini = 0.32\nsamples = 7\nvalue = [2, 8]"] ;
642 -> 643 ;
644 [label="gini = 0.0\nsamples = 6\nvalue = [0, 8]"] ;
643 -> 644 ;
645 [label="gini = 0.0\nsamples = 1\nvalue = [2, 0]"] ;
643 -> 645 ;
646 [label="gini = 0.0\nsamples = 2\nvalue = [3, 0]"] ;
642 -> 646 ;
647 [label="X[11] <= 8838.5\ngini = 0.355\nsamples = 8\nvalue = [3, 10]"] ;
621 -> 647 ;
648 [label="gini = 0.0\nsamples = 7\nvalue = [0, 10]"] ;
647 -> 648 ;
649 [label="gini = 0.0\nsamples = 1\nvalue = [3, 0]"] ;
647 -> 649 ;
650 [label="X[19] <= 2153.0\ngini = 0.165\nsamples = 6\nvalue = [1, 10]"] ;
608 -> 650 ;
651 [label="X[9] <= 1356.5\ngini = 0.32\nsamples = 3\nvalue = [1, 4]"] ;
650 -> 651 ;
652 [label="gini = 0.0\nsamples = 1\nvalue = [1, 0]"] ;
651 -> 652 ;
653 [label="gini = 0.0\nsamples = 2\nvalue = [0, 4]"] ;
651 -> 653 ;
654 [label="gini = 0.0\nsamples = 3\nvalue = [0, 6]"] ;
650 -> 654 ;
655 [label="X[16] <= 81.595\ngini = 0.342\nsamples = 42\nvalue = [14, 50]"] ;
497 -> 655 ;
656 [label="X[25] <= 78.5\ngini = 0.172\nsamples = 25\nvalue = [4, 38]"] ;
655 -> 656 ;
657 [label="X[23] <= 1381.5\ngini = 0.136\nsamples = 24\nvalue = [3, 38]"] ;
656 -> 657 ;
658 [label="gini = 0.0\nsamples = 1\nvalue = [1, 0]"] ;
657 -> 658 ;
659 [label="X[27] <= 3661.5\ngini = 0.095\nsamples = 23\nvalue = [2, 38]"] ;
657 -> 659 ;
660 [label="X[10] <= 304.0\ngini = 0.5\nsamples = 2\nvalue = [1, 1]"] ;
659 -> 660 ;
661 [label="gini = 0.0\nsamples = 1\nvalue = [1, 0]"] ;
660 -> 661 ;
662 [label="gini = 0.0\nsamples = 1\nvalue = [0, 1]"] ;
660 -> 662 ;
663 [label="X[7] <= 2371.515\ngini = 0.051\nsamples = 21\nvalue = [1, 37]"] ;
659 -> 663 ;
664 [label="gini = 0.0\nsamples = 18\nvalue = [0, 32]"] ;
663 -> 664 ;
665 [label="X[18] <= 129.0\ngini = 0.278\nsamples = 3\nvalue = [1, 5]"] ;
663 -> 665 ;
666 [label="gini = 0.0\nsamples = 2\nvalue = [0, 5]"] ;
665 -> 666 ;
667 [label="gini = 0.0\nsamples = 1\nvalue = [1, 0]"] ;
665 -> 667 ;
668 [label="gini = 0.0\nsamples = 1\nvalue = [1, 0]"] ;
656 -> 668 ;
669 [label="X[22] <= 2458.95\ngini = 0.496\nsamples = 17\nvalue = [10, 12]"] ;
655 -> 669 ;
670 [label="X[23] <= 17562.551\ngini = 0.165\nsamples = 8\nvalue = [1, 10]"] ;
669 -> 670 ;
671 [label="gini = 0.0\nsamples = 7\nvalue = [0, 10]"] ;
670 -> 671 ;
672 [label="gini = 0.0\nsamples = 1\nvalue = [1, 0]"] ;
670 -> 672 ;
673 [label="X[25] <= 302.0\ngini = 0.298\nsamples = 9\nvalue = [9, 2]"] ;
669 -> 673 ;
674 [label="X[16] <= 351.29\ngini = 0.18\nsamples = 8\nvalue = [9, 1]"] ;
673 -> 674 ;
675 [label="gini = 0.0\nsamples = 4\nvalue = [6, 0]"] ;
674 -> 675 ;
676 [label="X[27] <= 10438.234\ngini = 0.375\nsamples = 4\nvalue = [3, 1]"] ;
674 -> 676 ;
677 [label="X[11] <= 1109.375\ngini = 0.5\nsamples = 2\nvalue = [1, 1]"] ;
676 -> 677 ;
678 [label="gini = 0.0\nsamples = 1\nvalue = [0, 1]"] ;
677 -> 678 ;
679 [label="gini = 0.0\nsamples = 1\nvalue = [1, 0]"] ;
677 -> 679 ;
680 [label="gini = 0.0\nsamples = 2\nvalue = [2, 0]"] ;
676 -> 680 ;
681 [label="gini = 0.0\nsamples = 1\nvalue = [0, 1]"] ;
673 -> 681 ;
682 [label="X[22] <= 2843.5\ngini = 0.245\nsamples = 17\nvalue = [4, 24]"] ;
496 -> 682 ;
683 [label="X[23] <= 9303.025\ngini = 0.077\nsamples = 15\nvalue = [1, 24]"] ;
682 -> 683 ;
684 [label="X[10] <= 7424.025\ngini = 0.375\nsamples = 2\nvalue = [1, 3]"] ;
683 -> 684 ;
685 [label="gini = 0.0\nsamples = 1\nvalue = [0, 3]"] ;
684 -> 685 ;
686 [label="gini = 0.0\nsamples = 1\nvalue = [1, 0]"] ;
684 -> 686 ;
687 [label="gini = 0.0\nsamples = 13\nvalue = [0, 21]"] ;
683 -> 687 ;
688 [label="gini = 0.0\nsamples = 2\nvalue = [3, 0]"] ;
682 -> 688 ;
689 [label="X[11] <= 37843.578\ngini = 0.408\nsamples = 13\nvalue = [15, 6]"] ;
495 -> 689 ;
690 [label="X[19] <= 3532.625\ngini = 0.117\nsamples = 10\nvalue = [15, 1]"] ;
689 -> 690 ;
691 [label="gini = 0.0\nsamples = 7\nvalue = [12, 0]"] ;
690 -> 691 ;
692 [label="X[27] <= 35797.523\ngini = 0.375\nsamples = 3\nvalue = [3, 1]"] ;
690 -> 692 ;
693 [label="gini = 0.0\nsamples = 1\nvalue = [0, 1]"] ;
692 -> 693 ;
694 [label="gini = 0.0\nsamples = 2\nvalue = [3, 0]"] ;
692 -> 694 ;
695 [label="gini = 0.0\nsamples = 3\nvalue = [0, 5]"] ;
689 -> 695 ;
696 [label="X[18] <= 223.5\ngini = 0.475\nsamples = 31\nvalue = [30, 19]"] ;
494 -> 696 ;
697 [label="X[20] <= 25406.324\ngini = 0.381\nsamples = 24\nvalue = [29, 10]"] ;
696 -> 697 ;
698 [label="X[13] <= 259.5\ngini = 0.165\nsamples = 13\nvalue = [20, 2]"] ;
697 -> 698 ;
699 [label="X[29] <= 1873.625\ngini = 0.091\nsamples = 12\nvalue = [20, 1]"] ;
698 -> 699 ;
700 [label="gini = 0.0\nsamples = 11\nvalue = [20, 0]"] ;
699 -> 700 ;
701 [label="gini = 0.0\nsamples = 1\nvalue = [0, 1]"] ;
699 -> 701 ;
702 [label="gini = 0.0\nsamples = 1\nvalue = [0, 1]"] ;
698 -> 702 ;
703 [label="X[21] <= 24874.559\ngini = 0.498\nsamples = 11\nvalue = [9, 8]"] ;
697 -> 703 ;
704 [label="X[10] <= 27761.004\ngini = 0.42\nsamples = 7\nvalue = [3, 7]"] ;
703 -> 704 ;
705 [label="gini = 0.0\nsamples = 3\nvalue = [0, 4]"] ;
704 -> 705 ;
706 [label="X[23] <= 33405.172\ngini = 0.5\nsamples = 4\nvalue = [3, 3]"] ;
704 -> 706 ;
707 [label="gini = 0.0\nsamples = 2\nvalue = [0, 3]"] ;
706 -> 707 ;
708 [label="gini = 0.0\nsamples = 2\nvalue = [3, 0]"] ;
706 -> 708 ;
709 [label="X[21] <= 78162.078\ngini = 0.245\nsamples = 4\nvalue = [6, 1]"] ;
703 -> 709 ;
710 [label="gini = 0.0\nsamples = 3\nvalue = [6, 0]"] ;
709 -> 710 ;
711 [label="gini = 0.0\nsamples = 1\nvalue = [0, 1]"] ;
709 -> 711 ;
712 [label="X[18] <= 545.0\ngini = 0.18\nsamples = 7\nvalue = [1, 9]"] ;
696 -> 712 ;
713 [label="gini = 0.0\nsamples = 5\nvalue = [0, 8]"] ;
712 -> 713 ;
714 [label="X[23] <= 72960.422\ngini = 0.5\nsamples = 2\nvalue = [1, 1]"] ;
712 -> 714 ;
715 [label="gini = 0.0\nsamples = 1\nvalue = [1, 0]"] ;
714 -> 715 ;
716 [label="gini = 0.0\nsamples = 1\nvalue = [0, 1]"] ;
714 -> 716 ;
717 [label="X[23] <= 96931.5\ngini = 0.245\nsamples = 16\nvalue = [18, 3]"] ;
493 -> 717 ;
718 [label="X[0] <= 1218.313\ngini = 0.18\nsamples = 15\nvalue = [18, 2]"] ;
717 -> 718 ;
719 [label="gini = 0.0\nsamples = 13\nvalue = [18, 0]"] ;
718 -> 719 ;
720 [label="gini = 0.0\nsamples = 2\nvalue = [0, 2]"] ;
718 -> 720 ;
721 [label="gini = 0.0\nsamples = 1\nvalue = [0, 1]"] ;
717 -> 721 ;
722 [label="gini = 0.0\nsamples = 3\nvalue = [11, 0]"] ;
492 -> 722 ;
723 [label="X[1] <= 84.083\ngini = 0.439\nsamples = 81\nvalue = [41, 85]"] ;
491 -> 723 ;
724 [label="X[9] <= 2783.137\ngini = 0.306\nsamples = 30\nvalue = [10, 43]"] ;
723 -> 724 ;
725 [label="X[27] <= 2603.63\ngini = 0.213\nsamples = 18\nvalue = [4, 29]"] ;
724 -> 725 ;
726 [label="gini = 0.0\nsamples = 1\nvalue = [1, 0]"] ;
725 -> 726 ;
727 [label="X[18] <= 535.5\ngini = 0.17\nsamples = 17\nvalue = [3, 29]"] ;
725 -> 727 ;
728 [label="X[6] <= 94.0\ngini = 0.067\nsamples = 15\nvalue = [1, 28]"] ;
727 -> 728 ;
729 [label="gini = 0.0\nsamples = 11\nvalue = [0, 23]"] ;
728 -> 729 ;
730 [label="X[26] <= 284.9\ngini = 0.278\nsamples = 4\nvalue = [1, 5]"] ;
728 -> 730 ;
731 [label="gini = 0.0\nsamples = 1\nvalue = [1, 0]"] ;
730 -> 731 ;
732 [label="gini = 0.0\nsamples = 3\nvalue = [0, 5]"] ;
730 -> 732 ;
733 [label="X[1] <= 6.25\ngini = 0.444\nsamples = 2\nvalue = [2, 1]"] ;
727 -> 733 ;
734 [label="gini = 0.0\nsamples = 1\nvalue = [2, 0]"] ;
733 -> 734 ;
735 [label="gini = 0.0\nsamples = 1\nvalue = [0, 1]"] ;
733 -> 735 ;
736 [label="X[20] <= 10689.7\ngini = 0.42\nsamples = 12\nvalue = [6, 14]"] ;
724 -> 736 ;
737 [label="X[14] <= 12282.984\ngini = 0.444\nsamples = 5\nvalue = [4, 2]"] ;
736 -> 737 ;
738 [label="gini = 0.0\nsamples = 3\nvalue = [4, 0]"] ;
737 -> 738 ;
739 [label="gini = 0.0\nsamples = 2\nvalue = [0, 2]"] ;
737 -> 739 ;
740 [label="X[14] <= 24309.891\ngini = 0.245\nsamples = 7\nvalue = [2, 12]"] ;
736 -> 740 ;
741 [label="gini = 0.0\nsamples = 5\nvalue = [0, 11]"] ;
740 -> 741 ;
742 [label="X[16] <= 2395.0\ngini = 0.444\nsamples = 2\nvalue = [2, 1]"] ;
740 -> 742 ;
743 [label="gini = 0.0\nsamples = 1\nvalue = [0, 1]"] ;
742 -> 743 ;
744 [label="gini = 0.0\nsamples = 1\nvalue = [2, 0]"] ;
742 -> 744 ;
745 [label="X[9] <= 11546.0\ngini = 0.489\nsamples = 51\nvalue = [31, 42]"] ;
723 -> 745 ;
746 [label="X[13] <= 1350.23\ngini = 0.451\nsamples = 45\nvalue = [22, 42]"] ;
745 -> 746 ;
747 [label="X[18] <= 503.0\ngini = 0.471\nsamples = 42\nvalue = [22, 36]"] ;
746 -> 747 ;
748 [label="X[0] <= 747.245\ngini = 0.499\nsamples = 31\nvalue = [21, 19]"] ;
747 -> 748 ;
749 [label="X[0] <= 407.815\ngini = 0.388\nsamples = 14\nvalue = [5, 14]"] ;
748 -> 749 ;
750 [label="X[21] <= 5968.775\ngini = 0.444\nsamples = 5\nvalue = [4, 2]"] ;
749 -> 750 ;
751 [label="gini = 0.0\nsamples = 3\nvalue = [4, 0]"] ;
750 -> 751 ;
752 [label="gini = 0.0\nsamples = 2\nvalue = [0, 2]"] ;
750 -> 752 ;
753 [label="X[23] <= 3242.325\ngini = 0.142\nsamples = 9\nvalue = [1, 12]"] ;
749 -> 753 ;
754 [label="X[29] <= 1604.73\ngini = 0.5\nsamples = 2\nvalue = [1, 1]"] ;
753 -> 754 ;
755 [label="gini = 0.0\nsamples = 1\nvalue = [0, 1]"] ;
754 -> 755 ;
756 [label="gini = 0.0\nsamples = 1\nvalue = [1, 0]"] ;
754 -> 756 ;
757 [label="gini = 0.0\nsamples = 7\nvalue = [0, 11]"] ;
753 -> 757 ;
758 [label="X[16] <= 79.92\ngini = 0.363\nsamples = 17\nvalue = [16, 5]"] ;
748 -> 758 ;
759 [label="X[1] <= 663.399\ngini = 0.133\nsamples = 11\nvalue = [13, 1]"] ;
758 -> 759 ;
760 [label="gini = 0.0\nsamples = 5\nvalue = [7, 0]"] ;
759 -> 760 ;
761 [label="X[13] <= 29.5\ngini = 0.245\nsamples = 6\nvalue = [6, 1]"] ;
759 -> 761 ;
762 [label="X[23] <= 4636.0\ngini = 0.444\nsamples = 3\nvalue = [2, 1]"] ;
761 -> 762 ;
763 [label="gini = 0.0\nsamples = 1\nvalue = [0, 1]"] ;
762 -> 763 ;
764 [label="gini = 0.0\nsamples = 2\nvalue = [2, 0]"] ;
762 -> 764 ;
765 [label="gini = 0.0\nsamples = 3\nvalue = [4, 0]"] ;
761 -> 765 ;
766 [label="X[11] <= 4020.695\ngini = 0.49\nsamples = 6\nvalue = [3, 4]"] ;
758 -> 766 ;
767 [label="gini = 0.0\nsamples = 2\nvalue = [3, 0]"] ;
766 -> 767 ;
768 [label="gini = 0.0\nsamples = 4\nvalue = [0, 4]"] ;
766 -> 768 ;
769 [label="X[25] <= 265.5\ngini = 0.105\nsamples = 11\nvalue = [1, 17]"] ;
747 -> 769 ;
770 [label="gini = 0.0\nsamples = 9\nvalue = [0, 16]"] ;
769 -> 770 ;
771 [label="X[13] <= 145.015\ngini = 0.5\nsamples = 2\nvalue = [1, 1]"] ;
769 -> 771 ;
772 [label="gini = 0.0\nsamples = 1\nvalue = [1, 0]"] ;
771 -> 772 ;
773 [label="gini = 0.0\nsamples = 1\nvalue = [0, 1]"] ;
771 -> 773 ;
774 [label="gini = 0.0\nsamples = 3\nvalue = [0, 6]"] ;
746 -> 774 ;
775 [label="gini = 0.0\nsamples = 6\nvalue = [9, 0]"] ;
745 -> 775 ;
776 [label="X[25] <= 383.5\ngini = 0.497\nsamples = 234\nvalue = [194, 166]"] ;
484 -> 776 ;
777 [label="X[17] <= 56004.0\ngini = 0.493\nsamples = 224\nvalue = [193, 153]"] ;
776 -> 777 ;
778 [label="X[21] <= 46505.465\ngini = 0.49\nsamples = 221\nvalue = [193, 146]"] ;
777 -> 778 ;
779 [label="X[16] <= 801.8\ngini = 0.485\nsamples = 212\nvalue = [191, 135]"] ;
778 -> 779 ;
780 [label="X[18] <= 2652.0\ngini = 0.492\nsamples = 195\nvalue = [169, 132]"] ;
779 -> 780 ;
781 [label="X[24] <= 168.5\ngini = 0.487\nsamples = 187\nvalue = [169, 122]"] ;
780 -> 781 ;
782 [label="X[10] <= 1183.25\ngini = 0.5\nsamples = 93\nvalue = [71, 71]"] ;
781 -> 782 ;
783 [label="X[27] <= 775.5\ngini = 0.477\nsamples = 60\nvalue = [35, 54]"] ;
782 -> 783 ;
784 [label="gini = 0.0\nsamples = 5\nvalue = [0, 6]"] ;
783 -> 784 ;
785 [label="X[28] <= 75.0\ngini = 0.488\nsamples = 55\nvalue = [35, 48]"] ;
783 -> 785 ;
786 [label="X[1] <= 0.75\ngini = 0.5\nsamples = 37\nvalue = [29, 30]"] ;
785 -> 786 ;
787 [label="X[7] <= 3244.0\ngini = 0.49\nsamples = 30\nvalue = [28, 21]"] ;
786 -> 787 ;
788 [label="X[21] <= 9419.965\ngini = 0.47\nsamples = 29\nvalue = [28, 17]"] ;
787 -> 788 ;
789 [label="X[19] <= 548.5\ngini = 0.5\nsamples = 22\nvalue = [18, 17]"] ;
788 -> 789 ;
790 [label="X[15] <= 3405.5\ngini = 0.477\nsamples = 16\nvalue = [17, 11]"] ;
789 -> 790 ;
791 [label="X[19] <= 79.0\ngini = 0.308\nsamples = 12\nvalue = [17, 4]"] ;
790 -> 791 ;
792 [label="X[20] <= 1073.0\ngini = 0.408\nsamples = 9\nvalue = [10, 4]"] ;
791 -> 792 ;
793 [label="X[11] <= 295.5\ngini = 0.48\nsamples = 4\nvalue = [2, 3]"] ;
792 -> 793 ;
794 [label="X[9] <= 135.0\ngini = 0.444\nsamples = 2\nvalue = [2, 1]"] ;
793 -> 794 ;
795 [label="gini = 0.0\nsamples = 1\nvalue = [0, 1]"] ;
794 -> 795 ;
796 [label="gini = 0.0\nsamples = 1\nvalue = [2, 0]"] ;
794 -> 796 ;
797 [label="gini = 0.0\nsamples = 2\nvalue = [0, 2]"] ;
793 -> 797 ;
798 [label="X[16] <= 155.285\ngini = 0.198\nsamples = 5\nvalue = [8, 1]"] ;
792 -> 798 ;
799 [label="gini = 0.0\nsamples = 4\nvalue = [8, 0]"] ;
798 -> 799 ;
800 [label="gini = 0.0\nsamples = 1\nvalue = [0, 1]"] ;
798 -> 800 ;
801 [label="gini = 0.0\nsamples = 3\nvalue = [7, 0]"] ;
791 -> 801 ;
802 [label="gini = 0.0\nsamples = 4\nvalue = [0, 7]"] ;
790 -> 802 ;
803 [label="X[14] <= 1071.0\ngini = 0.245\nsamples = 6\nvalue = [1, 6]"] ;
789 -> 803 ;
804 [label="X[18] <= 1087.5\ngini = 0.444\nsamples = 3\nvalue = [1, 2]"] ;
803 -> 804 ;
805 [label="gini = 0.0\nsamples = 1\nvalue = [1, 0]"] ;
804 -> 805 ;
806 [label="gini = 0.0\nsamples = 2\nvalue = [0, 2]"] ;
804 -> 806 ;
807 [label="gini = 0.0\nsamples = 3\nvalue = [0, 4]"] ;
803 -> 807 ;
808 [label="gini = 0.0\nsamples = 7\nvalue = [10, 0]"] ;
788 -> 808 ;
809 [label="gini = 0.0\nsamples = 1\nvalue = [0, 4]"] ;
787 -> 809 ;
810 [label="X[14] <= 152.0\ngini = 0.18\nsamples = 7\nvalue = [1, 9]"] ;
786 -> 810 ;
811 [label="gini = 0.0\nsamples = 1\nvalue = [1, 0]"] ;
810 -> 811 ;
812 [label="gini = 0.0\nsamples = 6\nvalue = [0, 9]"] ;
810 -> 812 ;
813 [label="X[17] <= 15269.5\ngini = 0.375\nsamples = 18\nvalue = [6, 18]"] ;
785 -> 813 ;
814 [label="X[23] <= 154.5\ngini = 0.34\nsamples = 17\nvalue = [5, 18]"] ;
813 -> 814 ;
815 [label="gini = 0.0\nsamples = 1\nvalue = [1, 0]"] ;
814 -> 815 ;
816 [label="X[15] <= 4306.0\ngini = 0.298\nsamples = 16\nvalue = [4, 18]"] ;
814 -> 816 ;
817 [label="X[2] <= 0.5\ngini = 0.245\nsamples = 15\nvalue = [3, 18]"] ;
816 -> 817 ;
818 [label="X[7] <= 411.5\ngini = 0.469\nsamples = 7\nvalue = [3, 5]"] ;
817 -> 818 ;
819 [label="gini = 0.0\nsamples = 4\nvalue = [0, 5]"] ;
818 -> 819 ;
820 [label="gini = 0.0\nsamples = 3\nvalue = [3, 0]"] ;
818 -> 820 ;
821 [label="gini = 0.0\nsamples = 8\nvalue = [0, 13]"] ;
817 -> 821 ;
822 [label="gini = 0.0\nsamples = 1\nvalue = [1, 0]"] ;
816 -> 822 ;
823 [label="gini = 0.0\nsamples = 1\nvalue = [1, 0]"] ;
813 -> 823 ;
824 [label="X[7] <= 192.5\ngini = 0.436\nsamples = 33\nvalue = [36, 17]"] ;
782 -> 824 ;
825 [label="X[16] <= 109.485\ngini = 0.469\nsamples = 9\nvalue = [6, 10]"] ;
824 -> 825 ;
826 [label="X[11] <= 668.33\ngini = 0.444\nsamples = 5\nvalue = [6, 3]"] ;
825 -> 826 ;
827 [label="gini = 0.0\nsamples = 2\nvalue = [0, 3]"] ;
826 -> 827 ;
828 [label="gini = 0.0\nsamples = 3\nvalue = [6, 0]"] ;
826 -> 828 ;
829 [label="gini = 0.0\nsamples = 4\nvalue = [0, 7]"] ;
825 -> 829 ;
830 [label="X[21] <= 14373.075\ngini = 0.307\nsamples = 24\nvalue = [30, 7]"] ;
824 -> 830 ;
831 [label="X[1] <= 43.603\ngini = 0.071\nsamples = 16\nvalue = [26, 1]"] ;
830 -> 831 ;
832 [label="gini = 0.0\nsamples = 15\nvalue = [26, 0]"] ;
831 -> 832 ;
833 [label="gini = 0.0\nsamples = 1\nvalue = [0, 1]"] ;
831 -> 833 ;
834 [label="X[9] <= 2680.17\ngini = 0.48\nsamples = 8\nvalue = [4, 6]"] ;
830 -> 834 ;
835 [label="gini = 0.0\nsamples = 3\nvalue = [3, 0]"] ;
834 -> 835 ;
836 [label="X[21] <= 24686.875\ngini = 0.245\nsamples = 5\nvalue = [1, 6]"] ;
834 -> 836 ;
837 [label="gini = 0.0\nsamples = 4\nvalue = [0, 6]"] ;
836 -> 837 ;
838 [label="gini = 0.0\nsamples = 1\nvalue = [1, 0]"] ;
836 -> 838 ;
839 [label="X[1] <= 38.25\ngini = 0.45\nsamples = 94\nvalue = [98, 51]"] ;
781 -> 839 ;
840 [label="gini = 0.0\nsamples = 8\nvalue = [14, 0]"] ;
839 -> 840 ;
841 [label="X[1] <= 58.5\ngini = 0.47\nsamples = 86\nvalue = [84, 51]"] ;
839 -> 841 ;
842 [label="X[0] <= 260.92\ngini = 0.298\nsamples = 9\nvalue = [2, 9]"] ;
841 -> 842 ;
843 [label="X[18] <= 1200.5\ngini = 0.444\nsamples = 3\nvalue = [2, 1]"] ;
842 -> 843 ;
844 [label="gini = 0.0\nsamples = 1\nvalue = [0, 1]"] ;
843 -> 844 ;
845 [label="gini = 0.0\nsamples = 2\nvalue = [2, 0]"] ;
843 -> 845 ;
846 [label="gini = 0.0\nsamples = 6\nvalue = [0, 8]"] ;
842 -> 846 ;
847 [label="X[14] <= 25373.15\ngini = 0.448\nsamples = 77\nvalue = [82, 42]"] ;
841 -> 847 ;
848 [label="X[6] <= 125.5\ngini = 0.433\nsamples = 75\nvalue = [82, 38]"] ;
847 -> 848 ;
849 [label="X[19] <= 1240.525\ngini = 0.366\nsamples = 54\nvalue = [66, 21]"] ;
848 -> 849 ;
850 [label="X[15] <= 2034.15\ngini = 0.245\nsamples = 24\nvalue = [36, 6]"] ;
849 -> 850 ;
851 [label="X[1] <= 299.938\ngini = 0.415\nsamples = 10\nvalue = [12, 5]"] ;
850 -> 851 ;
852 [label="X[14] <= 836.0\ngini = 0.375\nsamples = 9\nvalue = [12, 4]"] ;
851 -> 852 ;
853 [label="gini = 0.0\nsamples = 5\nvalue = [9, 0]"] ;
852 -> 853 ;
854 [label="X[7] <= 1245.0\ngini = 0.49\nsamples = 4\nvalue = [3, 4]"] ;
852 -> 854 ;
855 [label="gini = 0.0\nsamples = 3\nvalue = [0, 4]"] ;
854 -> 855 ;
856 [label="gini = 0.0\nsamples = 1\nvalue = [3, 0]"] ;
854 -> 856 ;
857 [label="gini = 0.0\nsamples = 1\nvalue = [0, 1]"] ;
851 -> 857 ;
858 [label="X[0] <= 1399.02\ngini = 0.077\nsamples = 14\nvalue = [24, 1]"] ;
850 -> 858 ;
859 [label="gini = 0.0\nsamples = 9\nvalue = [17, 0]"] ;
858 -> 859 ;
860 [label="X[0] <= 1711.019\ngini = 0.219\nsamples = 5\nvalue = [7, 1]"] ;
858 -> 860 ;
861 [label="gini = 0.0\nsamples = 1\nvalue = [0, 1]"] ;
860 -> 861 ;
862 [label="gini = 0.0\nsamples = 4\nvalue = [7, 0]"] ;
860 -> 862 ;
863 [label="X[5] <= 24.5\ngini = 0.444\nsamples = 30\nvalue = [30, 15]"] ;
849 -> 863 ;
864 [label="X[22] <= 1056.0\ngini = 0.478\nsamples = 27\nvalue = [23, 15]"] ;
863 -> 864 ;
865 [label="X[21] <= 8616.55\ngini = 0.497\nsamples = 21\nvalue = [13, 15]"] ;
864 -> 865 ;
866 [label="X[16] <= 325.165\ngini = 0.198\nsamples = 8\nvalue = [8, 1]"] ;
865 -> 866 ;
867 [label="gini = 0.0\nsamples = 6\nvalue = [7, 0]"] ;
866 -> 867 ;
868 [label="X[16] <= 539.04\ngini = 0.5\nsamples = 2\nvalue = [1, 1]"] ;
866 -> 868 ;
869 [label="gini = 0.0\nsamples = 1\nvalue = [0, 1]"] ;
868 -> 869 ;
870 [label="gini = 0.0\nsamples = 1\nvalue = [1, 0]"] ;
868 -> 870 ;
871 [label="X[20] <= 14069.795\ngini = 0.388\nsamples = 13\nvalue = [5, 14]"] ;
865 -> 871 ;
872 [label="X[7] <= 4502.04\ngini = 0.133\nsamples = 10\nvalue = [1, 13]"] ;
871 -> 872 ;
873 [label="gini = 0.0\nsamples = 8\nvalue = [0, 12]"] ;
872 -> 873 ;
874 [label="X[9] <= 1871.333\ngini = 0.5\nsamples = 2\nvalue = [1, 1]"] ;
872 -> 874 ;
875 [label="gini = 0.0\nsamples = 1\nvalue = [0, 1]"] ;
874 -> 875 ;
876 [label="gini = 0.0\nsamples = 1\nvalue = [1, 0]"] ;
874 -> 876 ;
877 [label="X[18] <= 1387.5\ngini = 0.32\nsamples = 3\nvalue = [4, 1]"] ;
871 -> 877 ;
878 [label="gini = 0.0\nsamples = 2\nvalue = [4, 0]"] ;
877 -> 878 ;
879 [label="gini = 0.0\nsamples = 1\nvalue = [0, 1]"] ;
877 -> 879 ;
880 [label="gini = 0.0\nsamples = 6\nvalue = [10, 0]"] ;
864 -> 880 ;
881 [label="gini = 0.0\nsamples = 3\nvalue = [7, 0]"] ;
863 -> 881 ;
882 [label="X[25] <= 184.0\ngini = 0.5\nsamples = 21\nvalue = [16, 17]"] ;
848 -> 882 ;
883 [label="gini = 0.0\nsamples = 6\nvalue = [0, 11]"] ;
882 -> 883 ;
884 [label="X[0] <= 374.0\ngini = 0.397\nsamples = 15\nvalue = [16, 6]"] ;
882 -> 884 ;
885 [label="X[20] <= 3804.0\ngini = 0.208\nsamples = 10\nvalue = [15, 2]"] ;
884 -> 885 ;
886 [label="gini = 0.0\nsamples = 8\nvalue = [15, 0]"] ;
885 -> 886 ;
887 [label="gini = 0.0\nsamples = 2\nvalue = [0, 2]"] ;
885 -> 887 ;
888 [label="X[5] <= 127.0\ngini = 0.32\nsamples = 5\nvalue = [1, 4]"] ;
884 -> 888 ;
889 [label="gini = 0.0\nsamples = 4\nvalue = [0, 4]"] ;
888 -> 889 ;
890 [label="gini = 0.0\nsamples = 1\nvalue = [1, 0]"] ;
888 -> 890 ;
891 [label="gini = 0.0\nsamples = 2\nvalue = [0, 4]"] ;
847 -> 891 ;
892 [label="gini = 0.0\nsamples = 8\nvalue = [0, 10]"] ;
780 -> 892 ;
893 [label="X[0] <= 1652.0\ngini = 0.211\nsamples = 17\nvalue = [22, 3]"] ;
779 -> 893 ;
894 [label="gini = 0.0\nsamples = 15\nvalue = [22, 0]"] ;
893 -> 894 ;
895 [label="gini = 0.0\nsamples = 2\nvalue = [0, 3]"] ;
893 -> 895 ;
896 [label="X[29] <= 1015.0\ngini = 0.26\nsamples = 9\nvalue = [2, 11]"] ;
778 -> 896 ;
897 [label="X[18] <= 1173.5\ngini = 0.444\nsamples = 3\nvalue = [2, 1]"] ;
896 -> 897 ;
898 [label="gini = 0.0\nsamples = 1\nvalue = [0, 1]"] ;
897 -> 898 ;
899 [label="gini = 0.0\nsamples = 2\nvalue = [2, 0]"] ;
897 -> 899 ;
900 [label="gini = 0.0\nsamples = 6\nvalue = [0, 10]"] ;
896 -> 900 ;
901 [label="gini = 0.0\nsamples = 3\nvalue = [0, 7]"] ;
777 -> 901 ;
902 [label="X[11] <= 1273.525\ngini = 0.133\nsamples = 10\nvalue = [1, 13]"] ;
776 -> 902 ;
903 [label="X[18] <= 1067.0\ngini = 0.444\nsamples = 3\nvalue = [1, 2]"] ;
902 -> 903 ;
904 [label="gini = 0.0\nsamples = 2\nvalue = [0, 2]"] ;
903 -> 904 ;
905 [label="gini = 0.0\nsamples = 1\nvalue = [1, 0]"] ;
903 -> 905 ;
906 [label="gini = 0.0\nsamples = 7\nvalue = [0, 11]"] ;
902 -> 906 ;
907 [label="X[14] <= 45723.023\ngini = 0.285\nsamples = 19\nvalue = [5, 24]"] ;
483 -> 907 ;
908 [label="X[1] <= 921.313\ngini = 0.198\nsamples = 18\nvalue = [3, 24]"] ;
907 -> 908 ;
909 [label="X[0] <= 1115.763\ngini = 0.48\nsamples = 3\nvalue = [2, 3]"] ;
908 -> 909 ;
910 [label="gini = 0.0\nsamples = 1\nvalue = [2, 0]"] ;
909 -> 910 ;
911 [label="gini = 0.0\nsamples = 2\nvalue = [0, 3]"] ;
909 -> 911 ;
912 [label="X[0] <= 2570.528\ngini = 0.087\nsamples = 15\nvalue = [1, 21]"] ;
908 -> 912 ;
913 [label="gini = 0.0\nsamples = 13\nvalue = [0, 19]"] ;
912 -> 913 ;
914 [label="X[24] <= 6653.5\ngini = 0.444\nsamples = 2\nvalue = [1, 2]"] ;
912 -> 914 ;
915 [label="gini = 0.0\nsamples = 1\nvalue = [0, 2]"] ;
914 -> 915 ;
916 [label="gini = 0.0\nsamples = 1\nvalue = [1, 0]"] ;
914 -> 916 ;
917 [label="gini = 0.0\nsamples = 1\nvalue = [2, 0]"] ;
907 -> 917 ;
918 [label="gini = 0.0\nsamples = 5\nvalue = [8, 0]"] ;
482 -> 918 ;
919 [label="X[7] <= 2857.105\ngini = 0.488\nsamples = 168\nvalue = [143, 104]"] ;
481 -> 919 ;
920 [label="X[16] <= 1798.465\ngini = 0.457\nsamples = 127\nvalue = [121, 66]"] ;
919 -> 920 ;
921 [label="X[24] <= 25519.262\ngini = 0.401\nsamples = 97\nvalue = [104, 40]"] ;
920 -> 921 ;
922 [label="X[19] <= 4271.0\ngini = 0.373\nsamples = 90\nvalue = [100, 33]"] ;
921 -> 922 ;
923 [label="X[10] <= 3031.55\ngini = 0.463\nsamples = 48\nvalue = [47, 27]"] ;
922 -> 923 ;
924 [label="X[23] <= 9726.37\ngini = 0.412\nsamples = 38\nvalue = [44, 18]"] ;
923 -> 924 ;
925 [label="X[8] <= 641.5\ngini = 0.272\nsamples = 22\nvalue = [31, 6]"] ;
924 -> 925 ;
926 [label="X[0] <= 3333.875\ngini = 0.175\nsamples = 18\nvalue = [28, 3]"] ;
925 -> 926 ;
927 [label="gini = 0.0\nsamples = 7\nvalue = [14, 0]"] ;
926 -> 927 ;
928 [label="X[9] <= 3549.875\ngini = 0.291\nsamples = 11\nvalue = [14, 3]"] ;
926 -> 928 ;
929 [label="gini = 0.0\nsamples = 1\nvalue = [0, 1]"] ;
928 -> 929 ;
930 [label="X[23] <= 7198.5\ngini = 0.219\nsamples = 10\nvalue = [14, 2]"] ;
928 -> 930 ;
931 [label="X[1] <= 1391.296\ngini = 0.444\nsamples = 6\nvalue = [4, 2]"] ;
930 -> 931 ;
932 [label="X[20] <= 6112.0\ngini = 0.32\nsamples = 5\nvalue = [4, 1]"] ;
931 -> 932 ;
933 [label="gini = 0.0\nsamples = 4\nvalue = [4, 0]"] ;
932 -> 933 ;
934 [label="gini = 0.0\nsamples = 1\nvalue = [0, 1]"] ;
932 -> 934 ;
935 [label="gini = 0.0\nsamples = 1\nvalue = [0, 1]"] ;
931 -> 935 ;
936 [label="gini = 0.0\nsamples = 4\nvalue = [10, 0]"] ;
930 -> 936 ;
937 [label="X[0] <= 2786.5\ngini = 0.5\nsamples = 4\nvalue = [3, 3]"] ;
925 -> 937 ;
938 [label="gini = 0.0\nsamples = 1\nvalue = [2, 0]"] ;
937 -> 938 ;
939 [label="X[15] <= 4268.0\ngini = 0.375\nsamples = 3\nvalue = [1, 3]"] ;
937 -> 939 ;
940 [label="X[29] <= 3035.0\ngini = 0.5\nsamples = 2\nvalue = [1, 1]"] ;
939 -> 940 ;
941 [label="gini = 0.0\nsamples = 1\nvalue = [0, 1]"] ;
940 -> 941 ;
942 [label="gini = 0.0\nsamples = 1\nvalue = [1, 0]"] ;
940 -> 942 ;
943 [label="gini = 0.0\nsamples = 1\nvalue = [0, 2]"] ;
939 -> 943 ;
944 [label="X[16] <= 83.0\ngini = 0.499\nsamples = 16\nvalue = [13, 12]"] ;
924 -> 944 ;
945 [label="X[11] <= 10390.5\ngini = 0.298\nsamples = 6\nvalue = [9, 2]"] ;
944 -> 945 ;
946 [label="gini = 0.0\nsamples = 1\nvalue = [0, 1]"] ;
945 -> 946 ;
947 [label="X[23] <= 20175.0\ngini = 0.18\nsamples = 5\nvalue = [9, 1]"] ;
945 -> 947 ;
948 [label="gini = 0.0\nsamples = 4\nvalue = [9, 0]"] ;
947 -> 948 ;
949 [label="gini = 0.0\nsamples = 1\nvalue = [0, 1]"] ;
947 -> 949 ;
950 [label="X[4] <= 188.5\ngini = 0.408\nsamples = 10\nvalue = [4, 10]"] ;
944 -> 950 ;
951 [label="X[0] <= 8483.62\ngini = 0.355\nsamples = 9\nvalue = [3, 10]"] ;
950 -> 951 ;
952 [label="gini = 0.0\nsamples = 4\nvalue = [0, 7]"] ;
951 -> 952 ;
953 [label="X[27] <= 13319.79\ngini = 0.5\nsamples = 5\nvalue = [3, 3]"] ;
951 -> 953 ;
954 [label="gini = 0.0\nsamples = 1\nvalue = [2, 0]"] ;
953 -> 954 ;
955 [label="X[29] <= 15529.3\ngini = 0.375\nsamples = 4\nvalue = [1, 3]"] ;
953 -> 955 ;
956 [label="gini = 0.0\nsamples = 2\nvalue = [0, 2]"] ;
955 -> 956 ;
957 [label="X[11] <= 19187.0\ngini = 0.5\nsamples = 2\nvalue = [1, 1]"] ;
955 -> 957 ;
958 [label="gini = 0.0\nsamples = 1\nvalue = [1, 0]"] ;
957 -> 958 ;
959 [label="gini = 0.0\nsamples = 1\nvalue = [0, 1]"] ;
957 -> 959 ;
960 [label="gini = 0.0\nsamples = 1\nvalue = [1, 0]"] ;
950 -> 960 ;
961 [label="X[27] <= 26660.824\ngini = 0.375\nsamples = 10\nvalue = [3, 9]"] ;
923 -> 961 ;
962 [label="X[16] <= 120.48\ngini = 0.198\nsamples = 7\nvalue = [1, 8]"] ;
961 -> 962 ;
963 [label="gini = 0.0\nsamples = 5\nvalue = [0, 7]"] ;
962 -> 963 ;
964 [label="X[15] <= 7407.5\ngini = 0.5\nsamples = 2\nvalue = [1, 1]"] ;
962 -> 964 ;
965 [label="gini = 0.0\nsamples = 1\nvalue = [1, 0]"] ;
964 -> 965 ;
966 [label="gini = 0.0\nsamples = 1\nvalue = [0, 1]"] ;
964 -> 966 ;
967 [label="X[8] <= 1634.0\ngini = 0.444\nsamples = 3\nvalue = [2, 1]"] ;
961 -> 967 ;
968 [label="X[18] <= 825.5\ngini = 0.5\nsamples = 2\nvalue = [1, 1]"] ;
967 -> 968 ;
969 [label="gini = 0.0\nsamples = 1\nvalue = [1, 0]"] ;
968 -> 969 ;
970 [label="gini = 0.0\nsamples = 1\nvalue = [0, 1]"] ;
968 -> 970 ;
971 [label="gini = 0.0\nsamples = 1\nvalue = [1, 0]"] ;
967 -> 971 ;
972 [label="X[16] <= 285.0\ngini = 0.183\nsamples = 42\nvalue = [53, 6]"] ;
922 -> 972 ;
973 [label="X[17] <= 68409.547\ngini = 0.285\nsamples = 24\nvalue = [24, 5]"] ;
972 -> 973 ;
974 [label="X[24] <= 16775.051\ngini = 0.245\nsamples = 23\nvalue = [24, 4]"] ;
973 -> 974 ;
975 [label="X[16] <= 227.7\ngini = 0.198\nsamples = 22\nvalue = [24, 3]"] ;
974 -> 975 ;
976 [label="X[23] <= 6853.77\ngini = 0.142\nsamples = 21\nvalue = [24, 2]"] ;
975 -> 976 ;
977 [label="X[19] <= 5405.5\ngini = 0.375\nsamples = 7\nvalue = [6, 2]"] ;
976 -> 977 ;
978 [label="gini = 0.0\nsamples = 4\nvalue = [5, 0]"] ;
977 -> 978 ;
979 [label="X[27] <= 61462.164\ngini = 0.444\nsamples = 3\nvalue = [1, 2]"] ;
977 -> 979 ;
980 [label="gini = 0.0\nsamples = 2\nvalue = [0, 2]"] ;
979 -> 980 ;
981 [label="gini = 0.0\nsamples = 1\nvalue = [1, 0]"] ;
979 -> 981 ;
982 [label="gini = 0.0\nsamples = 14\nvalue = [18, 0]"] ;
976 -> 982 ;
983 [label="gini = 0.0\nsamples = 1\nvalue = [0, 1]"] ;
975 -> 983 ;
984 [label="gini = 0.0\nsamples = 1\nvalue = [0, 1]"] ;
974 -> 984 ;
985 [label="gini = 0.0\nsamples = 1\nvalue = [0, 1]"] ;
973 -> 985 ;
986 [label="X[17] <= 77532.812\ngini = 0.064\nsamples = 18\nvalue = [29, 1]"] ;
972 -> 986 ;
987 [label="gini = 0.0\nsamples = 17\nvalue = [29, 0]"] ;
986 -> 987 ;
988 [label="gini = 0.0\nsamples = 1\nvalue = [0, 1]"] ;
986 -> 988 ;
989 [label="X[20] <= 40819.5\ngini = 0.463\nsamples = 7\nvalue = [4, 7]"] ;
921 -> 989 ;
990 [label="X[11] <= 28301.0\ngini = 0.219\nsamples = 5\nvalue = [1, 7]"] ;
989 -> 990 ;
991 [label="X[20] <= 27768.0\ngini = 0.5\nsamples = 2\nvalue = [1, 1]"] ;
990 -> 991 ;
992 [label="gini = 0.0\nsamples = 1\nvalue = [0, 1]"] ;
991 -> 992 ;
993 [label="gini = 0.0\nsamples = 1\nvalue = [1, 0]"] ;
991 -> 993 ;
994 [label="gini = 0.0\nsamples = 3\nvalue = [0, 6]"] ;
990 -> 994 ;
995 [label="gini = 0.0\nsamples = 2\nvalue = [3, 0]"] ;
989 -> 995 ;
996 [label="X[19] <= 28467.439\ngini = 0.478\nsamples = 30\nvalue = [17, 26]"] ;
920 -> 996 ;
997 [label="X[15] <= 18838.824\ngini = 0.35\nsamples = 20\nvalue = [7, 24]"] ;
996 -> 997 ;
998 [label="gini = 0.0\nsamples = 10\nvalue = [0, 14]"] ;
997 -> 998 ;
999 [label="X[29] <= 37666.0\ngini = 0.484\nsamples = 10\nvalue = [7, 10]"] ;
997 -> 999 ;
1000 [label="X[22] <= 171.515\ngini = 0.463\nsamples = 7\nvalue = [7, 4]"] ;
999 -> 1000 ;
1001 [label="X[2] <= 1.5\ngini = 0.219\nsamples = 5\nvalue = [7, 1]"] ;
1000 -> 1001 ;
1002 [label="gini = 0.0\nsamples = 4\nvalue = [7, 0]"] ;
1001 -> 1002 ;
1003 [label="gini = 0.0\nsamples = 1\nvalue = [0, 1]"] ;
1001 -> 1003 ;
1004 [label="gini = 0.0\nsamples = 2\nvalue = [0, 3]"] ;
1000 -> 1004 ;
1005 [label="gini = 0.0\nsamples = 3\nvalue = [0, 6]"] ;
999 -> 1005 ;
1006 [label="X[15] <= 11848.21\ngini = 0.278\nsamples = 10\nvalue = [10, 2]"] ;
996 -> 1006 ;
1007 [label="X[7] <= 7.5\ngini = 0.165\nsamples = 9\nvalue = [10, 1]"] ;
1006 -> 1007 ;
1008 [label="gini = 0.0\nsamples = 1\nvalue = [0, 1]"] ;
1007 -> 1008 ;
1009 [label="gini = 0.0\nsamples = 8\nvalue = [10, 0]"] ;
1007 -> 1009 ;
1010 [label="gini = 0.0\nsamples = 1\nvalue = [0, 1]"] ;
1006 -> 1010 ;
1011 [label="X[7] <= 4009.305\ngini = 0.464\nsamples = 41\nvalue = [22, 38]"] ;
919 -> 1011 ;
1012 [label="X[22] <= 949.265\ngini = 0.142\nsamples = 9\nvalue = [1, 12]"] ;
1011 -> 1012 ;
1013 [label="gini = 0.0\nsamples = 8\nvalue = [0, 12]"] ;
1012 -> 1013 ;
1014 [label="gini = 0.0\nsamples = 1\nvalue = [1, 0]"] ;
1012 -> 1014 ;
1015 [label="X[19] <= 93.0\ngini = 0.494\nsamples = 32\nvalue = [21, 26]"] ;
1011 -> 1015 ;
1016 [label="X[1] <= 3053.778\ngini = 0.245\nsamples = 4\nvalue = [6, 1]"] ;
1015 -> 1016 ;
1017 [label="gini = 0.0\nsamples = 1\nvalue = [0, 1]"] ;
1016 -> 1017 ;
1018 [label="gini = 0.0\nsamples = 3\nvalue = [6, 0]"] ;
1016 -> 1018 ;
1019 [label="X[5] <= 89.167\ngini = 0.469\nsamples = 28\nvalue = [15, 25]"] ;
1015 -> 1019 ;
1020 [label="X[16] <= 921.69\ngini = 0.438\nsamples = 25\nvalue = [12, 25]"] ;
1019 -> 1020 ;
1021 [label="X[16] <= 465.92\ngini = 0.5\nsamples = 15\nvalue = [10, 10]"] ;
1020 -> 1021 ;
1022 [label="X[24] <= 6739.925\ngini = 0.444\nsamples = 9\nvalue = [4, 8]"] ;
1021 -> 1022 ;
1023 [label="gini = 0.0\nsamples = 4\nvalue = [0, 6]"] ;
1022 -> 1023 ;
1024 [label="X[19] <= 1348.5\ngini = 0.444\nsamples = 5\nvalue = [4, 2]"] ;
1022 -> 1024 ;
1025 [label="gini = 0.0\nsamples = 1\nvalue = [0, 2]"] ;
1024 -> 1025 ;
1026 [label="gini = 0.0\nsamples = 4\nvalue = [4, 0]"] ;
1024 -> 1026 ;
1027 [label="X[1] <= 3498.569\ngini = 0.375\nsamples = 6\nvalue = [6, 2]"] ;
1021 -> 1027 ;
1028 [label="gini = 0.0\nsamples = 4\nvalue = [5, 0]"] ;
1027 -> 1028 ;
1029 [label="X[29] <= 27557.779\ngini = 0.444\nsamples = 2\nvalue = [1, 2]"] ;
1027 -> 1029 ;
1030 [label="gini = 0.0\nsamples = 1\nvalue = [0, 2]"] ;
1029 -> 1030 ;
1031 [label="gini = 0.0\nsamples = 1\nvalue = [1, 0]"] ;
1029 -> 1031 ;
1032 [label="X[1] <= 2127.467\ngini = 0.208\nsamples = 10\nvalue = [2, 15]"] ;
1020 -> 1032 ;
1033 [label="X[0] <= 5174.263\ngini = 0.444\nsamples = 2\nvalue = [2, 1]"] ;
1032 -> 1033 ;
1034 [label="gini = 0.0\nsamples = 1\nvalue = [0, 1]"] ;
1033 -> 1034 ;
1035 [label="gini = 0.0\nsamples = 1\nvalue = [2, 0]"] ;
1033 -> 1035 ;
1036 [label="gini = 0.0\nsamples = 8\nvalue = [0, 14]"] ;
1032 -> 1036 ;
1037 [label="gini = 0.0\nsamples = 3\nvalue = [3, 0]"] ;
1019 -> 1037 ;
1038 [label="X[21] <= 8931.766\ngini = 0.42\nsamples = 85\nvalue = [39, 91]"] ;
480 -> 1038 ;
1039 [label="X[15] <= 453.0\ngini = 0.492\nsamples = 26\nvalue = [17, 22]"] ;
1038 -> 1039 ;
1040 [label="gini = 0.0\nsamples = 4\nvalue = [7, 0]"] ;
1039 -> 1040 ;
1041 [label="X[27] <= 43099.828\ngini = 0.43\nsamples = 22\nvalue = [10, 22]"] ;
1039 -> 1041 ;
1042 [label="X[7] <= 323.715\ngini = 0.337\nsamples = 19\nvalue = [6, 22]"] ;
1041 -> 1042 ;
1043 [label="X[5] <= 50.422\ngini = 0.469\nsamples = 5\nvalue = [5, 3]"] ;
1042 -> 1043 ;
1044 [label="gini = 0.0\nsamples = 2\nvalue = [4, 0]"] ;
1043 -> 1044 ;
1045 [label="X[20] <= 6855.12\ngini = 0.375\nsamples = 3\nvalue = [1, 3]"] ;
1043 -> 1045 ;
1046 [label="gini = 0.0\nsamples = 1\nvalue = [0, 2]"] ;
1045 -> 1046 ;
1047 [label="X[27] <= 14066.045\ngini = 0.5\nsamples = 2\nvalue = [1, 1]"] ;
1045 -> 1047 ;
1048 [label="gini = 0.0\nsamples = 1\nvalue = [1, 0]"] ;
1047 -> 1048 ;
1049 [label="gini = 0.0\nsamples = 1\nvalue = [0, 1]"] ;
1047 -> 1049 ;
1050 [label="X[1] <= 1015.972\ngini = 0.095\nsamples = 14\nvalue = [1, 19]"] ;
1042 -> 1050 ;
1051 [label="gini = 0.0\nsamples = 12\nvalue = [0, 18]"] ;
1050 -> 1051 ;
1052 [label="X[10] <= 4116.624\ngini = 0.5\nsamples = 2\nvalue = [1, 1]"] ;
1050 -> 1052 ;
1053 [label="gini = 0.0\nsamples = 1\nvalue = [1, 0]"] ;
1052 -> 1053 ;
1054 [label="gini = 0.0\nsamples = 1\nvalue = [0, 1]"] ;
1052 -> 1054 ;
1055 [label="gini = 0.0\nsamples = 3\nvalue = [4, 0]"] ;
1041 -> 1055 ;
1056 [label="X[16] <= 155.66\ngini = 0.367\nsamples = 59\nvalue = [22, 69]"] ;
1038 -> 1056 ;
1057 [label="X[28] <= 2914.5\ngini = 0.499\nsamples = 16\nvalue = [12, 11]"] ;
1056 -> 1057 ;
1058 [label="X[24] <= 1294.0\ngini = 0.465\nsamples = 14\nvalue = [12, 7]"] ;
1057 -> 1058 ;
1059 [label="X[11] <= 4506.975\ngini = 0.469\nsamples = 5\nvalue = [3, 5]"] ;
1058 -> 1059 ;
1060 [label="gini = 0.0\nsamples = 2\nvalue = [3, 0]"] ;
1059 -> 1060 ;
1061 [label="gini = 0.0\nsamples = 3\nvalue = [0, 5]"] ;
1059 -> 1061 ;
1062 [label="X[1] <= 1228.833\ngini = 0.298\nsamples = 9\nvalue = [9, 2]"] ;
1058 -> 1062 ;
1063 [label="gini = 0.0\nsamples = 5\nvalue = [7, 0]"] ;
1062 -> 1063 ;
1064 [label="X[10] <= 2546.833\ngini = 0.5\nsamples = 4\nvalue = [2, 2]"] ;
1062 -> 1064 ;
1065 [label="gini = 0.0\nsamples = 2\nvalue = [0, 2]"] ;
1064 -> 1065 ;
1066 [label="gini = 0.0\nsamples = 2\nvalue = [2, 0]"] ;
1064 -> 1066 ;
1067 [label="gini = 0.0\nsamples = 2\nvalue = [0, 4]"] ;
1057 -> 1067 ;
1068 [label="X[22] <= 225.115\ngini = 0.251\nsamples = 43\nvalue = [10, 58]"] ;
1056 -> 1068 ;
1069 [label="gini = 0.0\nsamples = 15\nvalue = [0, 27]"] ;
1068 -> 1069 ;
1070 [label="X[5] <= 116.772\ngini = 0.369\nsamples = 28\nvalue = [10, 31]"] ;
1068 -> 1070 ;
1071 [label="X[18] <= 148.5\ngini = 0.326\nsamples = 27\nvalue = [8, 31]"] ;
1070 -> 1071 ;
1072 [label="X[16] <= 311.59\ngini = 0.49\nsamples = 6\nvalue = [4, 3]"] ;
1071 -> 1072 ;
1073 [label="gini = 0.0\nsamples = 1\nvalue = [0, 2]"] ;
1072 -> 1073 ;
1074 [label="X[20] <= 43457.922\ngini = 0.32\nsamples = 5\nvalue = [4, 1]"] ;
1072 -> 1074 ;
1075 [label="gini = 0.0\nsamples = 4\nvalue = [4, 0]"] ;
1074 -> 1075 ;
1076 [label="gini = 0.0\nsamples = 1\nvalue = [0, 1]"] ;
1074 -> 1076 ;
1077 [label="X[27] <= 24889.664\ngini = 0.219\nsamples = 21\nvalue = [4, 28]"] ;
1071 -> 1077 ;
1078 [label="X[22] <= 5345.895\ngini = 0.48\nsamples = 4\nvalue = [2, 3]"] ;
1077 -> 1078 ;
1079 [label="gini = 0.0\nsamples = 3\nvalue = [0, 3]"] ;
1078 -> 1079 ;
1080 [label="gini = 0.0\nsamples = 1\nvalue = [2, 0]"] ;
1078 -> 1080 ;
1081 [label="X[1] <= 2751.111\ngini = 0.137\nsamples = 17\nvalue = [2, 25]"] ;
1077 -> 1081 ;
1082 [label="gini = 0.0\nsamples = 12\nvalue = [0, 19]"] ;
1081 -> 1082 ;
1083 [label="X[29] <= 26938.551\ngini = 0.375\nsamples = 5\nvalue = [2, 6]"] ;
1081 -> 1083 ;
1084 [label="X[0] <= 4416.351\ngini = 0.444\nsamples = 3\nvalue = [2, 1]"] ;
1083 -> 1084 ;
1085 [label="gini = 0.0\nsamples = 1\nvalue = [0, 1]"] ;
1084 -> 1085 ;
1086 [label="gini = 0.0\nsamples = 2\nvalue = [2, 0]"] ;
1084 -> 1086 ;
1087 [label="gini = 0.0\nsamples = 2\nvalue = [0, 5]"] ;
1083 -> 1087 ;
1088 [label="gini = 0.0\nsamples = 1\nvalue = [2, 0]"] ;
1070 -> 1088 ;
1089 [label="X[26] <= 347.0\ngini = 0.469\nsamples = 102\nvalue = [95, 57]"] ;
479 -> 1089 ;
1090 [label="X[27] <= 36453.066\ngini = 0.453\nsamples = 94\nvalue = [92, 49]"] ;
1089 -> 1090 ;
1091 [label="X[17] <= 11023.525\ngini = 0.332\nsamples = 35\nvalue = [45, 12]"] ;
1090 -> 1091 ;
1092 [label="X[15] <= 21955.0\ngini = 0.198\nsamples = 22\nvalue = [32, 4]"] ;
1091 -> 1092 ;
1093 [label="X[20] <= 334.0\ngini = 0.111\nsamples = 21\nvalue = [32, 2]"] ;
1092 -> 1093 ;
1094 [label="X[20] <= 226.0\ngini = 0.5\nsamples = 2\nvalue = [1, 1]"] ;
1093 -> 1094 ;
1095 [label="gini = 0.0\nsamples = 1\nvalue = [1, 0]"] ;
1094 -> 1095 ;
1096 [label="gini = 0.0\nsamples = 1\nvalue = [0, 1]"] ;
1094 -> 1096 ;
1097 [label="X[28] <= 16107.0\ngini = 0.061\nsamples = 19\nvalue = [31, 1]"] ;
1093 -> 1097 ;
1098 [label="X[21] <= 17095.965\ngini = 0.5\nsamples = 2\nvalue = [1, 1]"] ;
1097 -> 1098 ;
1099 [label="gini = 0.0\nsamples = 1\nvalue = [1, 0]"] ;
1098 -> 1099 ;
1100 [label="gini = 0.0\nsamples = 1\nvalue = [0, 1]"] ;
1098 -> 1100 ;
1101 [label="gini = 0.0\nsamples = 17\nvalue = [30, 0]"] ;
1097 -> 1101 ;
1102 [label="gini = 0.0\nsamples = 1\nvalue = [0, 2]"] ;
1092 -> 1102 ;
1103 [label="X[14] <= 14022.125\ngini = 0.472\nsamples = 13\nvalue = [13, 8]"] ;
1091 -> 1103 ;
1104 [label="gini = 0.0\nsamples = 3\nvalue = [0, 5]"] ;
1103 -> 1104 ;
1105 [label="X[21] <= 9671.85\ngini = 0.305\nsamples = 10\nvalue = [13, 3]"] ;
1103 -> 1105 ;
1106 [label="gini = 0.0\nsamples = 6\nvalue = [12, 0]"] ;
1105 -> 1106 ;
1107 [label="X[11] <= 17789.275\ngini = 0.375\nsamples = 4\nvalue = [1, 3]"] ;
1105 -> 1107 ;
1108 [label="gini = 0.0\nsamples = 1\nvalue = [1, 0]"] ;
1107 -> 1108 ;
1109 [label="gini = 0.0\nsamples = 3\nvalue = [0, 3]"] ;
1107 -> 1109 ;
1110 [label="X[19] <= 7074.0\ngini = 0.493\nsamples = 59\nvalue = [47, 37]"] ;
1090 -> 1110 ;
1111 [label="X[2] <= 0.5\ngini = 0.488\nsamples = 30\nvalue = [19, 26]"] ;
1110 -> 1111 ;
1112 [label="X[7] <= 1547.0\ngini = 0.32\nsamples = 6\nvalue = [8, 2]"] ;
1111 -> 1112 ;
1113 [label="X[16] <= 743.8\ngini = 0.198\nsamples = 5\nvalue = [8, 1]"] ;
1112 -> 1113 ;
1114 [label="gini = 0.0\nsamples = 3\nvalue = [6, 0]"] ;
1113 -> 1114 ;
1115 [label="X[20] <= 18624.0\ngini = 0.444\nsamples = 2\nvalue = [2, 1]"] ;
1113 -> 1115 ;
1116 [label="gini = 0.0\nsamples = 1\nvalue = [0, 1]"] ;
1115 -> 1116 ;
1117 [label="gini = 0.0\nsamples = 1\nvalue = [2, 0]"] ;
1115 -> 1117 ;
1118 [label="gini = 0.0\nsamples = 1\nvalue = [0, 1]"] ;
1112 -> 1118 ;
1119 [label="X[22] <= 104.0\ngini = 0.431\nsamples = 24\nvalue = [11, 24]"] ;
1111 -> 1119 ;
1120 [label="X[19] <= 5239.585\ngini = 0.49\nsamples = 9\nvalue = [8, 6]"] ;
1119 -> 1120 ;
1121 [label="X[17] <= 62434.25\ngini = 0.32\nsamples = 7\nvalue = [8, 2]"] ;
1120 -> 1121 ;
1122 [label="gini = 0.0\nsamples = 5\nvalue = [7, 0]"] ;
1121 -> 1122 ;
1123 [label="X[20] <= 2680.96\ngini = 0.444\nsamples = 2\nvalue = [1, 2]"] ;
1121 -> 1123 ;
1124 [label="gini = 0.0\nsamples = 1\nvalue = [0, 2]"] ;
1123 -> 1124 ;
1125 [label="gini = 0.0\nsamples = 1\nvalue = [1, 0]"] ;
1123 -> 1125 ;
1126 [label="gini = 0.0\nsamples = 2\nvalue = [0, 4]"] ;
1120 -> 1126 ;
1127 [label="X[21] <= 104755.203\ngini = 0.245\nsamples = 15\nvalue = [3, 18]"] ;
1119 -> 1127 ;
1128 [label="X[11] <= 34503.75\ngini = 0.105\nsamples = 13\nvalue = [1, 17]"] ;
1127 -> 1128 ;
1129 [label="gini = 0.0\nsamples = 11\nvalue = [0, 16]"] ;
1128 -> 1129 ;
1130 [label="X[16] <= 3337.0\ngini = 0.5\nsamples = 2\nvalue = [1, 1]"] ;
1128 -> 1130 ;
1131 [label="gini = 0.0\nsamples = 1\nvalue = [1, 0]"] ;
1130 -> 1131 ;
1132 [label="gini = 0.0\nsamples = 1\nvalue = [0, 1]"] ;
1130 -> 1132 ;
1133 [label="X[15] <= 308699.969\ngini = 0.444\nsamples = 2\nvalue = [2, 1]"] ;
1127 -> 1133 ;
1134 [label="gini = 0.0\nsamples = 1\nvalue = [2, 0]"] ;
1133 -> 1134 ;
1135 [label="gini = 0.0\nsamples = 1\nvalue = [0, 1]"] ;
1133 -> 1135 ;
1136 [label="X[9] <= 41.25\ngini = 0.405\nsamples = 29\nvalue = [28, 11]"] ;
1110 -> 1136 ;
1137 [label="gini = 0.0\nsamples = 2\nvalue = [0, 3]"] ;
1136 -> 1137 ;
1138 [label="X[15] <= 627.525\ngini = 0.346\nsamples = 27\nvalue = [28, 8]"] ;
1136 -> 1138 ;
1139 [label="X[11] <= 18740.352\ngini = 0.444\nsamples = 8\nvalue = [3, 6]"] ;
1138 -> 1139 ;
1140 [label="gini = 0.0\nsamples = 4\nvalue = [0, 5]"] ;
1139 -> 1140 ;
1141 [label="X[16] <= 8614.875\ngini = 0.375\nsamples = 4\nvalue = [3, 1]"] ;
1139 -> 1141 ;
1142 [label="gini = 0.0\nsamples = 3\nvalue = [3, 0]"] ;
1141 -> 1142 ;
1143 [label="gini = 0.0\nsamples = 1\nvalue = [0, 1]"] ;
1141 -> 1143 ;
1144 [label="X[8] <= 669.0\ngini = 0.137\nsamples = 19\nvalue = [25, 2]"] ;
1138 -> 1144 ;
1145 [label="gini = 0.0\nsamples = 15\nvalue = [21, 0]"] ;
1144 -> 1145 ;
1146 [label="X[0] <= 6007.091\ngini = 0.444\nsamples = 4\nvalue = [4, 2]"] ;
1144 -> 1146 ;
1147 [label="gini = 0.0\nsamples = 2\nvalue = [0, 2]"] ;
1146 -> 1147 ;
1148 [label="gini = 0.0\nsamples = 2\nvalue = [4, 0]"] ;
1146 -> 1148 ;
1149 [label="X[15] <= 3708.0\ngini = 0.397\nsamples = 8\nvalue = [3, 8]"] ;
1089 -> 1149 ;
1150 [label="gini = 0.0\nsamples = 3\nvalue = [3, 0]"] ;
1149 -> 1150 ;
1151 [label="gini = 0.0\nsamples = 5\nvalue = [0, 8]"] ;
1149 -> 1151 ;
1152 [label="X[27] <= 69761.359\ngini = 0.298\nsamples = 15\nvalue = [18, 4]"] ;
478 -> 1152 ;
1153 [label="X[12] <= 16.545\ngini = 0.245\nsamples = 14\nvalue = [18, 3]"] ;
1152 -> 1153 ;
1154 [label="X[23] <= 710.0\ngini = 0.355\nsamples = 10\nvalue = [10, 3]"] ;
1153 -> 1154 ;
1155 [label="gini = 0.0\nsamples = 1\nvalue = [0, 1]"] ;
1154 -> 1155 ;
1156 [label="X[29] <= 4449.0\ngini = 0.278\nsamples = 9\nvalue = [10, 2]"] ;
1154 -> 1156 ;
1157 [label="X[10] <= 1770.775\ngini = 0.18\nsamples = 7\nvalue = [9, 1]"] ;
1156 -> 1157 ;
1158 [label="gini = 0.0\nsamples = 6\nvalue = [9, 0]"] ;
1157 -> 1158 ;
1159 [label="gini = 0.0\nsamples = 1\nvalue = [0, 1]"] ;
1157 -> 1159 ;
1160 [label="X[21] <= 6348.125\ngini = 0.5\nsamples = 2\nvalue = [1, 1]"] ;
1156 -> 1160 ;
1161 [label="gini = 0.0\nsamples = 1\nvalue = [1, 0]"] ;
1160 -> 1161 ;
1162 [label="gini = 0.0\nsamples = 1\nvalue = [0, 1]"] ;
1160 -> 1162 ;
1163 [label="gini = 0.0\nsamples = 4\nvalue = [8, 0]"] ;
1153 -> 1163 ;
1164 [label="gini = 0.0\nsamples = 1\nvalue = [0, 1]"] ;
1152 -> 1164 ;
1165 [label="X[18] <= 3225.5\ngini = 0.477\nsamples = 784\nvalue = [770, 497]"] ;
99 -> 1165 ;
1166 [label="X[27] <= 125116.984\ngini = 0.36\nsamples = 72\nvalue = [91, 28]"] ;
1165 -> 1166 ;
1167 [label="X[7] <= 897.195\ngini = 0.342\nsamples = 70\nvalue = [89, 25]"] ;
1166 -> 1167 ;
1168 [label="X[19] <= 1510.0\ngini = 0.403\nsamples = 42\nvalue = [49, 19]"] ;
1167 -> 1168 ;
1169 [label="X[16] <= 4677.5\ngini = 0.286\nsamples = 30\nvalue = [43, 9]"] ;
1168 -> 1169 ;
1170 [label="X[22] <= 27.5\ngini = 0.265\nsamples = 29\nvalue = [43, 8]"] ;
1169 -> 1170 ;
1171 [label="X[26] <= 465.5\ngini = 0.124\nsamples = 15\nvalue = [28, 2]"] ;
1170 -> 1171 ;
1172 [label="X[23] <= 3093.0\ngini = 0.067\nsamples = 14\nvalue = [28, 1]"] ;
1171 -> 1172 ;
1173 [label="gini = 0.0\nsamples = 12\nvalue = [26, 0]"] ;
1172 -> 1173 ;
1174 [label="X[19] <= 60.0\ngini = 0.444\nsamples = 2\nvalue = [2, 1]"] ;
1172 -> 1174 ;
1175 [label="gini = 0.0\nsamples = 1\nvalue = [2, 0]"] ;
1174 -> 1175 ;
1176 [label="gini = 0.0\nsamples = 1\nvalue = [0, 1]"] ;
1174 -> 1176 ;
1177 [label="gini = 0.0\nsamples = 1\nvalue = [0, 1]"] ;
1171 -> 1177 ;
1178 [label="X[18] <= 2905.5\ngini = 0.408\nsamples = 14\nvalue = [15, 6]"] ;
1170 -> 1178 ;
1179 [label="X[23] <= 7766.0\ngini = 0.375\nsamples = 3\nvalue = [1, 3]"] ;
1178 -> 1179 ;
1180 [label="gini = 0.0\nsamples = 2\nvalue = [0, 3]"] ;
1179 -> 1180 ;
1181 [label="gini = 0.0\nsamples = 1\nvalue = [1, 0]"] ;
1179 -> 1181 ;
1182 [label="X[8] <= 97.0\ngini = 0.291\nsamples = 11\nvalue = [14, 3]"] ;
1178 -> 1182 ;
1183 [label="X[29] <= 323.0\ngini = 0.49\nsamples = 6\nvalue = [4, 3]"] ;
1182 -> 1183 ;
1184 [label="gini = 0.0\nsamples = 4\nvalue = [4, 0]"] ;
1183 -> 1184 ;
1185 [label="gini = 0.0\nsamples = 2\nvalue = [0, 3]"] ;
1183 -> 1185 ;
1186 [label="gini = 0.0\nsamples = 5\nvalue = [10, 0]"] ;
1182 -> 1186 ;
1187 [label="gini = 0.0\nsamples = 1\nvalue = [0, 1]"] ;
1169 -> 1187 ;
1188 [label="X[18] <= 2973.5\ngini = 0.469\nsamples = 12\nvalue = [6, 10]"] ;
1168 -> 1188 ;
1189 [label="X[4] <= 324.062\ngini = 0.219\nsamples = 6\nvalue = [1, 7]"] ;
1188 -> 1189 ;
1190 [label="gini = 0.0\nsamples = 5\nvalue = [0, 7]"] ;
1189 -> 1190 ;
1191 [label="gini = 0.0\nsamples = 1\nvalue = [1, 0]"] ;
1189 -> 1191 ;
1192 [label="X[26] <= 34.5\ngini = 0.469\nsamples = 6\nvalue = [5, 3]"] ;
1188 -> 1192 ;
1193 [label="X[29] <= 349.0\ngini = 0.5\nsamples = 4\nvalue = [3, 3]"] ;
1192 -> 1193 ;
1194 [label="X[21] <= 3131.5\ngini = 0.375\nsamples = 3\nvalue = [3, 1]"] ;
1193 -> 1194 ;
1195 [label="gini = 0.0\nsamples = 1\nvalue = [0, 1]"] ;
1194 -> 1195 ;
1196 [label="gini = 0.0\nsamples = 2\nvalue = [3, 0]"] ;
1194 -> 1196 ;
1197 [label="gini = 0.0\nsamples = 1\nvalue = [0, 2]"] ;
1193 -> 1197 ;
1198 [label="gini = 0.0\nsamples = 2\nvalue = [2, 0]"] ;
1192 -> 1198 ;
1199 [label="X[22] <= 12204.5\ngini = 0.227\nsamples = 28\nvalue = [40, 6]"] ;
1167 -> 1199 ;
1200 [label="X[0] <= 19473.75\ngini = 0.133\nsamples = 25\nvalue = [39, 3]"] ;
1199 -> 1200 ;
1201 [label="X[21] <= 2779.5\ngini = 0.093\nsamples = 24\nvalue = [39, 2]"] ;
1200 -> 1201 ;
1202 [label="gini = 0.0\nsamples = 1\nvalue = [0, 1]"] ;
1201 -> 1202 ;
1203 [label="X[10] <= 329.5\ngini = 0.049\nsamples = 23\nvalue = [39, 1]"] ;
1201 -> 1203 ;
1204 [label="X[1] <= 403.0\ngini = 0.245\nsamples = 5\nvalue = [6, 1]"] ;
1203 -> 1204 ;
1205 [label="gini = 0.0\nsamples = 1\nvalue = [0, 1]"] ;
1204 -> 1205 ;
1206 [label="gini = 0.0\nsamples = 4\nvalue = [6, 0]"] ;
1204 -> 1206 ;
1207 [label="gini = 0.0\nsamples = 18\nvalue = [33, 0]"] ;
1203 -> 1207 ;
1208 [label="gini = 0.0\nsamples = 1\nvalue = [0, 1]"] ;
1200 -> 1208 ;
1209 [label="X[20] <= 75644.945\ngini = 0.375\nsamples = 3\nvalue = [1, 3]"] ;
1199 -> 1209 ;
1210 [label="gini = 0.0\nsamples = 2\nvalue = [0, 3]"] ;
1209 -> 1210 ;
1211 [label="gini = 0.0\nsamples = 1\nvalue = [1, 0]"] ;
1209 -> 1211 ;
1212 [label="X[0] <= 3187.555\ngini = 0.48\nsamples = 2\nvalue = [2, 3]"] ;
1166 -> 1212 ;
1213 [label="gini = 0.0\nsamples = 1\nvalue = [0, 3]"] ;
1212 -> 1213 ;
1214 [label="gini = 0.0\nsamples = 1\nvalue = [2, 0]"] ;
1212 -> 1214 ;
1215 [label="X[21] <= 11504.55\ngini = 0.483\nsamples = 712\nvalue = [679, 469]"] ;
1165 -> 1215 ;
1216 [label="X[27] <= 10270.8\ngini = 0.454\nsamples = 217\nvalue = [230, 123]"] ;
1215 -> 1216 ;
1217 [label="X[20] <= 5058.0\ngini = 0.426\nsamples = 189\nvalue = [211, 94]"] ;
1216 -> 1217 ;
1218 [label="X[9] <= 3372.0\ngini = 0.475\nsamples = 120\nvalue = [114, 72]"] ;
1217 -> 1218 ;
1219 [label="X[11] <= 242.0\ngini = 0.432\nsamples = 94\nvalue = [100, 46]"] ;
1218 -> 1219 ;
1220 [label="X[10] <= 2668.525\ngini = 0.219\nsamples = 25\nvalue = [35, 5]"] ;
1219 -> 1220 ;
1221 [label="X[23] <= 5014.0\ngini = 0.193\nsamples = 23\nvalue = [33, 4]"] ;
1220 -> 1221 ;
1222 [label="X[20] <= 3485.0\ngini = 0.153\nsamples = 22\nvalue = [33, 3]"] ;
1221 -> 1222 ;
1223 [label="X[2] <= 0.5\ngini = 0.062\nsamples = 18\nvalue = [30, 1]"] ;
1222 -> 1223 ;
1224 [label="gini = 0.0\nsamples = 11\nvalue = [21, 0]"] ;
1223 -> 1224 ;
1225 [label="X[20] <= 165.0\ngini = 0.18\nsamples = 7\nvalue = [9, 1]"] ;
1223 -> 1225 ;
1226 [label="X[7] <= 72.5\ngini = 0.444\nsamples = 2\nvalue = [2, 1]"] ;
1225 -> 1226 ;
1227 [label="gini = 0.0\nsamples = 1\nvalue = [0, 1]"] ;
1226 -> 1227 ;
1228 [label="gini = 0.0\nsamples = 1\nvalue = [2, 0]"] ;
1226 -> 1228 ;
1229 [label="gini = 0.0\nsamples = 5\nvalue = [7, 0]"] ;
1225 -> 1229 ;
1230 [label="X[16] <= 58.1\ngini = 0.48\nsamples = 4\nvalue = [3, 2]"] ;
1222 -> 1230 ;
1231 [label="X[23] <= 3714.5\ngini = 0.5\nsamples = 3\nvalue = [2, 2]"] ;
1230 -> 1231 ;
1232 [label="gini = 0.0\nsamples = 1\nvalue = [0, 2]"] ;
1231 -> 1232 ;
1233 [label="gini = 0.0\nsamples = 2\nvalue = [2, 0]"] ;
1231 -> 1233 ;
1234 [label="gini = 0.0\nsamples = 1\nvalue = [1, 0]"] ;
1230 -> 1234 ;
1235 [label="gini = 0.0\nsamples = 1\nvalue = [0, 1]"] ;
1221 -> 1235 ;
1236 [label="X[16] <= 41.94\ngini = 0.444\nsamples = 2\nvalue = [2, 1]"] ;
1220 -> 1236 ;
1237 [label="gini = 0.0\nsamples = 1\nvalue = [0, 1]"] ;
1236 -> 1237 ;
1238 [label="gini = 0.0\nsamples = 1\nvalue = [2, 0]"] ;
1236 -> 1238 ;
1239 [label="X[1] <= 62.417\ngini = 0.474\nsamples = 69\nvalue = [65, 41]"] ;
1219 -> 1239 ;
1240 [label="X[4] <= 154.275\ngini = 0.444\nsamples = 23\nvalue = [11, 22]"] ;
1239 -> 1240 ;
1241 [label="X[1] <= 7.667\ngini = 0.412\nsamples = 21\nvalue = [9, 22]"] ;
1240 -> 1241 ;
1242 [label="X[10] <= 489.0\ngini = 0.48\nsamples = 15\nvalue = [8, 12]"] ;
1241 -> 1242 ;
1243 [label="X[16] <= 197.0\ngini = 0.486\nsamples = 9\nvalue = [7, 5]"] ;
1242 -> 1243 ;
1244 [label="X[14] <= 1503.5\ngini = 0.42\nsamples = 8\nvalue = [7, 3]"] ;
1243 -> 1244 ;
1245 [label="X[15] <= 504.0\ngini = 0.5\nsamples = 5\nvalue = [3, 3]"] ;
1244 -> 1245 ;
1246 [label="gini = 0.0\nsamples = 2\nvalue = [2, 0]"] ;
1245 -> 1246 ;
1247 [label="X[22] <= 657.0\ngini = 0.375\nsamples = 3\nvalue = [1, 3]"] ;
1245 -> 1247 ;
1248 [label="gini = 0.0\nsamples = 2\nvalue = [0, 3]"] ;
1247 -> 1248 ;
1249 [label="gini = 0.0\nsamples = 1\nvalue = [1, 0]"] ;
1247 -> 1249 ;
1250 [label="gini = 0.0\nsamples = 3\nvalue = [4, 0]"] ;
1244 -> 1250 ;
1251 [label="gini = 0.0\nsamples = 1\nvalue = [0, 2]"] ;
1243 -> 1251 ;
1252 [label="X[7] <= 49.5\ngini = 0.219\nsamples = 6\nvalue = [1, 7]"] ;
1242 -> 1252 ;
1253 [label="gini = 0.0\nsamples = 1\nvalue = [1, 0]"] ;
1252 -> 1253 ;
