digraph Tree {
node [shape=box] ;
0 [label="X[19] <= 278.5\ngini = 0.5\nsamples = 6196\nvalue = [4963, 4837]"] ;
1 [label="X[21] <= 274.0\ngini = 0.491\nsamples = 1447\nvalue = [1302, 987]"] ;
0 -> 1 [labeldistance=2.5, labelangle=45, headlabel="True"] ;
2 [label="X[21] <= 158.94\ngini = 0.407\nsamples = 88\nvalue = [98, 39]"] ;
1 -> 2 ;
3 [label="X[28] <= 7100.0\ngini = 0.467\nsamples = 60\nvalue = [56, 33]"] ;
2 -> 3 ;
4 [label="X[25] <= 53.0\ngini = 0.444\nsamples = 57\nvalue = [56, 28]"] ;
3 -> 4 ;
5 [label="X[20] <= 149.5\ngini = 0.479\nsamples = 43\nvalue = [38, 25]"] ;
4 -> 5 ;
6 [label="gini = 0.0\nsamples = 4\nvalue = [0, 4]"] ;
5 -> 6 ;
7 [label="X[29] <= 5227.0\ngini = 0.458\nsamples = 39\nvalue = [38, 21]"] ;
5 -> 7 ;
8 [label="X[27] <= 29750.0\ngini = 0.427\nsamples = 36\nvalue = [38, 17]"] ;
7 -> 8 ;
9 [label="X[28] <= 1712.5\ngini = 0.406\nsamples = 34\nvalue = [38, 15]"] ;
8 -> 9 ;
10 [label="X[9] <= 7045.65\ngini = 0.364\nsamples = 27\nvalue = [35, 11]"] ;
9 -> 10 ;
11 [label="X[23] <= 4990.0\ngini = 0.418\nsamples = 22\nvalue = [26, 11]"] ;
10 -> 11 ;
12 [label="X[23] <= 1122.0\ngini = 0.278\nsamples = 15\nvalue = [20, 4]"] ;
11 -> 12 ;
13 [label="X[22] <= 27.5\ngini = 0.391\nsamples = 10\nvalue = [11, 4]"] ;
12 -> 13 ;
14 [label="X[27] <= 4133.0\ngini = 0.337\nsamples = 9\nvalue = [11, 3]"] ;
13 -> 14 ;
15 [label="X[27] <= 1638.0\ngini = 0.444\nsamples = 6\nvalue = [6, 3]"] ;
14 -> 15 ;
16 [label="X[23] <= 75.0\ngini = 0.375\nsamples = 5\nvalue = [6, 2]"] ;
15 -> 16 ;
17 [label="X[18] <= 125.0\ngini = 0.408\nsamples = 4\nvalue = [5, 2]"] ;
16 -> 17 ;
18 [label="X[21] <= 105.0\ngini = 0.5\nsamples = 3\nvalue = [2, 2]"] ;
17 -> 18 ;
19 [label="gini = 0.0\nsamples = 2\nvalue = [2, 0]"] ;
18 -> 19 ;
20 [label="gini = 0.0\nsamples = 1\nvalue = [0, 2]"] ;
18 -> 20 ;
21 [label="gini = 0.0\nsamples = 1\nvalue = [3, 0]"] ;
17 -> 21 ;
22 [label="gini = 0.0\nsamples = 1\nvalue = [1, 0]"] ;
16 -> 22 ;
23 [label="gini = 0.0\nsamples = 1\nvalue = [0, 1]"] ;
15 -> 23 ;
24 [label="gini = 0.0\nsamples = 3\nvalue = [5, 0]"] ;
14 -> 24 ;
25 [label="gini = 0.0\nsamples = 1\nvalue = [0, 1]"] ;
13 -> 25 ;
26 [label="gini = 0.0\nsamples = 5\nvalue = [9, 0]"] ;
12 -> 26 ;
27 [label="X[16] <= 650.0\ngini = 0.497\nsamples = 7\nvalue = [6, 7]"] ;
11 -> 27 ;
28 [label="X[15] <= 7056.4\ngini = 0.42\nsamples = 5\nvalue = [3, 7]"] ;
27 -> 28 ;
29 [label="gini = 0.0\nsamples = 2\nvalue = [0, 4]"] ;
28 -> 29 ;
30 [label="X[14] <= 10595.75\ngini = 0.5\nsamples = 3\nvalue = [3, 3]"] ;
28 -> 30 ;
31 [label="gini = 0.0\nsamples = 1\nvalue = [3, 0]"] ;
30 -> 31 ;
32 [label="gini = 0.0\nsamples = 2\nvalue = [0, 3]"] ;
30 -> 32 ;
33 [label="gini = 0.0\nsamples = 2\nvalue = [3, 0]"] ;
27 -> 33 ;
34 [label="gini = 0.0\nsamples = 5\nvalue = [9, 0]"] ;
10 -> 34 ;
35 [label="X[7] <= 767.0\ngini = 0.49\nsamples = 7\nvalue = [3, 4]"] ;
9 -> 35 ;
36 [label="X[20] <= 8286.0\ngini = 0.32\nsamples = 5\nvalue = [1, 4]"] ;
35 -> 36 ;
37 [label="gini = 0.0\nsamples = 4\nvalue = [0, 4]"] ;
36 -> 37 ;
38 [label="gini = 0.0\nsamples = 1\nvalue = [1, 0]"] ;
36 -> 38 ;
39 [label="gini = 0.0\nsamples = 2\nvalue = [2, 0]"] ;
35 -> 39 ;
40 [label="gini = 0.0\nsamples = 2\nvalue = [0, 2]"] ;
8 -> 40 ;
41 [label="gini = 0.0\nsamples = 3\nvalue = [0, 4]"] ;
7 -> 41 ;
42 [label="X[11] <= 20575.4\ngini = 0.245\nsamples = 14\nvalue = [18, 3]"] ;
4 -> 42 ;
43 [label="X[20] <= 2995.5\ngini = 0.18\nsamples = 13\nvalue = [18, 2]"] ;
42 -> 43 ;
44 [label="X[1] <= 1929.206\ngini = 0.444\nsamples = 4\nvalue = [4, 2]"] ;
43 -> 44 ;
45 [label="gini = 0.0\nsamples = 3\nvalue = [4, 0]"] ;
44 -> 45 ;
46 [label="gini = 0.0\nsamples = 1\nvalue = [0, 2]"] ;
44 -> 46 ;
47 [label="gini = 0.0\nsamples = 9\nvalue = [14, 0]"] ;
43 -> 47 ;
48 [label="gini = 0.0\nsamples = 1\nvalue = [0, 1]"] ;
42 -> 48 ;
49 [label="gini = 0.0\nsamples = 3\nvalue = [0, 5]"] ;
3 -> 49 ;
50 [label="X[24] <= 254.0\ngini = 0.219\nsamples = 28\nvalue = [42, 6]"] ;
2 -> 50 ;
51 [label="X[24] <= 189.5\ngini = 0.054\nsamples = 20\nvalue = [35, 1]"] ;
50 -> 51 ;
52 [label="gini = 0.0\nsamples = 13\nvalue = [25, 0]"] ;
51 -> 52 ;
53 [label="X[20] <= 199.5\ngini = 0.165\nsamples = 7\nvalue = [10, 1]"] ;
51 -> 53 ;
54 [label="X[4] <= 99.5\ngini = 0.32\nsamples = 4\nvalue = [4, 1]"] ;
53 -> 54 ;
55 [label="X[1] <= 41.133\ngini = 0.444\nsamples = 3\nvalue = [2, 1]"] ;
54 -> 55 ;
56 [label="gini = 0.0\nsamples = 1\nvalue = [0, 1]"] ;
55 -> 56 ;
57 [label="gini = 0.0\nsamples = 2\nvalue = [2, 0]"] ;
55 -> 57 ;
58 [label="gini = 0.0\nsamples = 1\nvalue = [2, 0]"] ;
54 -> 58 ;
59 [label="gini = 0.0\nsamples = 3\nvalue = [6, 0]"] ;
53 -> 59 ;
60 [label="X[14] <= 262.5\ngini = 0.486\nsamples = 8\nvalue = [7, 5]"] ;
50 -> 60 ;
61 [label="gini = 0.0\nsamples = 1\nvalue = [0, 3]"] ;
60 -> 61 ;
62 [label="X[14] <= 6382.1\ngini = 0.346\nsamples = 7\nvalue = [7, 2]"] ;
60 -> 62 ;
63 [label="X[19] <= 133.5\ngini = 0.5\nsamples = 2\nvalue = [1, 1]"] ;
62 -> 63 ;
64 [label="gini = 0.0\nsamples = 1\nvalue = [0, 1]"] ;
63 -> 64 ;
65 [label="gini = 0.0\nsamples = 1\nvalue = [1, 0]"] ;
63 -> 65 ;
66 [label="X[27] <= 19373.199\ngini = 0.245\nsamples = 5\nvalue = [6, 1]"] ;
62 -> 66 ;
67 [label="gini = 0.0\nsamples = 3\nvalue = [5, 0]"] ;
66 -> 67 ;
68 [label="X[29] <= 36748.0\ngini = 0.5\nsamples = 2\nvalue = [1, 1]"] ;
66 -> 68 ;
69 [label="gini = 0.0\nsamples = 1\nvalue = [0, 1]"] ;
68 -> 69 ;
70 [label="gini = 0.0\nsamples = 1\nvalue = [1, 0]"] ;
68 -> 70 ;
71 [label="X[21] <= 3698.525\ngini = 0.493\nsamples = 1359\nvalue = [1204, 948]"] ;
1 -> 71 ;
72 [label="X[7] <= 430.78\ngini = 0.499\nsamples = 418\nvalue = [325, 347]"] ;
71 -> 72 ;
73 [label="X[3] <= 57.5\ngini = 0.499\nsamples = 309\nvalue = [265, 240]"] ;
72 -> 73 ;
74 [label="X[23] <= 2441.645\ngini = 0.496\nsamples = 285\nvalue = [254, 212]"] ;
73 -> 74 ;
75 [label="X[27] <= 2198.5\ngini = 0.5\nsamples = 229\nvalue = [187, 184]"] ;
74 -> 75 ;
76 [label="X[28] <= 919.5\ngini = 0.494\nsamples = 184\nvalue = [167, 135]"] ;
75 -> 76 ;
77 [label="X[5] <= 74.5\ngini = 0.488\nsamples = 176\nvalue = [164, 120]"] ;
76 -> 77 ;
78 [label="X[29] <= 18.5\ngini = 0.465\nsamples = 141\nvalue = [141, 82]"] ;
77 -> 78 ;
79 [label="X[2] <= 0.5\ngini = 0.491\nsamples = 98\nvalue = [82, 63]"] ;
78 -> 79 ;
80 [label="X[10] <= 168.0\ngini = 0.46\nsamples = 65\nvalue = [59, 33]"] ;
79 -> 80 ;
81 [label="X[27] <= 147.5\ngini = 0.431\nsamples = 62\nvalue = [59, 27]"] ;
80 -> 81 ;
82 [label="X[7] <= 14.5\ngini = 0.47\nsamples = 39\nvalue = [33, 20]"] ;
81 -> 82 ;
83 [label="X[21] <= 696.0\ngini = 0.42\nsamples = 31\nvalue = [28, 12]"] ;
82 -> 83 ;
84 [label="X[21] <= 546.375\ngini = 0.492\nsamples = 13\nvalue = [9, 7]"] ;
83 -> 84 ;
85 [label="X[22] <= 249.5\ngini = 0.219\nsamples = 8\nvalue = [7, 1]"] ;
84 -> 85 ;
86 [label="X[15] <= 152.5\ngini = 0.245\nsamples = 7\nvalue = [6, 1]"] ;
85 -> 86 ;
87 [label="gini = 0.0\nsamples = 6\nvalue = [6, 0]"] ;
86 -> 87 ;
88 [label="gini = 0.0\nsamples = 1\nvalue = [0, 1]"] ;
86 -> 88 ;
89 [label="gini = 0.0\nsamples = 1\nvalue = [1, 0]"] ;
85 -> 89 ;
90 [label="X[20] <= 658.5\ngini = 0.375\nsamples = 5\nvalue = [2, 6]"] ;
84 -> 90 ;
91 [label="X[20] <= 621.5\ngini = 0.444\nsamples = 4\nvalue = [2, 4]"] ;
90 -> 91 ;
92 [label="X[15] <= 610.0\ngini = 0.32\nsamples = 3\nvalue = [1, 4]"] ;
91 -> 92 ;
93 [label="X[20] <= 597.875\ngini = 0.5\nsamples = 2\nvalue = [1, 1]"] ;
92 -> 93 ;
94 [label="gini = 0.0\nsamples = 1\nvalue = [0, 1]"] ;
93 -> 94 ;
95 [label="gini = 0.0\nsamples = 1\nvalue = [1, 0]"] ;
93 -> 95 ;
96 [label="gini = 0.0\nsamples = 1\nvalue = [0, 3]"] ;
92 -> 96 ;
97 [label="gini = 0.0\nsamples = 1\nvalue = [1, 0]"] ;
91 -> 97 ;
98 [label="gini = 0.0\nsamples = 1\nvalue = [0, 2]"] ;
90 -> 98 ;
99 [label="X[15] <= 493.5\ngini = 0.33\nsamples = 18\nvalue = [19, 5]"] ;
83 -> 99 ;
100 [label="X[15] <= 101.5\ngini = 0.43\nsamples = 14\nvalue = [11, 5]"] ;
99 -> 100 ;
101 [label="X[21] <= 1287.55\ngini = 0.391\nsamples = 13\nvalue = [11, 4]"] ;
100 -> 101 ;
102 [label="X[18] <= 932.0\ngini = 0.48\nsamples = 8\nvalue = [6, 4]"] ;
101 -> 102 ;
103 [label="gini = 0.0\nsamples = 3\nvalue = [4, 0]"] ;
102 -> 103 ;
104 [label="X[18] <= 946.875\ngini = 0.444\nsamples = 5\nvalue = [2, 4]"] ;
102 -> 104 ;
105 [label="gini = 0.0\nsamples = 1\nvalue = [0, 1]"] ;
104 -> 105 ;
106 [label="X[18] <= 978.875\ngini = 0.48\nsamples = 4\nvalue = [2, 3]"] ;
104 -> 106 ;
107 [label="gini = 0.0\nsamples = 1\nvalue = [1, 0]"] ;
106 -> 107 ;
108 [label="X[21] <= 1100.5\ngini = 0.375\nsamples = 3\nvalue = [1, 3]"] ;
106 -> 108 ;
109 [label="gini = 0.0\nsamples = 1\nvalue = [0, 2]"] ;
108 -> 109 ;
110 [label="X[18] <= 1218.0\ngini = 0.5\nsamples = 2\nvalue = [1, 1]"] ;
108 -> 110 ;
111 [label="gini = 0.0\nsamples = 1\nvalue = [1, 0]"] ;
110 -> 111 ;
112 [label="gini = 0.0\nsamples = 1\nvalue = [0, 1]"] ;
110 -> 112 ;
113 [label="gini = 0.0\nsamples = 5\nvalue = [5, 0]"] ;
101 -> 113 ;
114 [label="gini = 0.0\nsamples = 1\nvalue = [0, 1]"] ;
100 -> 114 ;
115 [label="gini = 0.0\nsamples = 4\nvalue = [8, 0]"] ;
99 -> 115 ;
116 [label="X[18] <= 3163.5\ngini = 0.473\nsamples = 8\nvalue = [5, 8]"] ;
82 -> 116 ;
117 [label="X[20] <= 1309.5\ngini = 0.397\nsamples = 7\nvalue = [3, 8]"] ;
116 -> 117 ;
118 [label="X[14] <= 1040.0\ngini = 0.469\nsamples = 6\nvalue = [3, 5]"] ;
117 -> 118 ;
119 [label="X[14] <= 181.0\ngini = 0.408\nsamples = 5\nvalue = [2, 5]"] ;
118 -> 119 ;
120 [label="gini = 0.0\nsamples = 1\nvalue = [0, 2]"] ;
119 -> 120 ;
121 [label="X[21] <= 783.75\ngini = 0.48\nsamples = 4\nvalue = [2, 3]"] ;
119 -> 121 ;
122 [label="gini = 0.0\nsamples = 1\nvalue = [0, 2]"] ;
121 -> 122 ;
123 [label="X[18] <= 2176.5\ngini = 0.444\nsamples = 3\nvalue = [2, 1]"] ;
121 -> 123 ;
124 [label="gini = 0.0\nsamples = 2\nvalue = [2, 0]"] ;
123 -> 124 ;
125 [label="gini = 0.0\nsamples = 1\nvalue = [0, 1]"] ;
123 -> 125 ;
126 [label="gini = 0.0\nsamples = 1\nvalue = [1, 0]"] ;
118 -> 126 ;
127 [label="gini = 0.0\nsamples = 1\nvalue = [0, 3]"] ;
117 -> 127 ;
128 [label="gini = 0.0\nsamples = 1\nvalue = [2, 0]"] ;
116 -> 128 ;
129 [label="X[14] <= 7321.2\ngini = 0.334\nsamples = 23\nvalue = [26, 7]"] ;
81 -> 129 ;
130 [label="X[10] <= 39.0\ngini = 0.5\nsamples = 9\nvalue = [6, 6]"] ;
129 -> 130 ;
131 [label="X[21] <= 1279.125\ngini = 0.48\nsamples = 7\nvalue = [4, 6]"] ;
130 -> 131 ;
132 [label="X[20] <= 498.275\ngini = 0.32\nsamples = 5\nvalue = [4, 1]"] ;
131 -> 132 ;
133 [label="X[15] <= 371.0\ngini = 0.5\nsamples = 2\nvalue = [1, 1]"] ;
132 -> 133 ;
134 [label="gini = 0.0\nsamples = 1\nvalue = [1, 0]"] ;
133 -> 134 ;
135 [label="gini = 0.0\nsamples = 1\nvalue = [0, 1]"] ;
133 -> 135 ;
136 [label="gini = 0.0\nsamples = 3\nvalue = [3, 0]"] ;
132 -> 136 ;
137 [label="gini = 0.0\nsamples = 2\nvalue = [0, 5]"] ;
131 -> 137 ;
138 [label="gini = 0.0\nsamples = 2\nvalue = [2, 0]"] ;
130 -> 138 ;
139 [label="X[21] <= 1452.5\ngini = 0.091\nsamples = 14\nvalue = [20, 1]"] ;
129 -> 139 ;
140 [label="X[28] <= 167.0\ngini = 0.198\nsamples = 7\nvalue = [8, 1]"] ;
139 -> 140 ;
141 [label="X[21] <= 1311.0\ngini = 0.278\nsamples = 4\nvalue = [5, 1]"] ;
140 -> 141 ;
142 [label="gini = 0.0\nsamples = 3\nvalue = [5, 0]"] ;
141 -> 142 ;
143 [label="gini = 0.0\nsamples = 1\nvalue = [0, 1]"] ;
141 -> 143 ;
144 [label="gini = 0.0\nsamples = 3\nvalue = [3, 0]"] ;
140 -> 144 ;
145 [label="gini = 0.0\nsamples = 7\nvalue = [12, 0]"] ;
139 -> 145 ;
146 [label="gini = 0.0\nsamples = 3\nvalue = [0, 6]"] ;
80 -> 146 ;
147 [label="X[22] <= 302.0\ngini = 0.491\nsamples = 33\nvalue = [23, 30]"] ;
79 -> 147 ;
148 [label="X[15] <= 155.0\ngini = 0.467\nsamples = 26\nvalue = [16, 27]"] ;
147 -> 148 ;
149 [label="X[21] <= 908.0\ngini = 0.459\nsamples = 9\nvalue = [9, 5]"] ;
148 -> 149 ;
150 [label="gini = 0.0\nsamples = 3\nvalue = [0, 4]"] ;
149 -> 150 ;
151 [label="X[21] <= 1557.0\ngini = 0.18\nsamples = 6\nvalue = [9, 1]"] ;
149 -> 151 ;
152 [label="X[10] <= 116.5\ngini = 0.444\nsamples = 2\nvalue = [2, 1]"] ;
151 -> 152 ;
153 [label="gini = 0.0\nsamples = 1\nvalue = [2, 0]"] ;
152 -> 153 ;
154 [label="gini = 0.0\nsamples = 1\nvalue = [0, 1]"] ;
152 -> 154 ;
155 [label="gini = 0.0\nsamples = 4\nvalue = [7, 0]"] ;
151 -> 155 ;
156 [label="X[7] <= 310.0\ngini = 0.366\nsamples = 17\nvalue = [7, 22]"] ;
148 -> 156 ;
157 [label="X[11] <= 310.5\ngini = 0.302\nsamples = 16\nvalue = [5, 22]"] ;
156 -> 157 ;
158 [label="gini = 0.0\nsamples = 8\nvalue = [0, 12]"] ;
157 -> 158 ;
159 [label="X[14] <= 402.0\ngini = 0.444\nsamples = 8\nvalue = [5, 10]"] ;
157 -> 159 ;
160 [label="gini = 0.0\nsamples = 1\nvalue = [2, 0]"] ;
159 -> 160 ;
161 [label="X[20] <= 906.5\ngini = 0.355\nsamples = 7\nvalue = [3, 10]"] ;
159 -> 161 ;
162 [label="X[11] <= 680.0\ngini = 0.278\nsamples = 6\nvalue = [2, 10]"] ;
161 -> 162 ;
163 [label="gini = 0.0\nsamples = 3\nvalue = [0, 6]"] ;
162 -> 163 ;
164 [label="X[20] <= 746.625\ngini = 0.444\nsamples = 3\nvalue = [2, 4]"] ;
162 -> 164 ;
165 [label="gini = 0.0\nsamples = 1\nvalue = [2, 0]"] ;
164 -> 165 ;
166 [label="gini = 0.0\nsamples = 2\nvalue = [0, 4]"] ;
164 -> 166 ;
167 [label="gini = 0.0\nsamples = 1\nvalue = [1, 0]"] ;
161 -> 167 ;
168 [label="gini = 0.0\nsamples = 1\nvalue = [2, 0]"] ;
156 -> 168 ;
169 [label="X[9] <= 1120.5\ngini = 0.42\nsamples = 7\nvalue = [7, 3]"] ;
147 -> 169 ;
170 [label="X[20] <= 841.0\ngini = 0.219\nsamples = 6\nvalue = [7, 1]"] ;
169 -> 170 ;
171 [label="gini = 0.0\nsamples = 3\nvalue = [4, 0]"] ;
170 -> 171 ;
172 [label="X[20] <= 971.5\ngini = 0.375\nsamples = 3\nvalue = [3, 1]"] ;
170 -> 172 ;
173 [label="gini = 0.0\nsamples = 1\nvalue = [0, 1]"] ;
172 -> 173 ;
174 [label="gini = 0.0\nsamples = 2\nvalue = [3, 0]"] ;
172 -> 174 ;
175 [label="gini = 0.0\nsamples = 1\nvalue = [0, 2]"] ;
169 -> 175 ;
176 [label="X[7] <= 133.035\ngini = 0.369\nsamples = 43\nvalue = [59, 19]"] ;
78 -> 176 ;
177 [label="X[7] <= 127.035\ngini = 0.444\nsamples = 32\nvalue = [38, 19]"] ;
176 -> 177 ;
178 [label="X[23] <= 710.5\ngini = 0.427\nsamples = 31\nvalue = [38, 17]"] ;
177 -> 178 ;
179 [label="X[13] <= 29.0\ngini = 0.334\nsamples = 17\nvalue = [26, 7]"] ;
178 -> 179 ;
180 [label="X[14] <= 190.0\ngini = 0.444\nsamples = 10\nvalue = [12, 6]"] ;
179 -> 180 ;
181 [label="X[9] <= 119.0\ngini = 0.496\nsamples = 6\nvalue = [5, 6]"] ;
180 -> 181 ;
182 [label="X[15] <= 18.5\ngini = 0.278\nsamples = 4\nvalue = [5, 1]"] ;
181 -> 182 ;
183 [label="gini = 0.0\nsamples = 1\nvalue = [0, 1]"] ;
182 -> 183 ;
184 [label="gini = 0.0\nsamples = 3\nvalue = [5, 0]"] ;
182 -> 184 ;
185 [label="gini = 0.0\nsamples = 2\nvalue = [0, 5]"] ;
181 -> 185 ;
186 [label="gini = 0.0\nsamples = 4\nvalue = [7, 0]"] ;
180 -> 186 ;
187 [label="X[0] <= 507.0\ngini = 0.124\nsamples = 7\nvalue = [14, 1]"] ;
179 -> 187 ;
188 [label="gini = 0.0\nsamples = 5\nvalue = [12, 0]"] ;
187 -> 188 ;
189 [label="X[11] <= 603.0\ngini = 0.444\nsamples = 2\nvalue = [2, 1]"] ;
187 -> 189 ;
190 [label="gini = 0.0\nsamples = 1\nvalue = [0, 1]"] ;
189 -> 190 ;
191 [label="gini = 0.0\nsamples = 1\nvalue = [2, 0]"] ;
189 -> 191 ;
192 [label="X[14] <= 870.0\ngini = 0.496\nsamples = 14\nvalue = [12, 10]"] ;
178 -> 192 ;
193 [label="X[21] <= 1938.505\ngini = 0.42\nsamples = 5\nvalue = [3, 7]"] ;
192 -> 193 ;
194 [label="X[20] <= 744.0\ngini = 0.219\nsamples = 4\nvalue = [1, 7]"] ;
193 -> 194 ;
195 [label="X[14] <= 727.5\ngini = 0.444\nsamples = 2\nvalue = [1, 2]"] ;
194 -> 195 ;
196 [label="gini = 0.0\nsamples = 1\nvalue = [0, 2]"] ;
195 -> 196 ;
197 [label="gini = 0.0\nsamples = 1\nvalue = [1, 0]"] ;
195 -> 197 ;
198 [label="gini = 0.0\nsamples = 2\nvalue = [0, 5]"] ;
194 -> 198 ;
199 [label="gini = 0.0\nsamples = 1\nvalue = [2, 0]"] ;
193 -> 199 ;
200 [label="X[29] <= 1832.0\ngini = 0.375\nsamples = 9\nvalue = [9, 3]"] ;
192 -> 200 ;
201 [label="X[8] <= 349.5\ngini = 0.298\nsamples = 8\nvalue = [9, 2]"] ;
200 -> 201 ;
202 [label="gini = 0.0\nsamples = 4\nvalue = [6, 0]"] ;
201 -> 202 ;
203 [label="X[1] <= 226.799\ngini = 0.48\nsamples = 4\nvalue = [3, 2]"] ;
201 -> 203 ;
204 [label="gini = 0.0\nsamples = 1\nvalue = [0, 2]"] ;
203 -> 204 ;
205 [label="gini = 0.0\nsamples = 3\nvalue = [3, 0]"] ;
203 -> 205 ;
206 [label="gini = 0.0\nsamples = 1\nvalue = [0, 1]"] ;
200 -> 206 ;
207 [label="gini = 0.0\nsamples = 1\nvalue = [0, 2]"] ;
177 -> 207 ;
208 [label="gini = 0.0\nsamples = 11\nvalue = [21, 0]"] ;
176 -> 208 ;
209 [label="X[25] <= 777.025\ngini = 0.47\nsamples = 35\nvalue = [23, 38]"] ;
77 -> 209 ;
210 [label="X[28] <= 238.5\ngini = 0.361\nsamples = 21\nvalue = [9, 29]"] ;
209 -> 210 ;
211 [label="X[0] <= 164.008\ngini = 0.284\nsamples = 20\nvalue = [6, 29]"] ;
210 -> 211 ;
212 [label="gini = 0.0\nsamples = 1\nvalue = [2, 0]"] ;
211 -> 212 ;
213 [label="X[22] <= 664.5\ngini = 0.213\nsamples = 19\nvalue = [4, 29]"] ;
211 -> 213 ;
214 [label="X[18] <= 2493.5\ngini = 0.17\nsamples = 18\nvalue = [3, 29]"] ;
213 -> 214 ;
215 [label="X[0] <= 651.8\ngini = 0.121\nsamples = 17\nvalue = [2, 29]"] ;
214 -> 215 ;
216 [label="gini = 0.0\nsamples = 13\nvalue = [0, 22]"] ;
215 -> 216 ;
217 [label="X[24] <= 669.025\ngini = 0.346\nsamples = 4\nvalue = [2, 7]"] ;
215 -> 217 ;
218 [label="gini = 0.0\nsamples = 1\nvalue = [2, 0]"] ;
217 -> 218 ;
219 [label="gini = 0.0\nsamples = 3\nvalue = [0, 7]"] ;
217 -> 219 ;
220 [label="gini = 0.0\nsamples = 1\nvalue = [1, 0]"] ;
214 -> 220 ;
221 [label="gini = 0.0\nsamples = 1\nvalue = [1, 0]"] ;
213 -> 221 ;
222 [label="gini = 0.0\nsamples = 1\nvalue = [3, 0]"] ;
210 -> 222 ;
223 [label="X[15] <= 2042.25\ngini = 0.476\nsamples = 14\nvalue = [14, 9]"] ;
209 -> 223 ;
224 [label="X[29] <= 1405.0\ngini = 0.346\nsamples = 12\nvalue = [14, 4]"] ;
223 -> 224 ;
225 [label="X[26] <= 1204.125\ngini = 0.444\nsamples = 8\nvalue = [8, 4]"] ;
224 -> 225 ;
226 [label="X[11] <= 912.0\ngini = 0.198\nsamples = 6\nvalue = [8, 1]"] ;
225 -> 226 ;
227 [label="X[14] <= 814.5\ngini = 0.5\nsamples = 2\nvalue = [1, 1]"] ;
226 -> 227 ;
228 [label="gini = 0.0\nsamples = 1\nvalue = [1, 0]"] ;
227 -> 228 ;
229 [label="gini = 0.0\nsamples = 1\nvalue = [0, 1]"] ;
227 -> 229 ;
230 [label="gini = 0.0\nsamples = 4\nvalue = [7, 0]"] ;
226 -> 230 ;
231 [label="gini = 0.0\nsamples = 2\nvalue = [0, 3]"] ;
225 -> 231 ;
232 [label="gini = 0.0\nsamples = 4\nvalue = [6, 0]"] ;
224 -> 232 ;
233 [label="gini = 0.0\nsamples = 2\nvalue = [0, 5]"] ;
223 -> 233 ;
234 [label="X[20] <= 242.275\ngini = 0.278\nsamples = 8\nvalue = [3, 15]"] ;
76 -> 234 ;
235 [label="X[20] <= 184.0\ngini = 0.444\nsamples = 2\nvalue = [2, 1]"] ;
234 -> 235 ;
236 [label="gini = 0.0\nsamples = 1\nvalue = [0, 1]"] ;
235 -> 236 ;
237 [label="gini = 0.0\nsamples = 1\nvalue = [2, 0]"] ;
235 -> 237 ;
238 [label="X[28] <= 1191.5\ngini = 0.124\nsamples = 6\nvalue = [1, 14]"] ;
234 -> 238 ;
239 [label="X[14] <= 1113.0\ngini = 0.278\nsamples = 3\nvalue = [1, 5]"] ;
238 -> 239 ;
240 [label="gini = 0.0\nsamples = 2\nvalue = [0, 5]"] ;
239 -> 240 ;
241 [label="gini = 0.0\nsamples = 1\nvalue = [1, 0]"] ;
239 -> 241 ;
242 [label="gini = 0.0\nsamples = 3\nvalue = [0, 9]"] ;
238 -> 242 ;
243 [label="X[5] <= 136.792\ngini = 0.412\nsamples = 45\nvalue = [20, 49]"] ;
75 -> 243 ;
244 [label="X[6] <= 176.0\ngini = 0.444\nsamples = 40\nvalue = [20, 40]"] ;
243 -> 244 ;
245 [label="X[22] <= 224.0\ngini = 0.419\nsamples = 38\nvalue = [17, 40]"] ;
244 -> 245 ;
246 [label="X[7] <= 184.0\ngini = 0.449\nsamples = 33\nvalue = [17, 33]"] ;
245 -> 246 ;
247 [label="X[20] <= 6848.0\ngini = 0.343\nsamples = 26\nvalue = [9, 32]"] ;
246 -> 247 ;
248 [label="X[11] <= 321.0\ngini = 0.211\nsamples = 14\nvalue = [3, 22]"] ;
247 -> 248 ;
249 [label="X[15] <= 46.0\ngini = 0.305\nsamples = 10\nvalue = [3, 13]"] ;
248 -> 249 ;
250 [label="gini = 0.0\nsamples = 1\nvalue = [1, 0]"] ;
249 -> 250 ;
251 [label="X[9] <= 253.515\ngini = 0.231\nsamples = 9\nvalue = [2, 13]"] ;
249 -> 251 ;
252 [label="X[17] <= 1995.0\ngini = 0.133\nsamples = 8\nvalue = [1, 13]"] ;
251 -> 252 ;
253 [label="X[29] <= 75.5\ngini = 0.278\nsamples = 4\nvalue = [1, 5]"] ;
252 -> 253 ;
254 [label="X[20] <= 765.5\ngini = 0.444\nsamples = 3\nvalue = [1, 2]"] ;
253 -> 254 ;
255 [label="gini = 0.0\nsamples = 2\nvalue = [0, 2]"] ;
254 -> 255 ;
256 [label="gini = 0.0\nsamples = 1\nvalue = [1, 0]"] ;
254 -> 256 ;
257 [label="gini = 0.0\nsamples = 1\nvalue = [0, 3]"] ;
253 -> 257 ;
258 [label="gini = 0.0\nsamples = 4\nvalue = [0, 8]"] ;
252 -> 258 ;
259 [label="gini = 0.0\nsamples = 1\nvalue = [1, 0]"] ;
251 -> 259 ;
260 [label="gini = 0.0\nsamples = 4\nvalue = [0, 9]"] ;
248 -> 260 ;
261 [label="X[27] <= 2710.15\ngini = 0.469\nsamples = 12\nvalue = [6, 10]"] ;
247 -> 261 ;
262 [label="gini = 0.0\nsamples = 1\nvalue = [1, 0]"] ;
261 -> 262 ;
263 [label="X[17] <= 26864.449\ngini = 0.444\nsamples = 11\nvalue = [5, 10]"] ;
261 -> 263 ;
264 [label="X[17] <= 1129.5\ngini = 0.408\nsamples = 10\nvalue = [4, 10]"] ;
263 -> 264 ;
265 [label="gini = 0.0\nsamples = 2\nvalue = [0, 3]"] ;
264 -> 265 ;
266 [label="X[18] <= 359.75\ngini = 0.463\nsamples = 8\nvalue = [4, 7]"] ;
264 -> 266 ;
267 [label="X[21] <= 1591.19\ngini = 0.5\nsamples = 5\nvalue = [4, 4]"] ;
266 -> 267 ;
268 [label="X[21] <= 1184.075\ngini = 0.32\nsamples = 3\nvalue = [1, 4]"] ;
267 -> 268 ;
269 [label="X[18] <= 170.75\ngini = 0.5\nsamples = 2\nvalue = [1, 1]"] ;
268 -> 269 ;
270 [label="gini = 0.0\nsamples = 1\nvalue = [0, 1]"] ;
269 -> 270 ;
271 [label="gini = 0.0\nsamples = 1\nvalue = [1, 0]"] ;
269 -> 271 ;
272 [label="gini = 0.0\nsamples = 1\nvalue = [0, 3]"] ;
268 -> 272 ;
273 [label="gini = 0.0\nsamples = 2\nvalue = [3, 0]"] ;
267 -> 273 ;
274 [label="gini = 0.0\nsamples = 3\nvalue = [0, 3]"] ;
266 -> 274 ;
275 [label="gini = 0.0\nsamples = 1\nvalue = [1, 0]"] ;
263 -> 275 ;
276 [label="X[7] <= 253.0\ngini = 0.198\nsamples = 7\nvalue = [8, 1]"] ;
246 -> 276 ;
277 [label="X[21] <= 3607.0\ngini = 0.444\nsamples = 3\nvalue = [2, 1]"] ;
276 -> 277 ;
278 [label="gini = 0.0\nsamples = 2\nvalue = [2, 0]"] ;
277 -> 278 ;
279 [label="gini = 0.0\nsamples = 1\nvalue = [0, 1]"] ;
277 -> 279 ;
280 [label="gini = 0.0\nsamples = 4\nvalue = [6, 0]"] ;
276 -> 280 ;
281 [label="gini = 0.0\nsamples = 5\nvalue = [0, 7]"] ;
245 -> 281 ;
282 [label="gini = 0.0\nsamples = 2\nvalue = [3, 0]"] ;
244 -> 282 ;
283 [label="gini = 0.0\nsamples = 5\nvalue = [0, 9]"] ;
243 -> 283 ;
284 [label="X[16] <= 1266.9\ngini = 0.416\nsamples = 56\nvalue = [67, 28]"] ;
74 -> 284 ;
285 [label="X[8] <= 953.58\ngini = 0.333\nsamples = 45\nvalue = [56, 15]"] ;
284 -> 285 ;
286 [label="X[19] <= 10.0\ngini = 0.267\nsamples = 40\nvalue = [53, 10]"] ;
285 -> 286 ;
287 [label="X[9] <= 15079.77\ngini = 0.185\nsamples = 36\nvalue = [52, 6]"] ;
286 -> 287 ;
288 [label="X[11] <= 3352.5\ngini = 0.105\nsamples = 32\nvalue = [51, 3]"] ;
287 -> 288 ;
289 [label="gini = 0.0\nsamples = 20\nvalue = [35, 0]"] ;
288 -> 289 ;
290 [label="X[20] <= 3442.5\ngini = 0.266\nsamples = 12\nvalue = [16, 3]"] ;
288 -> 290 ;
291 [label="gini = 0.0\nsamples = 1\nvalue = [0, 1]"] ;
290 -> 291 ;
292 [label="X[27] <= 6378.14\ngini = 0.198\nsamples = 11\nvalue = [16, 2]"] ;
290 -> 292 ;
293 [label="X[15] <= 3530.5\ngini = 0.5\nsamples = 3\nvalue = [2, 2]"] ;
292 -> 293 ;
294 [label="gini = 0.0\nsamples = 1\nvalue = [2, 0]"] ;
293 -> 294 ;
295 [label="gini = 0.0\nsamples = 2\nvalue = [0, 2]"] ;
293 -> 295 ;
296 [label="gini = 0.0\nsamples = 8\nvalue = [14, 0]"] ;
292 -> 296 ;
297 [label="X[11] <= 23734.5\ngini = 0.375\nsamples = 4\nvalue = [1, 3]"] ;
287 -> 297 ;
298 [label="gini = 0.0\nsamples = 3\nvalue = [0, 3]"] ;
297 -> 298 ;
299 [label="gini = 0.0\nsamples = 1\nvalue = [1, 0]"] ;
297 -> 299 ;
300 [label="X[27] <= 10736.346\ngini = 0.32\nsamples = 4\nvalue = [1, 4]"] ;
286 -> 300 ;
301 [label="gini = 0.0\nsamples = 3\nvalue = [0, 4]"] ;
300 -> 301 ;
302 [label="gini = 0.0\nsamples = 1\nvalue = [1, 0]"] ;
300 -> 302 ;
303 [label="X[8] <= 3004.0\ngini = 0.469\nsamples = 5\nvalue = [3, 5]"] ;
285 -> 303 ;
304 [label="X[7] <= 21.5\ngini = 0.278\nsamples = 4\nvalue = [1, 5]"] ;
303 -> 304 ;
305 [label="gini = 0.0\nsamples = 2\nvalue = [0, 4]"] ;
304 -> 305 ;
306 [label="X[16] <= 34.75\ngini = 0.5\nsamples = 2\nvalue = [1, 1]"] ;
304 -> 306 ;
307 [label="gini = 0.0\nsamples = 1\nvalue = [1, 0]"] ;
306 -> 307 ;
308 [label="gini = 0.0\nsamples = 1\nvalue = [0, 1]"] ;
306 -> 308 ;
309 [label="gini = 0.0\nsamples = 1\nvalue = [2, 0]"] ;
303 -> 309 ;
310 [label="X[2] <= 2.5\ngini = 0.497\nsamples = 11\nvalue = [11, 13]"] ;
284 -> 310 ;
311 [label="X[23] <= 37393.398\ngini = 0.455\nsamples = 10\nvalue = [7, 13]"] ;
310 -> 311 ;
312 [label="X[6] <= 7.5\ngini = 0.36\nsamples = 8\nvalue = [4, 13]"] ;
311 -> 312 ;
313 [label="X[23] <= 9397.5\ngini = 0.494\nsamples = 4\nvalue = [4, 5]"] ;
312 -> 313 ;
314 [label="gini = 0.0\nsamples = 1\nvalue = [0, 4]"] ;
313 -> 314 ;
315 [label="X[11] <= 15462.654\ngini = 0.32\nsamples = 3\nvalue = [4, 1]"] ;
313 -> 315 ;
316 [label="gini = 0.0\nsamples = 2\nvalue = [4, 0]"] ;
315 -> 316 ;
317 [label="gini = 0.0\nsamples = 1\nvalue = [0, 1]"] ;
315 -> 317 ;
318 [label="gini = 0.0\nsamples = 4\nvalue = [0, 8]"] ;
312 -> 318 ;
319 [label="gini = 0.0\nsamples = 2\nvalue = [3, 0]"] ;
311 -> 319 ;
320 [label="gini = 0.0\nsamples = 1\nvalue = [4, 0]"] ;
310 -> 320 ;
321 [label="X[3] <= 226.0\ngini = 0.405\nsamples = 24\nvalue = [11, 28]"] ;
73 -> 321 ;
322 [label="X[3] <= 162.5\ngini = 0.111\nsamples = 9\nvalue = [1, 16]"] ;
321 -> 322 ;
323 [label="X[25] <= 152.5\ngini = 0.245\nsamples = 4\nvalue = [1, 6]"] ;
322 -> 323 ;
324 [label="gini = 0.0\nsamples = 3\nvalue = [0, 6]"] ;
323 -> 324 ;
325 [label="gini = 0.0\nsamples = 1\nvalue = [1, 0]"] ;
323 -> 325 ;
326 [label="gini = 0.0\nsamples = 5\nvalue = [0, 10]"] ;
322 -> 326 ;
327 [label="X[14] <= 1075.0\ngini = 0.496\nsamples = 15\nvalue = [10, 12]"] ;
321 -> 327 ;
328 [label="X[29] <= 481.5\ngini = 0.245\nsamples = 6\nvalue = [6, 1]"] ;
327 -> 328 ;
329 [label="X[29] <= 349.5\ngini = 0.444\nsamples = 2\nvalue = [2, 1]"] ;
328 -> 329 ;
330 [label="gini = 0.0\nsamples = 1\nvalue = [2, 0]"] ;
329 -> 330 ;
331 [label="gini = 0.0\nsamples = 1\nvalue = [0, 1]"] ;
329 -> 331 ;
332 [label="gini = 0.0\nsamples = 4\nvalue = [4, 0]"] ;
328 -> 332 ;
333 [label="X[18] <= 384.0\ngini = 0.391\nsamples = 9\nvalue = [4, 11]"] ;
327 -> 333 ;
334 [label="gini = 0.0\nsamples = 4\nvalue = [0, 6]"] ;
333 -> 334 ;
335 [label="X[20] <= 8693.96\ngini = 0.494\nsamples = 5\nvalue = [4, 5]"] ;
333 -> 335 ;
336 [label="X[15] <= 1469.9\ngini = 0.444\nsamples = 4\nvalue = [4, 2]"] ;
335 -> 336 ;
337 [label="gini = 0.0\nsamples = 2\nvalue = [0, 2]"] ;
336 -> 337 ;
338 [label="gini = 0.0\nsamples = 2\nvalue = [4, 0]"] ;
336 -> 338 ;
339 [label="gini = 0.0\nsamples = 1\nvalue = [0, 3]"] ;
335 -> 339 ;
340 [label="X[28] <= 2448.0\ngini = 0.46\nsamples = 109\nvalue = [60, 107]"] ;
72 -> 340 ;
341 [label="X[14] <= 7737.05\ngini = 0.423\nsamples = 96\nvalue = [45, 103]"] ;
340 -> 341 ;
342 [label="X[29] <= 2372.1\ngini = 0.453\nsamples = 80\nvalue = [43, 81]"] ;
341 -> 342 ;
343 [label="X[28] <= 408.0\ngini = 0.416\nsamples = 66\nvalue = [31, 74]"] ;
342 -> 343 ;
344 [label="X[18] <= 3083.375\ngini = 0.447\nsamples = 59\nvalue = [31, 61]"] ;
343 -> 344 ;
345 [label="X[9] <= 2079.5\ngini = 0.431\nsamples = 57\nvalue = [28, 61]"] ;
344 -> 345 ;
346 [label="X[29] <= 400.5\ngini = 0.474\nsamples = 47\nvalue = [27, 43]"] ;
345 -> 346 ;
347 [label="X[7] <= 1254.625\ngini = 0.358\nsamples = 20\nvalue = [7, 23]"] ;
346 -> 347 ;
348 [label="X[23] <= 904.5\ngini = 0.1\nsamples = 11\nvalue = [1, 18]"] ;
347 -> 348 ;
349 [label="X[7] <= 524.0\ngini = 0.32\nsamples = 3\nvalue = [1, 4]"] ;
348 -> 349 ;
350 [label="gini = 0.0\nsamples = 1\nvalue = [0, 1]"] ;
349 -> 350 ;
351 [label="X[18] <= 1726.5\ngini = 0.375\nsamples = 2\nvalue = [1, 3]"] ;
349 -> 351 ;
352 [label="gini = 0.0\nsamples = 1\nvalue = [1, 0]"] ;
351 -> 352 ;
353 [label="gini = 0.0\nsamples = 1\nvalue = [0, 3]"] ;
351 -> 353 ;
354 [label="gini = 0.0\nsamples = 8\nvalue = [0, 14]"] ;
348 -> 354 ;
355 [label="X[27] <= 1007.0\ngini = 0.496\nsamples = 9\nvalue = [6, 5]"] ;
347 -> 355 ;
356 [label="X[11] <= 1637.0\ngini = 0.278\nsamples = 5\nvalue = [5, 1]"] ;
355 -> 356 ;
357 [label="gini = 0.0\nsamples = 4\nvalue = [5, 0]"] ;
356 -> 357 ;
358 [label="gini = 0.0\nsamples = 1\nvalue = [0, 1]"] ;
356 -> 358 ;
359 [label="X[20] <= 3404.68\ngini = 0.32\nsamples = 4\nvalue = [1, 4]"] ;
355 -> 359 ;
360 [label="gini = 0.0\nsamples = 3\nvalue = [0, 4]"] ;
359 -> 360 ;
361 [label="gini = 0.0\nsamples = 1\nvalue = [1, 0]"] ;
359 -> 361 ;
362 [label="X[29] <= 500.99\ngini = 0.5\nsamples = 27\nvalue = [20, 20]"] ;
346 -> 362 ;
363 [label="gini = 0.0\nsamples = 2\nvalue = [3, 0]"] ;
362 -> 363 ;
364 [label="X[0] <= 705.5\ngini = 0.497\nsamples = 25\nvalue = [17, 20]"] ;
362 -> 364 ;
365 [label="X[19] <= 123.575\ngini = 0.278\nsamples = 9\nvalue = [2, 10]"] ;
364 -> 365 ;
366 [label="X[4] <= 215.775\ngini = 0.165\nsamples = 8\nvalue = [1, 10]"] ;
365 -> 366 ;
367 [label="X[24] <= 500.495\ngini = 0.375\nsamples = 4\nvalue = [1, 3]"] ;
366 -> 367 ;
368 [label="gini = 0.0\nsamples = 1\nvalue = [1, 0]"] ;
367 -> 368 ;
369 [label="gini = 0.0\nsamples = 3\nvalue = [0, 3]"] ;
367 -> 369 ;
370 [label="gini = 0.0\nsamples = 4\nvalue = [0, 7]"] ;
366 -> 370 ;
371 [label="gini = 0.0\nsamples = 1\nvalue = [1, 0]"] ;
365 -> 371 ;
372 [label="X[5] <= 463.167\ngini = 0.48\nsamples = 16\nvalue = [15, 10]"] ;
364 -> 372 ;
373 [label="X[24] <= 1079.75\ngini = 0.401\nsamples = 10\nvalue = [13, 5]"] ;
372 -> 373 ;
374 [label="gini = 0.0\nsamples = 4\nvalue = [10, 0]"] ;
373 -> 374 ;
375 [label="X[25] <= 866.0\ngini = 0.469\nsamples = 6\nvalue = [3, 5]"] ;
373 -> 375 ;
376 [label="X[18] <= 51.5\ngini = 0.278\nsamples = 4\nvalue = [1, 5]"] ;
375 -> 376 ;
377 [label="gini = 0.0\nsamples = 1\nvalue = [1, 0]"] ;
376 -> 377 ;
378 [label="gini = 0.0\nsamples = 3\nvalue = [0, 5]"] ;
376 -> 378 ;
379 [label="gini = 0.0\nsamples = 2\nvalue = [2, 0]"] ;
375 -> 379 ;
380 [label="X[26] <= 1791.545\ngini = 0.408\nsamples = 6\nvalue = [2, 5]"] ;
372 -> 380 ;
381 [label="gini = 0.0\nsamples = 4\nvalue = [0, 5]"] ;
380 -> 381 ;
382 [label="gini = 0.0\nsamples = 2\nvalue = [2, 0]"] ;
380 -> 382 ;
383 [label="X[24] <= 74.5\ngini = 0.1\nsamples = 10\nvalue = [1, 18]"] ;
345 -> 383 ;
384 [label="X[11] <= 2603.825\ngini = 0.245\nsamples = 3\nvalue = [1, 6]"] ;
383 -> 384 ;
385 [label="gini = 0.0\nsamples = 1\nvalue = [1, 0]"] ;
384 -> 385 ;
386 [label="gini = 0.0\nsamples = 2\nvalue = [0, 6]"] ;
384 -> 386 ;
387 [label="gini = 0.0\nsamples = 7\nvalue = [0, 12]"] ;
383 -> 387 ;
388 [label="gini = 0.0\nsamples = 2\nvalue = [3, 0]"] ;
344 -> 388 ;
389 [label="gini = 0.0\nsamples = 7\nvalue = [0, 13]"] ;
343 -> 389 ;
390 [label="X[9] <= 3463.5\ngini = 0.465\nsamples = 14\nvalue = [12, 7]"] ;
342 -> 390 ;
391 [label="X[29] <= 3261.0\ngini = 0.496\nsamples = 8\nvalue = [5, 6]"] ;
390 -> 391 ;
392 [label="X[29] <= 2748.5\ngini = 0.469\nsamples = 6\nvalue = [5, 3]"] ;
391 -> 392 ;
393 [label="X[0] <= 881.667\ngini = 0.48\nsamples = 4\nvalue = [2, 3]"] ;
392 -> 393 ;
394 [label="gini = 0.0\nsamples = 2\nvalue = [2, 0]"] ;
393 -> 394 ;
395 [label="gini = 0.0\nsamples = 2\nvalue = [0, 3]"] ;
393 -> 395 ;
396 [label="gini = 0.0\nsamples = 2\nvalue = [3, 0]"] ;
392 -> 396 ;
397 [label="gini = 0.0\nsamples = 2\nvalue = [0, 3]"] ;
391 -> 397 ;
398 [label="X[10] <= 137.5\ngini = 0.219\nsamples = 6\nvalue = [7, 1]"] ;
390 -> 398 ;
399 [label="gini = 0.0\nsamples = 5\nvalue = [7, 0]"] ;
398 -> 399 ;
400 [label="gini = 0.0\nsamples = 1\nvalue = [0, 1]"] ;
398 -> 400 ;
401 [label="X[26] <= 9746.92\ngini = 0.153\nsamples = 16\nvalue = [2, 22]"] ;
341 -> 401 ;
402 [label="gini = 0.0\nsamples = 10\nvalue = [0, 16]"] ;
401 -> 402 ;
403 [label="X[9] <= 14886.354\ngini = 0.375\nsamples = 6\nvalue = [2, 6]"] ;
401 -> 403 ;
404 [label="X[15] <= 12940.779\ngini = 0.444\nsamples = 3\nvalue = [2, 1]"] ;
403 -> 404 ;
405 [label="gini = 0.0\nsamples = 1\nvalue = [0, 1]"] ;
404 -> 405 ;
406 [label="gini = 0.0\nsamples = 2\nvalue = [2, 0]"] ;
404 -> 406 ;
407 [label="gini = 0.0\nsamples = 3\nvalue = [0, 5]"] ;
403 -> 407 ;
408 [label="X[7] <= 522.5\ngini = 0.332\nsamples = 13\nvalue = [15, 4]"] ;
340 -> 408 ;
409 [label="gini = 0.0\nsamples = 1\nvalue = [0, 3]"] ;
408 -> 409 ;
410 [label="X[9] <= 1454.55\ngini = 0.117\nsamples = 12\nvalue = [15, 1]"] ;
408 -> 410 ;
411 [label="X[21] <= 2112.55\ngini = 0.444\nsamples = 3\nvalue = [2, 1]"] ;
410 -> 411 ;
412 [label="gini = 0.0\nsamples = 1\nvalue = [0, 1]"] ;
411 -> 412 ;
413 [label="gini = 0.0\nsamples = 2\nvalue = [2, 0]"] ;
411 -> 413 ;
414 [label="gini = 0.0\nsamples = 9\nvalue = [13, 0]"] ;
410 -> 414 ;
415 [label="X[14] <= 1005.0\ngini = 0.482\nsamples = 941\nvalue = [879, 601]"] ;
71 -> 415 ;
416 [label="X[14] <= 814.5\ngini = 0.486\nsamples = 99\nvalue = [62, 87]"] ;
415 -> 416 ;
417 [label="X[21] <= 26457.5\ngini = 0.498\nsamples = 84\nvalue = [60, 69]"] ;
416 -> 417 ;
418 [label="X[10] <= 234.0\ngini = 0.485\nsamples = 66\nvalue = [43, 61]"] ;
417 -> 418 ;
419 [label="X[15] <= 781.5\ngini = 0.476\nsamples = 64\nvalue = [39, 61]"] ;
418 -> 419 ;
420 [label="X[24] <= 4.5\ngini = 0.462\nsamples = 60\nvalue = [34, 60]"] ;
419 -> 420 ;
421 [label="X[14] <= 214.5\ngini = 0.5\nsamples = 29\nvalue = [20, 21]"] ;
420 -> 421 ;
422 [label="X[27] <= 11284.17\ngini = 0.408\nsamples = 14\nvalue = [15, 6]"] ;
421 -> 422 ;
423 [label="X[23] <= 209.5\ngini = 0.153\nsamples = 9\nvalue = [11, 1]"] ;
422 -> 423 ;
424 [label="gini = 0.0\nsamples = 8\nvalue = [11, 0]"] ;
423 -> 424 ;
425 [label="gini = 0.0\nsamples = 1\nvalue = [0, 1]"] ;
423 -> 425 ;
426 [label="X[11] <= 132.775\ngini = 0.494\nsamples = 5\nvalue = [4, 5]"] ;
422 -> 426 ;
427 [label="gini = 0.0\nsamples = 3\nvalue = [0, 5]"] ;
426 -> 427 ;
428 [label="gini = 0.0\nsamples = 2\nvalue = [4, 0]"] ;
426 -> 428 ;
429 [label="X[22] <= 39.5\ngini = 0.375\nsamples = 15\nvalue = [5, 15]"] ;
421 -> 429 ;
430 [label="X[15] <= 305.5\ngini = 0.496\nsamples = 9\nvalue = [5, 6]"] ;
429 -> 430 ;
431 [label="gini = 0.0\nsamples = 2\nvalue = [0, 3]"] ;
430 -> 431 ;
432 [label="X[7] <= 428.5\ngini = 0.469\nsamples = 7\nvalue = [5, 3]"] ;
430 -> 432 ;
433 [label="X[15] <= 717.0\ngini = 0.278\nsamples = 5\nvalue = [5, 1]"] ;
432 -> 433 ;
434 [label="gini = 0.0\nsamples = 4\nvalue = [5, 0]"] ;
433 -> 434 ;
435 [label="gini = 0.0\nsamples = 1\nvalue = [0, 1]"] ;
433 -> 435 ;
436 [label="gini = 0.0\nsamples = 2\nvalue = [0, 2]"] ;
432 -> 436 ;
437 [label="gini = 0.0\nsamples = 6\nvalue = [0, 9]"] ;
429 -> 437 ;
438 [label="X[24] <= 171.5\ngini = 0.389\nsamples = 31\nvalue = [14, 39]"] ;
420 -> 438 ;
439 [label="gini = 0.0\nsamples = 12\nvalue = [0, 21]"] ;
438 -> 439 ;
440 [label="X[27] <= 14805.0\ngini = 0.492\nsamples = 19\nvalue = [14, 18]"] ;
438 -> 440 ;
441 [label="X[13] <= 222.0\ngini = 0.472\nsamples = 13\nvalue = [13, 8]"] ;
440 -> 441 ;
442 [label="X[25] <= 240.5\ngini = 0.498\nsamples = 11\nvalue = [9, 8]"] ;
441 -> 442 ;
443 [label="X[21] <= 8138.5\ngini = 0.346\nsamples = 7\nvalue = [7, 2]"] ;
442 -> 443 ;
444 [label="X[14] <= 514.5\ngini = 0.444\nsamples = 3\nvalue = [1, 2]"] ;
443 -> 444 ;
445 [label="gini = 0.0\nsamples = 1\nvalue = [1, 0]"] ;
444 -> 445 ;
446 [label="gini = 0.0\nsamples = 2\nvalue = [0, 2]"] ;
444 -> 446 ;
447 [label="gini = 0.0\nsamples = 4\nvalue = [6, 0]"] ;
443 -> 447 ;
448 [label="X[18] <= 10365.5\ngini = 0.375\nsamples = 4\nvalue = [2, 6]"] ;
442 -> 448 ;
449 [label="gini = 0.0\nsamples = 2\nvalue = [0, 4]"] ;
448 -> 449 ;
450 [label="X[26] <= 434.5\ngini = 0.5\nsamples = 2\nvalue = [2, 2]"] ;
448 -> 450 ;
451 [label="gini = 0.0\nsamples = 1\nvalue = [2, 0]"] ;
450 -> 451 ;
452 [label="gini = 0.0\nsamples = 1\nvalue = [0, 2]"] ;
450 -> 452 ;
453 [label="gini = 0.0\nsamples = 2\nvalue = [4, 0]"] ;
441 -> 453 ;
454 [label="X[0] <= 191.0\ngini = 0.165\nsamples = 6\nvalue = [1, 10]"] ;
440 -> 454 ;
455 [label="X[21] <= 14346.0\ngini = 0.32\nsamples = 3\nvalue = [1, 4]"] ;
454 -> 455 ;
456 [label="gini = 0.0\nsamples = 1\nvalue = [1, 0]"] ;
455 -> 456 ;
457 [label="gini = 0.0\nsamples = 2\nvalue = [0, 4]"] ;
455 -> 457 ;
458 [label="gini = 0.0\nsamples = 3\nvalue = [0, 6]"] ;
454 -> 458 ;
459 [label="X[19] <= 54.5\ngini = 0.278\nsamples = 4\nvalue = [5, 1]"] ;
419 -> 459 ;
460 [label="gini = 0.0\nsamples = 3\nvalue = [5, 0]"] ;
459 -> 460 ;
461 [label="gini = 0.0\nsamples = 1\nvalue = [0, 1]"] ;
459 -> 461 ;
462 [label="gini = 0.0\nsamples = 2\nvalue = [4, 0]"] ;
418 -> 462 ;
463 [label="X[15] <= 1525.47\ngini = 0.435\nsamples = 18\nvalue = [17, 8]"] ;
417 -> 463 ;
464 [label="X[17] <= 42950.0\ngini = 0.386\nsamples = 17\nvalue = [17, 6]"] ;
463 -> 464 ;
465 [label="X[2] <= 0.5\ngini = 0.308\nsamples = 16\nvalue = [17, 4]"] ;
464 -> 465 ;
466 [label="X[21] <= 87925.781\ngini = 0.375\nsamples = 3\nvalue = [1, 3]"] ;
465 -> 466 ;
467 [label="gini = 0.0\nsamples = 2\nvalue = [0, 3]"] ;
466 -> 467 ;
468 [label="gini = 0.0\nsamples = 1\nvalue = [1, 0]"] ;
466 -> 468 ;
469 [label="X[28] <= 67426.398\ngini = 0.111\nsamples = 13\nvalue = [16, 1]"] ;
465 -> 469 ;
470 [label="gini = 0.0\nsamples = 12\nvalue = [16, 0]"] ;
469 -> 470 ;
471 [label="gini = 0.0\nsamples = 1\nvalue = [0, 1]"] ;
469 -> 471 ;
472 [label="gini = 0.0\nsamples = 1\nvalue = [0, 2]"] ;
464 -> 472 ;
473 [label="gini = 0.0\nsamples = 1\nvalue = [0, 2]"] ;
463 -> 473 ;
474 [label="X[27] <= 5364.275\ngini = 0.18\nsamples = 15\nvalue = [2, 18]"] ;
416 -> 474 ;
475 [label="X[18] <= 149.0\ngini = 0.375\nsamples = 6\nvalue = [2, 6]"] ;
474 -> 475 ;
476 [label="gini = 0.0\nsamples = 1\nvalue = [1, 0]"] ;
475 -> 476 ;
477 [label="X[27] <= 408.0\ngini = 0.245\nsamples = 5\nvalue = [1, 6]"] ;
475 -> 477 ;
478 [label="X[9] <= 861.5\ngini = 0.444\nsamples = 2\nvalue = [1, 2]"] ;
477 -> 478 ;
479 [label="gini = 0.0\nsamples = 1\nvalue = [0, 2]"] ;
478 -> 479 ;
480 [label="gini = 0.0\nsamples = 1\nvalue = [1, 0]"] ;
478 -> 480 ;
481 [label="gini = 0.0\nsamples = 3\nvalue = [0, 4]"] ;
477 -> 481 ;
482 [label="gini = 0.0\nsamples = 9\nvalue = [0, 12]"] ;
474 -> 482 ;
483 [label="X[3] <= 11724.875\ngini = 0.474\nsamples = 842\nvalue = [817, 514]"] ;
415 -> 483 ;
484 [label="X[21] <= 8301.1\ngini = 0.47\nsamples = 820\nvalue = [808, 490]"] ;
483 -> 484 ;
485 [label="X[27] <= 8795.375\ngini = 0.428\nsamples = 260\nvalue = [276, 124]"] ;
484 -> 485 ;
486 [label="X[2] <= 1.5\ngini = 0.386\nsamples = 198\nvalue = [226, 80]"] ;
485 -> 486 ;
487 [label="X[23] <= 2890.5\ngini = 0.334\nsamples = 167\nvalue = [201, 54]"] ;
486 -> 487 ;
488 [label="X[27] <= 7414.875\ngini = 0.184\nsamples = 66\nvalue = [96, 11]"] ;
487 -> 488 ;
489 [label="X[8] <= 147.075\ngini = 0.171\nsamples = 65\nvalue = [96, 10]"] ;
488 -> 489 ;
490 [label="X[12] <= 3.72\ngini = 0.201\nsamples = 56\nvalue = [78, 10]"] ;
489 -> 490 ;
491 [label="X[21] <= 3808.75\ngini = 0.171\nsamples = 53\nvalue = [77, 8]"] ;
490 -> 491 ;
492 [label="gini = 0.0\nsamples = 1\nvalue = [0, 1]"] ;
491 -> 492 ;
493 [label="X[21] <= 6556.0\ngini = 0.153\nsamples = 52\nvalue = [77, 7]"] ;
491 -> 493 ;
494 [label="X[18] <= 6261.0\ngini = 0.222\nsamples = 34\nvalue = [48, 7]"] ;
493 -> 494 ;
495 [label="X[27] <= 4758.0\ngini = 0.198\nsamples = 33\nvalue = [48, 6]"] ;
494 -> 495 ;
496 [label="X[1] <= 177.917\ngini = 0.102\nsamples = 22\nvalue = [35, 2]"] ;
495 -> 496 ;
497 [label="gini = 0.0\nsamples = 19\nvalue = [33, 0]"] ;
496 -> 497 ;
498 [label="X[0] <= 648.25\ngini = 0.5\nsamples = 3\nvalue = [2, 2]"] ;
496 -> 498 ;
499 [label="gini = 0.0\nsamples = 2\nvalue = [0, 2]"] ;
498 -> 499 ;
500 [label="gini = 0.0\nsamples = 1\nvalue = [2, 0]"] ;
498 -> 500 ;
501 [label="X[23] <= 1192.5\ngini = 0.36\nsamples = 11\nvalue = [13, 4]"] ;
495 -> 501 ;
502 [label="X[18] <= 1163.5\ngini = 0.48\nsamples = 7\nvalue = [6, 4]"] ;
501 -> 502 ;
503 [label="X[18] <= 344.5\ngini = 0.444\nsamples = 6\nvalue = [6, 3]"] ;
502 -> 503 ;
504 [label="X[27] <= 5496.5\ngini = 0.469\nsamples = 5\nvalue = [5, 3]"] ;
503 -> 504 ;
505 [label="X[21] <= 5086.5\ngini = 0.278\nsamples = 4\nvalue = [5, 1]"] ;
504 -> 505 ;
506 [label="X[21] <= 4942.1\ngini = 0.5\nsamples = 2\nvalue = [1, 1]"] ;
505 -> 506 ;
507 [label="gini = 0.0\nsamples = 1\nvalue = [1, 0]"] ;
506 -> 507 ;
508 [label="gini = 0.0\nsamples = 1\nvalue = [0, 1]"] ;
506 -> 508 ;
509 [label="gini = 0.0\nsamples = 2\nvalue = [4, 0]"] ;
505 -> 509 ;
510 [label="gini = 0.0\nsamples = 1\nvalue = [0, 2]"] ;
504 -> 510 ;
511 [label="gini = 0.0\nsamples = 1\nvalue = [1, 0]"] ;
503 -> 511 ;
512 [label="gini = 0.0\nsamples = 1\nvalue = [0, 1]"] ;
502 -> 512 ;
513 [label="gini = 0.0\nsamples = 4\nvalue = [7, 0]"] ;
501 -> 513 ;
514 [label="gini = 0.0\nsamples = 1\nvalue = [0, 1]"] ;
494 -> 514 ;
515 [label="gini = 0.0\nsamples = 18\nvalue = [29, 0]"] ;
493 -> 515 ;
516 [label="X[15] <= 1650.855\ngini = 0.444\nsamples = 3\nvalue = [1, 2]"] ;
490 -> 516 ;
517 [label="gini = 0.0\nsamples = 1\nvalue = [1, 0]"] ;
516 -> 517 ;
518 [label="gini = 0.0\nsamples = 2\nvalue = [0, 2]"] ;
516 -> 518 ;
519 [label="gini = 0.0\nsamples = 9\nvalue = [18, 0]"] ;
489 -> 519 ;
520 [label="gini = 0.0\nsamples = 1\nvalue = [0, 1]"] ;
488 -> 520 ;
521 [label="X[27] <= 7427.375\ngini = 0.412\nsamples = 101\nvalue = [105, 43]"] ;
487 -> 521 ;
522 [label="X[23] <= 3192.0\ngini = 0.431\nsamples = 96\nvalue = [94, 43]"] ;
521 -> 522 ;
523 [label="gini = 0.0\nsamples = 4\nvalue = [0, 5]"] ;
522 -> 523 ;
524 [label="X[15] <= 4674.125\ngini = 0.41\nsamples = 92\nvalue = [94, 38]"] ;
522 -> 524 ;
525 [label="X[23] <= 4170.825\ngini = 0.489\nsamples = 35\nvalue = [27, 20]"] ;
524 -> 525 ;
526 [label="X[18] <= 5192.5\ngini = 0.375\nsamples = 23\nvalue = [24, 8]"] ;
525 -> 526 ;
527 [label="X[11] <= 1890.5\ngini = 0.269\nsamples = 17\nvalue = [21, 4]"] ;
526 -> 527 ;
528 [label="X[29] <= 894.0\ngini = 0.48\nsamples = 5\nvalue = [2, 3]"] ;
527 -> 528 ;
529 [label="X[20] <= 3883.4\ngini = 0.5\nsamples = 4\nvalue = [2, 2]"] ;
528 -> 529 ;
530 [label="gini = 0.0\nsamples = 2\nvalue = [0, 2]"] ;
529 -> 530 ;
531 [label="gini = 0.0\nsamples = 2\nvalue = [2, 0]"] ;
529 -> 531 ;
532 [label="gini = 0.0\nsamples = 1\nvalue = [0, 1]"] ;
528 -> 532 ;
533 [label="X[1] <= 2163.985\ngini = 0.095\nsamples = 12\nvalue = [19, 1]"] ;
527 -> 533 ;
534 [label="gini = 0.0\nsamples = 11\nvalue = [19, 0]"] ;
533 -> 534 ;
535 [label="gini = 0.0\nsamples = 1\nvalue = [0, 1]"] ;
533 -> 535 ;
536 [label="X[1] <= 523.75\ngini = 0.49\nsamples = 6\nvalue = [3, 4]"] ;
526 -> 536 ;
537 [label="gini = 0.0\nsamples = 3\nvalue = [3, 0]"] ;
536 -> 537 ;
538 [label="gini = 0.0\nsamples = 3\nvalue = [0, 4]"] ;
536 -> 538 ;
539 [label="X[27] <= 4322.5\ngini = 0.32\nsamples = 12\nvalue = [3, 12]"] ;
525 -> 539 ;
540 [label="X[23] <= 4204.5\ngini = 0.165\nsamples = 8\nvalue = [1, 10]"] ;
539 -> 540 ;
541 [label="X[11] <= 1871.0\ngini = 0.444\nsamples = 2\nvalue = [1, 2]"] ;
540 -> 541 ;
542 [label="gini = 0.0\nsamples = 1\nvalue = [0, 2]"] ;
541 -> 542 ;
543 [label="gini = 0.0\nsamples = 1\nvalue = [1, 0]"] ;
541 -> 543 ;
544 [label="gini = 0.0\nsamples = 6\nvalue = [0, 8]"] ;
540 -> 544 ;
545 [label="X[5] <= 1395.674\ngini = 0.5\nsamples = 4\nvalue = [2, 2]"] ;
539 -> 545 ;
546 [label="gini = 0.0\nsamples = 2\nvalue = [0, 2]"] ;
545 -> 546 ;
547 [label="gini = 0.0\nsamples = 2\nvalue = [2, 0]"] ;
545 -> 547 ;
548 [label="X[9] <= 5140.27\ngini = 0.334\nsamples = 57\nvalue = [67, 18]"] ;
524 -> 548 ;
549 [label="X[27] <= 7393.4\ngini = 0.171\nsamples = 32\nvalue = [48, 5]"] ;
548 -> 549 ;
550 [label="X[6] <= 768.5\ngini = 0.142\nsamples = 31\nvalue = [48, 4]"] ;
549 -> 550 ;
551 [label="X[1] <= 1225.369\ngini = 0.049\nsamples = 24\nvalue = [39, 1]"] ;
550 -> 551 ;
552 [label="gini = 0.0\nsamples = 23\nvalue = [39, 0]"] ;
551 -> 552 ;
553 [label="gini = 0.0\nsamples = 1\nvalue = [0, 1]"] ;
551 -> 553 ;
554 [label="X[23] <= 6230.55\ngini = 0.375\nsamples = 7\nvalue = [9, 3]"] ;
550 -> 554 ;
555 [label="X[6] <= 4811.575\ngini = 0.18\nsamples = 6\nvalue = [9, 1]"] ;
554 -> 555 ;
556 [label="gini = 0.0\nsamples = 4\nvalue = [8, 0]"] ;
555 -> 556 ;
557 [label="X[15] <= 4918.5\ngini = 0.5\nsamples = 2\nvalue = [1, 1]"] ;
555 -> 557 ;
558 [label="gini = 0.0\nsamples = 1\nvalue = [0, 1]"] ;
557 -> 558 ;
559 [label="gini = 0.0\nsamples = 1\nvalue = [1, 0]"] ;
557 -> 559 ;
560 [label="gini = 0.0\nsamples = 1\nvalue = [0, 2]"] ;
554 -> 560 ;
561 [label="gini = 0.0\nsamples = 1\nvalue = [0, 1]"] ;
549 -> 561 ;
562 [label="X[27] <= 2686.375\ngini = 0.482\nsamples = 25\nvalue = [19, 13]"] ;
548 -> 562 ;
563 [label="X[22] <= 74.5\ngini = 0.266\nsamples = 15\nvalue = [16, 3]"] ;
562 -> 563 ;
564 [label="X[6] <= 3079.5\ngini = 0.111\nsamples = 13\nvalue = [16, 1]"] ;
563 -> 564 ;
565 [label="gini = 0.0\nsamples = 8\nvalue = [11, 0]"] ;
564 -> 565 ;
566 [label="X[25] <= 6324.5\ngini = 0.278\nsamples = 5\nvalue = [5, 1]"] ;
564 -> 566 ;
567 [label="gini = 0.0\nsamples = 1\nvalue = [0, 1]"] ;
566 -> 567 ;
568 [label="gini = 0.0\nsamples = 4\nvalue = [5, 0]"] ;
566 -> 568 ;
569 [label="gini = 0.0\nsamples = 2\nvalue = [0, 2]"] ;
563 -> 569 ;
570 [label="X[18] <= 2211.5\ngini = 0.355\nsamples = 10\nvalue = [3, 10]"] ;
562 -> 570 ;
571 [label="X[9] <= 5916.15\ngini = 0.278\nsamples = 9\nvalue = [2, 10]"] ;
570 -> 571 ;
572 [label="gini = 0.0\nsamples = 4\nvalue = [0, 6]"] ;
571 -> 572 ;
573 [label="X[15] <= 6309.5\ngini = 0.444\nsamples = 5\nvalue = [2, 4]"] ;
571 -> 573 ;
574 [label="gini = 0.0\nsamples = 1\nvalue = [1, 0]"] ;
573 -> 574 ;
575 [label="X[28] <= 6459.5\ngini = 0.32\nsamples = 4\nvalue = [1, 4]"] ;
573 -> 575 ;
576 [label="gini = 0.0\nsamples = 3\nvalue = [0, 4]"] ;
575 -> 576 ;
577 [label="gini = 0.0\nsamples = 1\nvalue = [1, 0]"] ;
575 -> 577 ;
578 [label="gini = 0.0\nsamples = 1\nvalue = [1, 0]"] ;
570 -> 578 ;
579 [label="gini = 0.0\nsamples = 5\nvalue = [11, 0]"] ;
521 -> 579 ;
580 [label="X[25] <= 2402.75\ngini = 0.5\nsamples = 31\nvalue = [25, 26]"] ;
486 -> 580 ;
581 [label="X[7] <= 511.0\ngini = 0.484\nsamples = 24\nvalue = [16, 23]"] ;
580 -> 581 ;
582 [label="X[29] <= 463.0\ngini = 0.426\nsamples = 8\nvalue = [9, 4]"] ;
581 -> 582 ;
583 [label="X[24] <= 106.5\ngini = 0.494\nsamples = 5\nvalue = [5, 4]"] ;
582 -> 583 ;
584 [label="X[4] <= 49.0\ngini = 0.469\nsamples = 4\nvalue = [5, 3]"] ;
583 -> 584 ;
585 [label="X[23] <= 6657.5\ngini = 0.5\nsamples = 3\nvalue = [3, 3]"] ;
584 -> 585 ;
586 [label="X[10] <= 99.5\ngini = 0.375\nsamples = 2\nvalue = [3, 1]"] ;
585 -> 586 ;
587 [label="gini = 0.0\nsamples = 1\nvalue = [0, 1]"] ;
586 -> 587 ;
588 [label="gini = 0.0\nsamples = 1\nvalue = [3, 0]"] ;
586 -> 588 ;
589 [label="gini = 0.0\nsamples = 1\nvalue = [0, 2]"] ;
585 -> 589 ;
590 [label="gini = 0.0\nsamples = 1\nvalue = [2, 0]"] ;
584 -> 590 ;
591 [label="gini = 0.0\nsamples = 1\nvalue = [0, 1]"] ;
583 -> 591 ;
592 [label="gini = 0.0\nsamples = 3\nvalue = [4, 0]"] ;
582 -> 592 ;
593 [label="X[21] <= 5682.665\ngini = 0.393\nsamples = 16\nvalue = [7, 19]"] ;
581 -> 593 ;
594 [label="gini = 0.0\nsamples = 8\nvalue = [0, 15]"] ;
593 -> 594 ;
595 [label="X[26] <= 3697.0\ngini = 0.463\nsamples = 8\nvalue = [7, 4]"] ;
593 -> 595 ;
596 [label="X[9] <= 1252.0\ngini = 0.219\nsamples = 7\nvalue = [7, 1]"] ;
595 -> 596 ;
597 [label="X[7] <= 807.0\ngini = 0.5\nsamples = 2\nvalue = [1, 1]"] ;
596 -> 597 ;
598 [label="gini = 0.0\nsamples = 1\nvalue = [1, 0]"] ;
597 -> 598 ;
599 [label="gini = 0.0\nsamples = 1\nvalue = [0, 1]"] ;
597 -> 599 ;
600 [label="gini = 0.0\nsamples = 5\nvalue = [6, 0]"] ;
596 -> 600 ;
601 [label="gini = 0.0\nsamples = 1\nvalue = [0, 3]"] ;
595 -> 601 ;
602 [label="X[9] <= 2630.75\ngini = 0.375\nsamples = 7\nvalue = [9, 3]"] ;
580 -> 602 ;
603 [label="gini = 0.0\nsamples = 4\nvalue = [9, 0]"] ;
602 -> 603 ;
604 [label="gini = 0.0\nsamples = 3\nvalue = [0, 3]"] ;
602 -> 604 ;
605 [label="X[9] <= 35417.137\ngini = 0.498\nsamples = 62\nvalue = [50, 44]"] ;
485 -> 605 ;
606 [label="X[20] <= 23062.775\ngini = 0.489\nsamples = 58\nvalue = [50, 37]"] ;
605 -> 606 ;
607 [label="X[27] <= 9610.15\ngini = 0.5\nsamples = 51\nvalue = [39, 37]"] ;
606 -> 607 ;
608 [label="gini = 0.0\nsamples = 3\nvalue = [0, 6]"] ;
607 -> 608 ;
609 [label="X[17] <= 9182.955\ngini = 0.493\nsamples = 48\nvalue = [39, 31]"] ;
607 -> 609 ;
610 [label="X[22] <= 109.0\ngini = 0.32\nsamples = 13\nvalue = [16, 4]"] ;
609 -> 610 ;
611 [label="X[20] <= 2299.87\ngini = 0.198\nsamples = 11\nvalue = [16, 2]"] ;
610 -> 611 ;
612 [label="gini = 0.0\nsamples = 1\nvalue = [0, 1]"] ;
611 -> 612 ;
613 [label="X[27] <= 10047.59\ngini = 0.111\nsamples = 10\nvalue = [16, 1]"] ;
611 -> 613 ;
614 [label="X[23] <= 4438.875\ngini = 0.444\nsamples = 2\nvalue = [2, 1]"] ;
613 -> 614 ;
615 [label="gini = 0.0\nsamples = 1\nvalue = [2, 0]"] ;
614 -> 615 ;
616 [label="gini = 0.0\nsamples = 1\nvalue = [0, 1]"] ;
614 -> 616 ;
617 [label="gini = 0.0\nsamples = 8\nvalue = [14, 0]"] ;
613 -> 617 ;
618 [label="gini = 0.0\nsamples = 2\nvalue = [0, 2]"] ;
610 -> 618 ;
619 [label="X[9] <= 1420.405\ngini = 0.497\nsamples = 35\nvalue = [23, 27]"] ;
609 -> 619 ;
620 [label="X[20] <= 10562.38\ngini = 0.332\nsamples = 12\nvalue = [4, 15]"] ;
619 -> 620 ;
621 [label="gini = 0.0\nsamples = 7\nvalue = [0, 11]"] ;
620 -> 621 ;
622 [label="X[28] <= 1574.5\ngini = 0.5\nsamples = 5\nvalue = [4, 4]"] ;
620 -> 622 ;
623 [label="X[0] <= 308.705\ngini = 0.32\nsamples = 4\nvalue = [1, 4]"] ;
622 -> 623 ;
624 [label="gini = 0.0\nsamples = 3\nvalue = [0, 4]"] ;
623 -> 624 ;
625 [label="gini = 0.0\nsamples = 1\nvalue = [1, 0]"] ;
623 -> 625 ;
626 [label="gini = 0.0\nsamples = 1\nvalue = [3, 0]"] ;
622 -> 626 ;
627 [label="X[0] <= 2652.208\ngini = 0.475\nsamples = 23\nvalue = [19, 12]"] ;
619 -> 627 ;
628 [label="X[6] <= 6009.5\ngini = 0.346\nsamples = 12\nvalue = [14, 4]"] ;
627 -> 628 ;
629 [label="X[24] <= 118.5\ngini = 0.219\nsamples = 11\nvalue = [14, 2]"] ;
628 -> 629 ;
630 [label="X[20] <= 19377.85\ngini = 0.48\nsamples = 4\nvalue = [3, 2]"] ;
629 -> 630 ;
631 [label="X[16] <= 2073.2\ngini = 0.444\nsamples = 3\nvalue = [1, 2]"] ;
630 -> 631 ;
632 [label="gini = 0.0\nsamples = 2\nvalue = [0, 2]"] ;
631 -> 632 ;
633 [label="gini = 0.0\nsamples = 1\nvalue = [1, 0]"] ;
631 -> 633 ;
634 [label="gini = 0.0\nsamples = 1\nvalue = [2, 0]"] ;
630 -> 634 ;
635 [label="gini = 0.0\nsamples = 7\nvalue = [11, 0]"] ;
629 -> 635 ;
636 [label="gini = 0.0\nsamples = 1\nvalue = [0, 2]"] ;
628 -> 636 ;
637 [label="X[14] <= 11607.65\ngini = 0.473\nsamples = 11\nvalue = [5, 8]"] ;
627 -> 637 ;
638 [label="gini = 0.0\nsamples = 3\nvalue = [0, 5]"] ;
637 -> 638 ;
639 [label="X[27] <= 25125.109\ngini = 0.469\nsamples = 8\nvalue = [5, 3]"] ;
637 -> 639 ;
640 [label="gini = 0.0\nsamples = 5\nvalue = [5, 0]"] ;
639 -> 640 ;
641 [label="gini = 0.0\nsamples = 3\nvalue = [0, 3]"] ;
639 -> 641 ;
642 [label="gini = 0.0\nsamples = 7\nvalue = [11, 0]"] ;
606 -> 642 ;
643 [label="gini = 0.0\nsamples = 4\nvalue = [0, 7]"] ;
605 -> 643 ;
644 [label="X[21] <= 8369.125\ngini = 0.483\nsamples = 560\nvalue = [532, 366]"] ;
484 -> 644 ;
645 [label="gini = 0.0\nsamples = 5\nvalue = [0, 7]"] ;
644 -> 645 ;
646 [label="X[4] <= 425.143\ngini = 0.481\nsamples = 555\nvalue = [532, 359]"] ;
644 -> 646 ;
647 [label="X[21] <= 41307.344\ngini = 0.46\nsamples = 281\nvalue = [282, 158]"] ;
646 -> 647 ;
648 [label="X[4] <= 249.0\ngini = 0.48\nsamples = 236\nvalue = [221, 148]"] ;
647 -> 648 ;
649 [label="X[6] <= 133.538\ngini = 0.491\nsamples = 218\nvalue = [190, 145]"] ;
648 -> 649 ;
650 [label="X[26] <= 20.5\ngini = 0.483\nsamples = 209\nvalue = [187, 129]"] ;
649 -> 650 ;
651 [label="X[22] <= 149.5\ngini = 0.487\nsamples = 204\nvalue = [178, 129]"] ;
650 -> 651 ;
652 [label="X[28] <= 216.75\ngini = 0.472\nsamples = 146\nvalue = [135, 83]"] ;
651 -> 652 ;
653 [label="X[27] <= 3148.0\ngini = 0.491\nsamples = 107\nvalue = [89, 68]"] ;
652 -> 653 ;
654 [label="X[20] <= 6233.5\ngini = 0.395\nsamples = 32\nvalue = [35, 13]"] ;
653 -> 654 ;
655 [label="X[14] <= 2955.5\ngini = 0.49\nsamples = 8\nvalue = [6, 8]"] ;
654 -> 655 ;
656 [label="gini = 0.0\nsamples = 3\nvalue = [4, 0]"] ;
655 -> 656 ;
657 [label="X[20] <= 4263.0\ngini = 0.32\nsamples = 5\nvalue = [2, 8]"] ;
655 -> 657 ;
658 [label="X[20] <= 3143.0\ngini = 0.48\nsamples = 3\nvalue = [2, 3]"] ;
657 -> 658 ;
659 [label="gini = 0.0\nsamples = 1\nvalue = [0, 3]"] ;
658 -> 659 ;
660 [label="gini = 0.0\nsamples = 2\nvalue = [2, 0]"] ;
658 -> 660 ;
661 [label="gini = 0.0\nsamples = 2\nvalue = [0, 5]"] ;
657 -> 661 ;
662 [label="X[21] <= 28119.699\ngini = 0.251\nsamples = 24\nvalue = [29, 5]"] ;
654 -> 662 ;
663 [label="X[29] <= 57.5\ngini = 0.213\nsamples = 23\nvalue = [29, 4]"] ;
662 -> 663 ;
664 [label="X[23] <= 11424.0\ngini = 0.332\nsamples = 14\nvalue = [15, 4]"] ;
663 -> 664 ;
665 [label="X[18] <= 15965.5\ngini = 0.124\nsamples = 11\nvalue = [14, 1]"] ;
664 -> 665 ;
666 [label="gini = 0.0\nsamples = 6\nvalue = [10, 0]"] ;
665 -> 666 ;
667 [label="X[15] <= 3453.05\ngini = 0.32\nsamples = 5\nvalue = [4, 1]"] ;
665 -> 667 ;
668 [label="X[21] <= 18566.525\ngini = 0.375\nsamples = 4\nvalue = [3, 1]"] ;
667 -> 668 ;
669 [label="gini = 0.0\nsamples = 1\nvalue = [0, 1]"] ;
668 -> 669 ;
670 [label="gini = 0.0\nsamples = 3\nvalue = [3, 0]"] ;
668 -> 670 ;
671 [label="gini = 0.0\nsamples = 1\nvalue = [1, 0]"] ;
667 -> 671 ;
672 [label="X[9] <= 13813.5\ngini = 0.375\nsamples = 3\nvalue = [1, 3]"] ;
664 -> 672 ;
673 [label="gini = 0.0\nsamples = 2\nvalue = [0, 3]"] ;
672 -> 673 ;
674 [label="gini = 0.0\nsamples = 1\nvalue = [1, 0]"] ;
672 -> 674 ;
675 [label="gini = 0.0\nsamples = 9\nvalue = [14, 0]"] ;
663 -> 675 ;
676 [label="gini = 0.0\nsamples = 1\nvalue = [0, 1]"] ;
662 -> 676 ;
677 [label="X[22] <= 37.5\ngini = 0.5\nsamples = 75\nvalue = [54, 55]"] ;
653 -> 677 ;
678 [label="X[29] <= 2935.5\ngini = 0.498\nsamples = 70\nvalue = [48, 55]"] ;
677 -> 678 ;
679 [label="X[27] <= 4667.75\ngini = 0.493\nsamples = 62\nvalue = [41, 52]"] ;
678 -> 679 ;
680 [label="gini = 0.0\nsamples = 3\nvalue = [0, 7]"] ;
679 -> 680 ;
681 [label="X[21] <= 28239.301\ngini = 0.499\nsamples = 59\nvalue = [41, 45]"] ;
679 -> 681 ;
682 [label="X[20] <= 14490.0\ngini = 0.481\nsamples = 44\nvalue = [27, 40]"] ;
681 -> 682 ;
683 [label="X[14] <= 3229.5\ngini = 0.496\nsamples = 37\nvalue = [26, 31]"] ;
682 -> 683 ;
684 [label="X[23] <= 2359.59\ngini = 0.375\nsamples = 12\nvalue = [4, 12]"] ;
683 -> 684 ;
685 [label="X[14] <= 1227.5\ngini = 0.49\nsamples = 6\nvalue = [4, 3]"] ;
684 -> 685 ;
686 [label="gini = 0.0\nsamples = 2\nvalue = [0, 3]"] ;
685 -> 686 ;
687 [label="gini = 0.0\nsamples = 4\nvalue = [4, 0]"] ;
685 -> 687 ;
688 [label="gini = 0.0\nsamples = 6\nvalue = [0, 9]"] ;
684 -> 688 ;
689 [label="X[17] <= 16295.0\ngini = 0.497\nsamples = 25\nvalue = [22, 19]"] ;
683 -> 689 ;
690 [label="X[16] <= 298.89\ngini = 0.496\nsamples = 22\nvalue = [16, 19]"] ;
689 -> 690 ;
691 [label="X[27] <= 19606.227\ngini = 0.482\nsamples = 20\nvalue = [13, 19]"] ;
690 -> 691 ;
692 [label="X[18] <= 432.0\ngini = 0.499\nsamples = 16\nvalue = [13, 12]"] ;
691 -> 692 ;
693 [label="X[1] <= 50.333\ngini = 0.488\nsamples = 13\nvalue = [8, 11]"] ;
692 -> 693 ;
694 [label="X[7] <= 1225.0\ngini = 0.475\nsamples = 12\nvalue = [7, 11]"] ;
693 -> 694 ;
695 [label="X[23] <= 4225.0\ngini = 0.492\nsamples = 11\nvalue = [7, 9]"] ;
694 -> 695 ;
696 [label="X[21] <= 11372.484\ngini = 0.48\nsamples = 10\nvalue = [6, 9]"] ;
695 -> 696 ;
697 [label="X[21] <= 8413.16\ngini = 0.375\nsamples = 7\nvalue = [3, 9]"] ;
696 -> 697 ;
698 [label="gini = 0.0\nsamples = 1\nvalue = [1, 0]"] ;
697 -> 698 ;
699 [label="X[27] <= 10641.625\ngini = 0.298\nsamples = 6\nvalue = [2, 9]"] ;
697 -> 699 ;
700 [label="X[18] <= 83.5\ngini = 0.444\nsamples = 4\nvalue = [2, 4]"] ;
699 -> 700 ;
701 [label="X[27] <= 9104.54\ngini = 0.48\nsamples = 3\nvalue = [2, 3]"] ;
700 -> 701 ;
702 [label="gini = 0.0\nsamples = 1\nvalue = [0, 3]"] ;
701 -> 702 ;
703 [label="gini = 0.0\nsamples = 2\nvalue = [2, 0]"] ;
701 -> 703 ;
704 [label="gini = 0.0\nsamples = 1\nvalue = [0, 1]"] ;
700 -> 704 ;
705 [label="gini = 0.0\nsamples = 2\nvalue = [0, 5]"] ;
699 -> 705 ;
706 [label="gini = 0.0\nsamples = 3\nvalue = [3, 0]"] ;
696 -> 706 ;
707 [label="gini = 0.0\nsamples = 1\nvalue = [1, 0]"] ;
695 -> 707 ;
708 [label="gini = 0.0\nsamples = 1\nvalue = [0, 2]"] ;
694 -> 708 ;
709 [label="gini = 0.0\nsamples = 1\nvalue = [1, 0]"] ;
693 -> 709 ;
710 [label="X[27] <= 11763.0\ngini = 0.278\nsamples = 3\nvalue = [5, 1]"] ;
692 -> 710 ;
711 [label="gini = 0.0\nsamples = 2\nvalue = [5, 0]"] ;
710 -> 711 ;
712 [label="gini = 0.0\nsamples = 1\nvalue = [0, 1]"] ;
710 -> 712 ;
713 [label="gini = 0.0\nsamples = 4\nvalue = [0, 7]"] ;
691 -> 713 ;
714 [label="gini = 0.0\nsamples = 2\nvalue = [3, 0]"] ;
690 -> 714 ;
715 [label="gini = 0.0\nsamples = 3\nvalue = [6, 0]"] ;
689 -> 715 ;
716 [label="X[16] <= 120.0\ngini = 0.18\nsamples = 7\nvalue = [1, 9]"] ;
682 -> 716 ;
717 [label="gini = 0.0\nsamples = 1\nvalue = [1, 0]"] ;
716 -> 717 ;
718 [label="gini = 0.0\nsamples = 6\nvalue = [0, 9]"] ;
716 -> 718 ;
719 [label="X[23] <= 20219.67\ngini = 0.388\nsamples = 15\nvalue = [14, 5]"] ;
681 -> 719 ;
720 [label="X[23] <= 9402.5\ngini = 0.459\nsamples = 12\nvalue = [9, 5]"] ;
719 -> 720 ;
721 [label="X[20] <= 1778.15\ngini = 0.298\nsamples = 9\nvalue = [9, 2]"] ;
720 -> 721 ;
722 [label="gini = 0.0\nsamples = 1\nvalue = [0, 1]"] ;
721 -> 722 ;
723 [label="X[18] <= 3984.5\ngini = 0.18\nsamples = 8\nvalue = [9, 1]"] ;
721 -> 723 ;
724 [label="X[27] <= 32318.926\ngini = 0.375\nsamples = 3\nvalue = [3, 1]"] ;
723 -> 724 ;
725 [label="gini = 0.0\nsamples = 2\nvalue = [3, 0]"] ;
724 -> 725 ;
726 [label="gini = 0.0\nsamples = 1\nvalue = [0, 1]"] ;
724 -> 726 ;
727 [label="gini = 0.0\nsamples = 5\nvalue = [6, 0]"] ;
723 -> 727 ;
728 [label="gini = 0.0\nsamples = 3\nvalue = [0, 3]"] ;
720 -> 728 ;
729 [label="gini = 0.0\nsamples = 3\nvalue = [5, 0]"] ;
719 -> 729 ;
730 [label="X[24] <= 19303.199\ngini = 0.42\nsamples = 8\nvalue = [7, 3]"] ;
678 -> 730 ;
731 [label="X[18] <= 39.5\ngini = 0.219\nsamples = 6\nvalue = [7, 1]"] ;
730 -> 731 ;
732 [label="gini = 0.0\nsamples = 1\nvalue = [0, 1]"] ;
731 -> 732 ;
733 [label="gini = 0.0\nsamples = 5\nvalue = [7, 0]"] ;
731 -> 733 ;
734 [label="gini = 0.0\nsamples = 2\nvalue = [0, 2]"] ;
730 -> 734 ;
735 [label="gini = 0.0\nsamples = 5\nvalue = [6, 0]"] ;
677 -> 735 ;
736 [label="X[14] <= 8810.5\ngini = 0.371\nsamples = 39\nvalue = [46, 15]"] ;
652 -> 736 ;
737 [label="gini = 0.0\nsamples = 15\nvalue = [25, 0]"] ;
736 -> 737 ;
738 [label="X[2] <= 1.5\ngini = 0.486\nsamples = 24\nvalue = [21, 15]"] ;
736 -> 738 ;
739 [label="X[29] <= 22.5\ngini = 0.469\nsamples = 21\nvalue = [20, 12]"] ;
738 -> 739 ;
740 [label="X[23] <= 61980.523\ngini = 0.384\nsamples = 18\nvalue = [20, 7]"] ;
739 -> 740 ;
741 [label="X[16] <= 46.675\ngini = 0.355\nsamples = 17\nvalue = [20, 6]"] ;
740 -> 741 ;
742 [label="X[14] <= 14545.2\ngini = 0.496\nsamples = 8\nvalue = [6, 5]"] ;
741 -> 742 ;
743 [label="X[27] <= 35843.68\ngini = 0.278\nsamples = 5\nvalue = [5, 1]"] ;
742 -> 743 ;
744 [label="gini = 0.0\nsamples = 3\nvalue = [4, 0]"] ;
743 -> 744 ;
745 [label="X[17] <= 48636.625\ngini = 0.5\nsamples = 2\nvalue = [1, 1]"] ;
743 -> 745 ;
746 [label="gini = 0.0\nsamples = 1\nvalue = [0, 1]"] ;
745 -> 746 ;
747 [label="gini = 0.0\nsamples = 1\nvalue = [1, 0]"] ;
745 -> 747 ;
748 [label="X[23] <= 23513.5\ngini = 0.32\nsamples = 3\nvalue = [1, 4]"] ;
742 -> 748 ;
749 [label="gini = 0.0\nsamples = 2\nvalue = [0, 4]"] ;
748 -> 749 ;
750 [label="gini = 0.0\nsamples = 1\nvalue = [1, 0]"] ;
748 -> 750 ;
751 [label="X[17] <= 36522.0\ngini = 0.124\nsamples = 9\nvalue = [14, 1]"] ;
741 -> 751 ;
752 [label="gini = 0.0\nsamples = 6\nvalue = [12, 0]"] ;
751 -> 752 ;
753 [label="X[23] <= 18678.5\ngini = 0.444\nsamples = 3\nvalue = [2, 1]"] ;
751 -> 753 ;
754 [label="gini = 0.0\nsamples = 1\nvalue = [0, 1]"] ;
753 -> 754 ;
755 [label="gini = 0.0\nsamples = 2\nvalue = [2, 0]"] ;
753 -> 755 ;
756 [label="gini = 0.0\nsamples = 1\nvalue = [0, 1]"] ;
740 -> 756 ;
757 [label="gini = 0.0\nsamples = 3\nvalue = [0, 5]"] ;
739 -> 757 ;
758 [label="X[16] <= 801.975\ngini = 0.375\nsamples = 3\nvalue = [1, 3]"] ;
738 -> 758 ;
759 [label="gini = 0.0\nsamples = 2\nvalue = [0, 3]"] ;
758 -> 759 ;
760 [label="gini = 0.0\nsamples = 1\nvalue = [1, 0]"] ;
758 -> 760 ;
761 [label="X[10] <= 97.0\ngini = 0.499\nsamples = 58\nvalue = [43, 46]"] ;
651 -> 761 ;
762 [label="X[22] <= 286.5\ngini = 0.493\nsamples = 54\nvalue = [36, 46]"] ;
761 -> 762 ;
763 [label="gini = 0.0\nsamples = 6\nvalue = [0, 9]"] ;
762 -> 763 ;
764 [label="X[1] <= 2165.958\ngini = 0.5\nsamples = 48\nvalue = [36, 37]"] ;
762 -> 764 ;
765 [label="X[11] <= 7443.025\ngini = 0.484\nsamples = 42\nvalue = [25, 36]"] ;
764 -> 765 ;
766 [label="X[7] <= 804.5\ngini = 0.444\nsamples = 24\nvalue = [20, 10]"] ;
765 -> 766 ;
767 [label="X[23] <= 2156.0\ngini = 0.42\nsamples = 10\nvalue = [3, 7]"] ;
766 -> 767 ;
768 [label="gini = 0.0\nsamples = 1\nvalue = [1, 0]"] ;
767 -> 768 ;
769 [label="X[29] <= 109.5\ngini = 0.346\nsamples = 9\nvalue = [2, 7]"] ;
767 -> 769 ;
770 [label="X[23] <= 9927.0\ngini = 0.48\nsamples = 5\nvalue = [2, 3]"] ;
769 -> 770 ;
771 [label="gini = 0.0\nsamples = 2\nvalue = [0, 2]"] ;
770 -> 771 ;
772 [label="X[15] <= 15141.5\ngini = 0.444\nsamples = 3\nvalue = [2, 1]"] ;
770 -> 772 ;
773 [label="gini = 0.0\nsamples = 2\nvalue = [2, 0]"] ;
772 -> 773 ;
774 [label="gini = 0.0\nsamples = 1\nvalue = [0, 1]"] ;
772 -> 774 ;
775 [label="gini = 0.0\nsamples = 4\nvalue = [0, 4]"] ;
769 -> 775 ;
776 [label="X[17] <= 11446.0\ngini = 0.255\nsamples = 14\nvalue = [17, 3]"] ;
766 -> 776 ;
777 [label="X[0] <= 384.167\ngini = 0.188\nsamples = 13\nvalue = [17, 2]"] ;
776 -> 777 ;
778 [label="X[22] <= 769.0\ngini = 0.32\nsamples = 8\nvalue = [8, 2]"] ;
777 -> 778 ;
779 [label="gini = 0.0\nsamples = 4\nvalue = [5, 0]"] ;
778 -> 779 ;
780 [label="X[14] <= 8397.0\ngini = 0.48\nsamples = 4\nvalue = [3, 2]"] ;
778 -> 780 ;
781 [label="gini = 0.0\nsamples = 1\nvalue = [0, 1]"] ;
780 -> 781 ;
782 [label="X[9] <= 5445.55\ngini = 0.375\nsamples = 3\nvalue = [3, 1]"] ;
780 -> 782 ;
783 [label="gini = 0.0\nsamples = 2\nvalue = [3, 0]"] ;
782 -> 783 ;
784 [label="gini = 0.0\nsamples = 1\nvalue = [0, 1]"] ;
782 -> 784 ;
785 [label="gini = 0.0\nsamples = 5\nvalue = [9, 0]"] ;
777 -> 785 ;
786 [label="gini = 0.0\nsamples = 1\nvalue = [0, 1]"] ;
776 -> 786 ;
787 [label="X[11] <= 12078.025\ngini = 0.271\nsamples = 18\nvalue = [5, 26]"] ;
765 -> 787 ;
788 [label="gini = 0.0\nsamples = 8\nvalue = [0, 14]"] ;
787 -> 788 ;
789 [label="X[7] <= 88.5\ngini = 0.415\nsamples = 10\nvalue = [5, 12]"] ;
787 -> 789 ;
790 [label="X[21] <= 15031.935\ngini = 0.408\nsamples = 4\nvalue = [5, 2]"] ;
789 -> 790 ;
791 [label="gini = 0.0\nsamples = 2\nvalue = [4, 0]"] ;
790 -> 791 ;
792 [label="X[17] <= 17436.01\ngini = 0.444\nsamples = 2\nvalue = [1, 2]"] ;
790 -> 792 ;
793 [label="gini = 0.0\nsamples = 1\nvalue = [1, 0]"] ;
792 -> 793 ;
794 [label="gini = 0.0\nsamples = 1\nvalue = [0, 2]"] ;
792 -> 794 ;
795 [label="gini = 0.0\nsamples = 6\nvalue = [0, 10]"] ;
789 -> 795 ;
796 [label="X[27] <= 47145.125\ngini = 0.153\nsamples = 6\nvalue = [11, 1]"] ;
764 -> 796 ;
797 [label="gini = 0.0\nsamples = 5\nvalue = [11, 0]"] ;
796 -> 797 ;
798 [label="gini = 0.0\nsamples = 1\nvalue = [0, 1]"] ;
796 -> 798 ;
799 [label="gini = 0.0\nsamples = 4\nvalue = [7, 0]"] ;
761 -> 799 ;
800 [label="gini = 0.0\nsamples = 5\nvalue = [9, 0]"] ;
650 -> 800 ;
801 [label="X[17] <= 1562.5\ngini = 0.266\nsamples = 9\nvalue = [3, 16]"] ;
649 -> 801 ;
802 [label="X[0] <= 4073.25\ngini = 0.124\nsamples = 7\nvalue = [1, 14]"] ;
801 -> 802 ;
803 [label="gini = 0.0\nsamples = 6\nvalue = [0, 14]"] ;
802 -> 803 ;
804 [label="gini = 0.0\nsamples = 1\nvalue = [1, 0]"] ;
802 -> 804 ;
805 [label="X[20] <= 9897.43\ngini = 0.5\nsamples = 2\nvalue = [2, 2]"] ;
801 -> 805 ;
806 [label="gini = 0.0\nsamples = 1\nvalue = [2, 0]"] ;
805 -> 806 ;
807 [label="gini = 0.0\nsamples = 1\nvalue = [0, 2]"] ;
805 -> 807 ;
808 [label="X[1] <= 53.75\ngini = 0.161\nsamples = 18\nvalue = [31, 3]"] ;
648 -> 808 ;
809 [label="gini = 0.0\nsamples = 1\nvalue = [0, 1]"] ;
808 -> 809 ;
810 [label="X[7] <= 69.0\ngini = 0.114\nsamples = 17\nvalue = [31, 2]"] ;
808 -> 810 ;
811 [label="X[13] <= 149.5\ngini = 0.444\nsamples = 4\nvalue = [4, 2]"] ;
810 -> 811 ;
812 [label="X[24] <= 2139.887\ngini = 0.444\nsamples = 2\nvalue = [1, 2]"] ;
811 -> 812 ;
813 [label="gini = 0.0\nsamples = 1\nvalue = [1, 0]"] ;
812 -> 813 ;
814 [label="gini = 0.0\nsamples = 1\nvalue = [0, 2]"] ;
812 -> 814 ;
815 [label="gini = 0.0\nsamples = 2\nvalue = [3, 0]"] ;
811 -> 815 ;
816 [label="gini = 0.0\nsamples = 13\nvalue = [27, 0]"] ;
810 -> 816 ;
817 [label="X[4] <= 276.03\ngini = 0.242\nsamples = 45\nvalue = [61, 10]"] ;
647 -> 817 ;
818 [label="X[11] <= 23054.0\ngini = 0.142\nsamples = 41\nvalue = [60, 5]"] ;
817 -> 818 ;
819 [label="X[27] <= 4255.0\ngini = 0.085\nsamples = 27\nvalue = [43, 2]"] ;
818 -> 819 ;
820 [label="X[9] <= 3163.025\ngini = 0.444\nsamples = 2\nvalue = [2, 1]"] ;
819 -> 820 ;
821 [label="gini = 0.0\nsamples = 1\nvalue = [2, 0]"] ;
820 -> 821 ;
822 [label="gini = 0.0\nsamples = 1\nvalue = [0, 1]"] ;
820 -> 822 ;
823 [label="X[21] <= 116338.477\ngini = 0.046\nsamples = 25\nvalue = [41, 1]"] ;
819 -> 823 ;
824 [label="gini = 0.0\nsamples = 15\nvalue = [23, 0]"] ;
823 -> 824 ;
825 [label="X[18] <= 1306.5\ngini = 0.1\nsamples = 10\nvalue = [18, 1]"] ;
823 -> 825 ;
826 [label="X[7] <= 1214.5\ngini = 0.444\nsamples = 2\nvalue = [2, 1]"] ;
825 -> 826 ;
827 [label="gini = 0.0\nsamples = 1\nvalue = [0, 1]"] ;
826 -> 827 ;
828 [label="gini = 0.0\nsamples = 1\nvalue = [2, 0]"] ;
826 -> 828 ;
829 [label="gini = 0.0\nsamples = 8\nvalue = [16, 0]"] ;
825 -> 829 ;
830 [label="X[18] <= 542.0\ngini = 0.255\nsamples = 14\nvalue = [17, 3]"] ;
818 -> 830 ;
831 [label="X[7] <= 562.0\ngini = 0.444\nsamples = 5\nvalue = [4, 2]"] ;
830 -> 831 ;
832 [label="gini = 0.0\nsamples = 1\nvalue = [0, 2]"] ;
831 -> 832 ;
833 [label="gini = 0.0\nsamples = 4\nvalue = [4, 0]"] ;
831 -> 833 ;
834 [label="X[8] <= 149.5\ngini = 0.133\nsamples = 9\nvalue = [13, 1]"] ;
830 -> 834 ;
835 [label="X[9] <= 40115.0\ngini = 0.245\nsamples = 5\nvalue = [6, 1]"] ;
834 -> 835 ;
836 [label="gini = 0.0\nsamples = 3\nvalue = [3, 0]"] ;
835 -> 836 ;
837 [label="X[22] <= 23308.0\ngini = 0.375\nsamples = 2\nvalue = [3, 1]"] ;
835 -> 837 ;
838 [label="gini = 0.0\nsamples = 1\nvalue = [3, 0]"] ;
837 -> 838 ;
839 [label="gini = 0.0\nsamples = 1\nvalue = [0, 1]"] ;
837 -> 839 ;
840 [label="gini = 0.0\nsamples = 4\nvalue = [7, 0]"] ;
834 -> 840 ;
841 [label="X[13] <= 104.5\ngini = 0.278\nsamples = 4\nvalue = [1, 5]"] ;
817 -> 841 ;
842 [label="gini = 0.0\nsamples = 3\nvalue = [0, 5]"] ;
841 -> 842 ;
843 [label="gini = 0.0\nsamples = 1\nvalue = [1, 0]"] ;
841 -> 843 ;
844 [label="X[6] <= 541.59\ngini = 0.494\nsamples = 274\nvalue = [250, 201]"] ;
646 -> 844 ;
845 [label="X[0] <= 1608.375\ngini = 0.32\nsamples = 12\nvalue = [5, 20]"] ;
844 -> 845 ;
846 [label="gini = 0.0\nsamples = 10\nvalue = [0, 20]"] ;
845 -> 846 ;
847 [label="gini = 0.0\nsamples = 2\nvalue = [5, 0]"] ;
845 -> 847 ;
848 [label="X[8] <= 7731.815\ngini = 0.489\nsamples = 262\nvalue = [245, 181]"] ;
844 -> 848 ;
849 [label="X[0] <= 3065.5\ngini = 0.478\nsamples = 239\nvalue = [234, 153]"] ;
848 -> 849 ;
850 [label="X[0] <= 1962.5\ngini = 0.497\nsamples = 145\nvalue = [126, 109]"] ;
849 -> 850 ;
851 [label="X[14] <= 3702.25\ngini = 0.481\nsamples = 106\nvalue = [108, 73]"] ;
850 -> 851 ;
852 [label="X[28] <= 13228.8\ngini = 0.352\nsamples = 33\nvalue = [44, 13]"] ;
851 -> 852 ;
853 [label="X[20] <= 1009.5\ngini = 0.311\nsamples = 30\nvalue = [42, 10]"] ;
852 -> 853 ;
854 [label="gini = 0.0\nsamples = 1\nvalue = [0, 2]"] ;
853 -> 854 ;
855 [label="X[0] <= 423.079\ngini = 0.269\nsamples = 29\nvalue = [42, 8]"] ;
853 -> 855 ;
856 [label="gini = 0.0\nsamples = 1\nvalue = [0, 2]"] ;
855 -> 856 ;
857 [label="X[6] <= 2403.525\ngini = 0.219\nsamples = 28\nvalue = [42, 6]"] ;
855 -> 857 ;
858 [label="X[26] <= 777.0\ngini = 0.159\nsamples = 26\nvalue = [42, 4]"] ;
857 -> 858 ;
859 [label="gini = 0.0\nsamples = 1\nvalue = [0, 1]"] ;
858 -> 859 ;
860 [label="X[10] <= 143.0\ngini = 0.124\nsamples = 25\nvalue = [42, 3]"] ;
858 -> 860 ;
861 [label="gini = 0.0\nsamples = 22\nvalue = [39, 0]"] ;
860 -> 861 ;
862 [label="X[27] <= 8741.725\ngini = 0.5\nsamples = 3\nvalue = [3, 3]"] ;
860 -> 862 ;
863 [label="gini = 0.0\nsamples = 1\nvalue = [3, 0]"] ;
862 -> 863 ;
864 [label="gini = 0.0\nsamples = 2\nvalue = [0, 3]"] ;
862 -> 864 ;
865 [label="gini = 0.0\nsamples = 2\nvalue = [0, 2]"] ;
857 -> 865 ;
866 [label="X[8] <= 27.5\ngini = 0.48\nsamples = 3\nvalue = [2, 3]"] ;
852 -> 866 ;
867 [label="gini = 0.0\nsamples = 2\nvalue = [0, 3]"] ;
866 -> 867 ;
868 [label="gini = 0.0\nsamples = 1\nvalue = [2, 0]"] ;
866 -> 868 ;
869 [label="X[15] <= 4577.0\ngini = 0.499\nsamples = 73\nvalue = [64, 60]"] ;
851 -> 869 ;
870 [label="gini = 0.0\nsamples = 3\nvalue = [0, 7]"] ;
869 -> 870 ;
871 [label="X[29] <= 705.5\ngini = 0.496\nsamples = 70\nvalue = [64, 53]"] ;
869 -> 871 ;
872 [label="gini = 0.0\nsamples = 3\nvalue = [0, 4]"] ;
871 -> 872 ;
873 [label="X[11] <= 5852.775\ngini = 0.491\nsamples = 67\nvalue = [64, 49]"] ;
871 -> 873 ;
874 [label="X[14] <= 4286.48\ngini = 0.408\nsamples = 25\nvalue = [35, 14]"] ;
873 -> 874 ;
875 [label="gini = 0.0\nsamples = 2\nvalue = [0, 6]"] ;
874 -> 875 ;
876 [label="X[16] <= 2824.095\ngini = 0.303\nsamples = 23\nvalue = [35, 8]"] ;
874 -> 876 ;
877 [label="X[25] <= 1263.0\ngini = 0.219\nsamples = 21\nvalue = [35, 5]"] ;
876 -> 877 ;
878 [label="X[26] <= 1842.5\ngini = 0.36\nsamples = 9\nvalue = [13, 4]"] ;
877 -> 878 ;
879 [label="X[7] <= 59.5\ngini = 0.231\nsamples = 8\nvalue = [13, 2]"] ;
878 -> 879 ;
880 [label="gini = 0.0\nsamples = 1\nvalue = [0, 2]"] ;
879 -> 880 ;
881 [label="gini = 0.0\nsamples = 7\nvalue = [13, 0]"] ;
879 -> 881 ;
882 [label="gini = 0.0\nsamples = 1\nvalue = [0, 2]"] ;
878 -> 882 ;
883 [label="X[10] <= 109.0\ngini = 0.083\nsamples = 12\nvalue = [22, 1]"] ;
877 -> 883 ;
884 [label="gini = 0.0\nsamples = 11\nvalue = [22, 0]"] ;
883 -> 884 ;
885 [label="gini = 0.0\nsamples = 1\nvalue = [0, 1]"] ;
883 -> 885 ;
886 [label="gini = 0.0\nsamples = 2\nvalue = [0, 3]"] ;
876 -> 886 ;
887 [label="X[29] <= 6199.525\ngini = 0.496\nsamples = 42\nvalue = [29, 35]"] ;
873 -> 887 ;
888 [label="X[9] <= 23246.25\ngini = 0.32\nsamples = 20\nvalue = [6, 24]"] ;
887 -> 888 ;
889 [label="X[14] <= 6123.15\ngini = 0.245\nsamples = 18\nvalue = [4, 24]"] ;
888 -> 889 ;
890 [label="gini = 0.0\nsamples = 2\nvalue = [2, 0]"] ;
889 -> 890 ;
891 [label="X[1] <= 138.765\ngini = 0.142\nsamples = 16\nvalue = [2, 24]"] ;
889 -> 891 ;
892 [label="gini = 0.0\nsamples = 1\nvalue = [1, 0]"] ;
891 -> 892 ;
893 [label="X[20] <= 6645.25\ngini = 0.077\nsamples = 15\nvalue = [1, 24]"] ;
891 -> 893 ;
894 [label="X[3] <= 1145.0\ngini = 0.444\nsamples = 2\nvalue = [1, 2]"] ;
893 -> 894 ;
895 [label="gini = 0.0\nsamples = 1\nvalue = [0, 2]"] ;
894 -> 895 ;
896 [label="gini = 0.0\nsamples = 1\nvalue = [1, 0]"] ;
894 -> 896 ;
897 [label="gini = 0.0\nsamples = 13\nvalue = [0, 22]"] ;
893 -> 897 ;
898 [label="gini = 0.0\nsamples = 2\nvalue = [2, 0]"] ;
888 -> 898 ;
899 [label="X[21] <= 12555.824\ngini = 0.438\nsamples = 22\nvalue = [23, 11]"] ;
887 -> 899 ;
900 [label="gini = 0.0\nsamples = 5\nvalue = [8, 0]"] ;
899 -> 900 ;
901 [label="X[18] <= 15200.0\ngini = 0.488\nsamples = 17\nvalue = [15, 11]"] ;
899 -> 901 ;
902 [label="X[13] <= 87.0\ngini = 0.408\nsamples = 13\nvalue = [15, 6]"] ;
901 -> 902 ;
903 [label="X[27] <= 10249.58\ngini = 0.153\nsamples = 7\nvalue = [11, 1]"] ;
902 -> 903 ;
904 [label="X[25] <= 3461.813\ngini = 0.444\nsamples = 2\nvalue = [2, 1]"] ;
903 -> 904 ;
905 [label="gini = 0.0\nsamples = 1\nvalue = [2, 0]"] ;
904 -> 905 ;
906 [label="gini = 0.0\nsamples = 1\nvalue = [0, 1]"] ;
904 -> 906 ;
907 [label="gini = 0.0\nsamples = 5\nvalue = [9, 0]"] ;
903 -> 907 ;
908 [label="X[13] <= 2494.4\ngini = 0.494\nsamples = 6\nvalue = [4, 5]"] ;
902 -> 908 ;
909 [label="X[4] <= 2135.05\ngini = 0.278\nsamples = 4\nvalue = [1, 5]"] ;
908 -> 909 ;
910 [label="gini = 0.0\nsamples = 3\nvalue = [0, 5]"] ;
909 -> 910 ;
911 [label="gini = 0.0\nsamples = 1\nvalue = [1, 0]"] ;
909 -> 911 ;
912 [label="gini = 0.0\nsamples = 2\nvalue = [3, 0]"] ;
908 -> 912 ;
913 [label="gini = 0.0\nsamples = 4\nvalue = [0, 5]"] ;
901 -> 913 ;
914 [label="X[15] <= 12565.24\ngini = 0.444\nsamples = 39\nvalue = [18, 36]"] ;
850 -> 914 ;
915 [label="X[29] <= 4168.395\ngini = 0.293\nsamples = 18\nvalue = [5, 23]"] ;
914 -> 915 ;
916 [label="X[11] <= 2676.5\ngini = 0.494\nsamples = 8\nvalue = [5, 4]"] ;
915 -> 916 ;
917 [label="gini = 0.0\nsamples = 3\nvalue = [0, 3]"] ;
916 -> 917 ;
918 [label="X[9] <= 2493.25\ngini = 0.278\nsamples = 5\nvalue = [5, 1]"] ;
916 -> 918 ;
919 [label="gini = 0.0\nsamples = 1\nvalue = [0, 1]"] ;
918 -> 919 ;
920 [label="gini = 0.0\nsamples = 4\nvalue = [5, 0]"] ;
918 -> 920 ;
921 [label="gini = 0.0\nsamples = 10\nvalue = [0, 19]"] ;
915 -> 921 ;
922 [label="X[2] <= 1.5\ngini = 0.5\nsamples = 21\nvalue = [13, 13]"] ;
914 -> 922 ;
923 [label="X[18] <= 560.5\ngini = 0.278\nsamples = 5\nvalue = [1, 5]"] ;
922 -> 923 ;
924 [label="gini = 0.0\nsamples = 1\nvalue = [1, 0]"] ;
923 -> 924 ;
925 [label="gini = 0.0\nsamples = 4\nvalue = [0, 5]"] ;
923 -> 925 ;
926 [label="X[12] <= 25.11\ngini = 0.48\nsamples = 16\nvalue = [12, 8]"] ;
922 -> 926 ;
927 [label="X[19] <= 173.0\ngini = 0.245\nsamples = 6\nvalue = [1, 6]"] ;
926 -> 927 ;
928 [label="gini = 0.0\nsamples = 5\nvalue = [0, 6]"] ;
927 -> 928 ;
929 [label="gini = 0.0\nsamples = 1\nvalue = [1, 0]"] ;
927 -> 929 ;
930 [label="X[25] <= 6040.833\ngini = 0.26\nsamples = 10\nvalue = [11, 2]"] ;
926 -> 930 ;
931 [label="gini = 0.0\nsamples = 7\nvalue = [10, 0]"] ;
930 -> 931 ;
932 [label="X[17] <= 39608.473\ngini = 0.444\nsamples = 3\nvalue = [1, 2]"] ;
930 -> 932 ;
933 [label="gini = 0.0\nsamples = 2\nvalue = [0, 2]"] ;
932 -> 933 ;
934 [label="gini = 0.0\nsamples = 1\nvalue = [1, 0]"] ;
932 -> 934 ;
935 [label="X[22] <= 2602.0\ngini = 0.411\nsamples = 94\nvalue = [108, 44]"] ;
849 -> 935 ;
936 [label="X[23] <= 8540.0\ngini = 0.373\nsamples = 81\nvalue = [103, 34]"] ;
935 -> 936 ;
937 [label="X[4] <= 3769.25\ngini = 0.408\nsamples = 6\nvalue = [2, 5]"] ;
936 -> 937 ;
938 [label="gini = 0.0\nsamples = 2\nvalue = [2, 0]"] ;
937 -> 938 ;
939 [label="gini = 0.0\nsamples = 4\nvalue = [0, 5]"] ;
937 -> 939 ;
940 [label="X[9] <= 36600.695\ngini = 0.347\nsamples = 75\nvalue = [101, 29]"] ;
936 -> 940 ;
941 [label="X[15] <= 24509.195\ngini = 0.286\nsamples = 62\nvalue = [91, 19]"] ;
940 -> 941 ;
942 [label="X[18] <= 23529.0\ngini = 0.371\nsamples = 34\nvalue = [46, 15]"] ;
941 -> 942 ;
943 [label="X[12] <= 9.975\ngini = 0.328\nsamples = 32\nvalue = [46, 12]"] ;
942 -> 943 ;
944 [label="X[26] <= 18480.0\ngini = 0.452\nsamples = 16\nvalue = [19, 10]"] ;
943 -> 944 ;
945 [label="X[4] <= 4786.0\ngini = 0.365\nsamples = 14\nvalue = [19, 6]"] ;
944 -> 945 ;
946 [label="X[4] <= 4109.167\ngini = 0.48\nsamples = 7\nvalue = [4, 6]"] ;
945 -> 946 ;
947 [label="X[13] <= 679.5\ngini = 0.444\nsamples = 4\nvalue = [4, 2]"] ;
946 -> 947 ;
948 [label="gini = 0.0\nsamples = 2\nvalue = [0, 2]"] ;
947 -> 948 ;
949 [label="gini = 0.0\nsamples = 2\nvalue = [4, 0]"] ;
947 -> 949 ;
950 [label="gini = 0.0\nsamples = 3\nvalue = [0, 4]"] ;
946 -> 950 ;
951 [label="gini = 0.0\nsamples = 7\nvalue = [15, 0]"] ;
945 -> 951 ;
952 [label="gini = 0.0\nsamples = 2\nvalue = [0, 4]"] ;
944 -> 952 ;
953 [label="X[29] <= 18163.324\ngini = 0.128\nsamples = 16\nvalue = [27, 2]"] ;
943 -> 953 ;
954 [label="gini = 0.0\nsamples = 13\nvalue = [23, 0]"] ;
953 -> 954 ;
955 [label="X[11] <= 18858.75\ngini = 0.444\nsamples = 3\nvalue = [4, 2]"] ;
953 -> 955 ;
956 [label="gini = 0.0\nsamples = 1\nvalue = [0, 2]"] ;
955 -> 956 ;
957 [label="gini = 0.0\nsamples = 2\nvalue = [4, 0]"] ;
955 -> 957 ;
958 [label="gini = 0.0\nsamples = 2\nvalue = [0, 3]"] ;
942 -> 958 ;
959 [label="X[3] <= 4268.5\ngini = 0.15\nsamples = 28\nvalue = [45, 4]"] ;
941 -> 959 ;
960 [label="X[18] <= 22209.0\ngini = 0.081\nsamples = 26\nvalue = [45, 2]"] ;
959 -> 960 ;
961 [label="gini = 0.0\nsamples = 21\nvalue = [39, 0]"] ;
960 -> 961 ;
962 [label="X[27] <= 33946.406\ngini = 0.375\nsamples = 5\nvalue = [6, 2]"] ;
960 -> 962 ;
963 [label="X[24] <= 27548.543\ngini = 0.245\nsamples = 4\nvalue = [6, 1]"] ;
962 -> 963 ;
964 [label="gini = 0.0\nsamples = 2\nvalue = [5, 0]"] ;
963 -> 964 ;
965 [label="X[14] <= 34282.625\ngini = 0.5\nsamples = 2\nvalue = [1, 1]"] ;
963 -> 965 ;
966 [label="gini = 0.0\nsamples = 1\nvalue = [0, 1]"] ;
965 -> 966 ;
967 [label="gini = 0.0\nsamples = 1\nvalue = [1, 0]"] ;
965 -> 967 ;
968 [label="gini = 0.0\nsamples = 1\nvalue = [0, 1]"] ;
962 -> 968 ;
969 [label="gini = 0.0\nsamples = 2\nvalue = [0, 2]"] ;
959 -> 969 ;
970 [label="X[23] <= 63670.023\ngini = 0.5\nsamples = 13\nvalue = [10, 10]"] ;
940 -> 970 ;
971 [label="X[12] <= 7624.975\ngini = 0.298\nsamples = 8\nvalue = [2, 9]"] ;
970 -> 971 ;
972 [label="X[28] <= 35737.648\ngini = 0.18\nsamples = 7\nvalue = [1, 9]"] ;
971 -> 972 ;
973 [label="gini = 0.0\nsamples = 6\nvalue = [0, 9]"] ;
972 -> 973 ;
974 [label="gini = 0.0\nsamples = 1\nvalue = [1, 0]"] ;
972 -> 974 ;
975 [label="gini = 0.0\nsamples = 1\nvalue = [1, 0]"] ;
971 -> 975 ;
976 [label="X[3] <= 3989.375\ngini = 0.198\nsamples = 5\nvalue = [8, 1]"] ;
970 -> 976 ;
977 [label="gini = 0.0\nsamples = 4\nvalue = [8, 0]"] ;
976 -> 977 ;
978 [label="gini = 0.0\nsamples = 1\nvalue = [0, 1]"] ;
976 -> 978 ;
979 [label="X[13] <= 1062.5\ngini = 0.444\nsamples = 13\nvalue = [5, 10]"] ;
935 -> 979 ;
980 [label="gini = 0.0\nsamples = 5\nvalue = [0, 7]"] ;
979 -> 980 ;
981 [label="X[28] <= 2086.55\ngini = 0.469\nsamples = 8\nvalue = [5, 3]"] ;
979 -> 981 ;
982 [label="gini = 0.0\nsamples = 4\nvalue = [4, 0]"] ;
981 -> 982 ;
983 [label="X[15] <= 117502.25\ngini = 0.375\nsamples = 4\nvalue = [1, 3]"] ;
981 -> 983 ;
984 [label="gini = 0.0\nsamples = 3\nvalue = [0, 3]"] ;
983 -> 984 ;
985 [label="gini = 0.0\nsamples = 1\nvalue = [1, 0]"] ;
983 -> 985 ;
986 [label="X[19] <= 79.5\ngini = 0.405\nsamples = 23\nvalue = [11, 28]"] ;
848 -> 986 ;
987 [label="X[13] <= 1225.51\ngini = 0.346\nsamples = 22\nvalue = [8, 28]"] ;
986 -> 987 ;
988 [label="X[21] <= 29767.5\ngini = 0.48\nsamples = 4\nvalue = [3, 2]"] ;
987 -> 988 ;
989 [label="gini = 0.0\nsamples = 1\nvalue = [0, 2]"] ;
988 -> 989 ;
990 [label="gini = 0.0\nsamples = 3\nvalue = [3, 0]"] ;
988 -> 990 ;
991 [label="X[12] <= 650.0\ngini = 0.271\nsamples = 18\nvalue = [5, 26]"] ;
987 -> 991 ;
992 [label="X[6] <= 1060.917\ngini = 0.147\nsamples = 14\nvalue = [2, 23]"] ;
991 -> 992 ;
993 [label="gini = 0.0\nsamples = 1\nvalue = [1, 0]"] ;
992 -> 993 ;
994 [label="X[1] <= 2131.917\ngini = 0.08\nsamples = 13\nvalue = [1, 23]"] ;
992 -> 994 ;
995 [label="gini = 0.0\nsamples = 1\nvalue = [1, 0]"] ;
994 -> 995 ;
996 [label="gini = 0.0\nsamples = 12\nvalue = [0, 23]"] ;
994 -> 996 ;
997 [label="X[12] <= 3024.775\ngini = 0.5\nsamples = 4\nvalue = [3, 3]"] ;
991 -> 997 ;
998 [label="gini = 0.0\nsamples = 2\nvalue = [3, 0]"] ;
997 -> 998 ;
999 [label="gini = 0.0\nsamples = 2\nvalue = [0, 3]"] ;
997 -> 999 ;
1000 [label="gini = 0.0\nsamples = 1\nvalue = [3, 0]"] ;
986 -> 1000 ;
1001 [label="X[12] <= 3449.25\ngini = 0.397\nsamples = 22\nvalue = [9, 24]"] ;
483 -> 1001 ;
1002 [label="X[13] <= 2913.0\ngini = 0.252\nsamples = 18\nvalue = [4, 23]"] ;
1001 -> 1002 ;
1003 [label="gini = 0.0\nsamples = 12\nvalue = [0, 21]"] ;
1002 -> 1003 ;
1004 [label="X[9] <= 38007.648\ngini = 0.444\nsamples = 6\nvalue = [4, 2]"] ;
1002 -> 1004 ;
1005 [label="gini = 0.0\nsamples = 4\nvalue = [4, 0]"] ;
1004 -> 1005 ;
1006 [label="gini = 0.0\nsamples = 2\nvalue = [0, 2]"] ;
1004 -> 1006 ;
1007 [label="X[13] <= 3025.5\ngini = 0.278\nsamples = 4\nvalue = [5, 1]"] ;
1001 -> 1007 ;
1008 [label="gini = 0.0\nsamples = 3\nvalue = [5, 0]"] ;
1007 -> 1008 ;
1009 [label="gini = 0.0\nsamples = 1\nvalue = [0, 1]"] ;
1007 -> 1009 ;
1010 [label="X[17] <= 18991.0\ngini = 0.5\nsamples = 4749\nvalue = [3661, 3850]"] ;
0 -> 1010 [labeldistance=2.5, labelangle=-45, headlabel="False"] ;
1011 [label="X[18] <= 9249.5\ngini = 0.5\nsamples = 3335\nvalue = [2684, 2558]"] ;
1010 -> 1011 ;
1012 [label="X[26] <= 4.5\ngini = 0.499\nsamples = 2409\nvalue = [1807, 1954]"] ;
1011 -> 1012 ;
1013 [label="X[9] <= 8692.535\ngini = 0.498\nsamples = 747\nvalue = [629, 546]"] ;
1012 -> 1013 ;
1014 [label="X[16] <= 168.975\ngini = 0.499\nsamples = 630\nvalue = [512, 475]"] ;
1013 -> 1014 ;
1015 [label="X[15] <= 11.5\ngini = 0.496\nsamples = 495\nvalue = [424, 355]"] ;
1014 -> 1015 ;
1016 [label="X[11] <= 2948.5\ngini = 0.48\nsamples = 250\nvalue = [238, 159]"] ;
1015 -> 1016 ;
1017 [label="X[7] <= 298.0\ngini = 0.496\nsamples = 182\nvalue = [154, 130]"] ;
1016 -> 1017 ;
1018 [label="X[21] <= 24.5\ngini = 0.5\nsamples = 115\nvalue = [87, 89]"] ;
1017 -> 1018 ;
1019 [label="gini = 0.0\nsamples = 5\nvalue = [7, 0]"] ;
1018 -> 1019 ;
1020 [label="X[17] <= 5908.725\ngini = 0.499\nsamples = 110\nvalue = [80, 89]"] ;
1018 -> 1020 ;
1021 [label="X[13] <= 132.25\ngini = 0.499\nsamples = 93\nvalue = [76, 70]"] ;
1020 -> 1021 ;
1022 [label="X[14] <= 4333.55\ngini = 0.497\nsamples = 80\nvalue = [58, 67]"] ;
1021 -> 1022 ;
1023 [label="X[19] <= 1847.5\ngini = 0.492\nsamples = 76\nvalue = [52, 67]"] ;
1022 -> 1023 ;
1024 [label="X[7] <= 47.5\ngini = 0.5\nsamples = 67\nvalue = [52, 50]"] ;
1023 -> 1024 ;
1025 [label="X[20] <= 402.3\ngini = 0.487\nsamples = 51\nvalue = [47, 34]"] ;
1024 -> 1025 ;
1026 [label="X[21] <= 5237.075\ngini = 0.351\nsamples = 12\nvalue = [17, 5]"] ;
1025 -> 1026 ;
1027 [label="X[23] <= 350.0\ngini = 0.133\nsamples = 7\nvalue = [13, 1]"] ;
1026 -> 1027 ;
1028 [label="gini = 0.0\nsamples = 4\nvalue = [10, 0]"] ;
1027 -> 1028 ;
1029 [label="X[23] <= 375.5\ngini = 0.375\nsamples = 3\nvalue = [3, 1]"] ;
1027 -> 1029 ;
1030 [label="gini = 0.0\nsamples = 1\nvalue = [0, 1]"] ;
1029 -> 1030 ;
1031 [label="gini = 0.0\nsamples = 2\nvalue = [3, 0]"] ;
1029 -> 1031 ;
1032 [label="X[22] <= 148.0\ngini = 0.5\nsamples = 5\nvalue = [4, 4]"] ;
1026 -> 1032 ;
1033 [label="X[10] <= 319.0\ngini = 0.49\nsamples = 4\nvalue = [3, 4]"] ;
1032 -> 1033 ;
1034 [label="gini = 0.0\nsamples = 2\nvalue = [0, 4]"] ;
1033 -> 1034 ;
1035 [label="gini = 0.0\nsamples = 2\nvalue = [3, 0]"] ;
1033 -> 1035 ;
1036 [label="gini = 0.0\nsamples = 1\nvalue = [1, 0]"] ;
1032 -> 1036 ;
1037 [label="X[22] <= 1423.0\ngini = 0.5\nsamples = 39\nvalue = [30, 29]"] ;
1025 -> 1037 ;
1038 [label="X[10] <= 816.5\ngini = 0.496\nsamples = 37\nvalue = [24, 29]"] ;
1037 -> 1038 ;
1039 [label="X[14] <= 504.0\ngini = 0.219\nsamples = 13\nvalue = [2, 14]"] ;
1038 -> 1039 ;
1040 [label="X[16] <= 23.175\ngini = 0.408\nsamples = 5\nvalue = [2, 5]"] ;
1039 -> 1040 ;
1041 [label="X[18] <= 25.0\ngini = 0.278\nsamples = 4\nvalue = [1, 5]"] ;
1040 -> 1041 ;
1042 [label="gini = 0.0\nsamples = 1\nvalue = [1, 0]"] ;
1041 -> 1042 ;
1043 [label="gini = 0.0\nsamples = 3\nvalue = [0, 5]"] ;
1041 -> 1043 ;
1044 [label="gini = 0.0\nsamples = 1\nvalue = [1, 0]"] ;
1040 -> 1044 ;
1045 [label="gini = 0.0\nsamples = 8\nvalue = [0, 9]"] ;
1039 -> 1045 ;
1046 [label="X[10] <= 1565.0\ngini = 0.482\nsamples = 24\nvalue = [22, 15]"] ;
1038 -> 1046 ;
1047 [label="X[14] <= 999.5\ngini = 0.412\nsamples = 20\nvalue = [22, 9]"] ;
1046 -> 1047 ;
1048 [label="gini = 0.0\nsamples = 6\nvalue = [10, 0]"] ;
1047 -> 1048 ;
1049 [label="X[11] <= 1322.33\ngini = 0.49\nsamples = 14\nvalue = [12, 9]"] ;
1047 -> 1049 ;
1050 [label="X[14] <= 1255.0\ngini = 0.375\nsamples = 9\nvalue = [3, 9]"] ;
1049 -> 1050 ;
1051 [label="X[23] <= 1182.5\ngini = 0.49\nsamples = 6\nvalue = [3, 4]"] ;
1050 -> 1051 ;
1052 [label="gini = 0.0\nsamples = 3\nvalue = [0, 3]"] ;
1051 -> 1052 ;
1053 [label="X[19] <= 1193.5\ngini = 0.375\nsamples = 3\nvalue = [3, 1]"] ;
1051 -> 1053 ;
1054 [label="gini = 0.0\nsamples = 1\nvalue = [2, 0]"] ;
1053 -> 1054 ;
1055 [label="X[18] <= 644.0\ngini = 0.5\nsamples = 2\nvalue = [1, 1]"] ;
1053 -> 1055 ;
1056 [label="gini = 0.0\nsamples = 1\nvalue = [0, 1]"] ;
1055 -> 1056 ;
1057 [label="gini = 0.0\nsamples = 1\nvalue = [1, 0]"] ;
1055 -> 1057 ;
1058 [label="gini = 0.0\nsamples = 3\nvalue = [0, 5]"] ;
1050 -> 1058 ;
1059 [label="gini = 0.0\nsamples = 5\nvalue = [9, 0]"] ;
1049 -> 1059 ;
1060 [label="gini = 0.0\nsamples = 4\nvalue = [0, 6]"] ;
1046 -> 1060 ;
1061 [label="gini = 0.0\nsamples = 2\nvalue = [6, 0]"] ;
1037 -> 1061 ;
1062 [label="X[24] <= 333.0\ngini = 0.363\nsamples = 16\nvalue = [5, 16]"] ;
1024 -> 1062 ;
1063 [label="X[20] <= 621.5\ngini = 0.459\nsamples = 10\nvalue = [5, 9]"] ;
1062 -> 1063 ;
1064 [label="X[29] <= 327.5\ngini = 0.32\nsamples = 6\nvalue = [2, 8]"] ;
1063 -> 1064 ;
1065 [label="gini = 0.0\nsamples = 5\nvalue = [0, 8]"] ;
1064 -> 1065 ;
1066 [label="gini = 0.0\nsamples = 1\nvalue = [2, 0]"] ;
1064 -> 1066 ;
1067 [label="X[14] <= 1481.5\ngini = 0.375\nsamples = 4\nvalue = [3, 1]"] ;
1063 -> 1067 ;
1068 [label="gini = 0.0\nsamples = 3\nvalue = [3, 0]"] ;
1067 -> 1068 ;
1069 [label="gini = 0.0\nsamples = 1\nvalue = [0, 1]"] ;
1067 -> 1069 ;
1070 [label="gini = 0.0\nsamples = 6\nvalue = [0, 7]"] ;
1062 -> 1070 ;
1071 [label="gini = 0.0\nsamples = 9\nvalue = [0, 17]"] ;
1023 -> 1071 ;
1072 [label="gini = 0.0\nsamples = 4\nvalue = [6, 0]"] ;
1022 -> 1072 ;
1073 [label="X[18] <= 161.5\ngini = 0.245\nsamples = 13\nvalue = [18, 3]"] ;
1021 -> 1073 ;
1074 [label="gini = 0.0\nsamples = 5\nvalue = [10, 0]"] ;
1073 -> 1074 ;
1075 [label="X[21] <= 2004.5\ngini = 0.397\nsamples = 8\nvalue = [8, 3]"] ;
1073 -> 1075 ;
1076 [label="X[1] <= 248.886\ngini = 0.444\nsamples = 3\nvalue = [1, 2]"] ;
1075 -> 1076 ;
1077 [label="gini = 0.0\nsamples = 2\nvalue = [0, 2]"] ;
1076 -> 1077 ;
1078 [label="gini = 0.0\nsamples = 1\nvalue = [1, 0]"] ;
1076 -> 1078 ;
1079 [label="X[8] <= 956.5\ngini = 0.219\nsamples = 5\nvalue = [7, 1]"] ;
1075 -> 1079 ;
1080 [label="gini = 0.0\nsamples = 4\nvalue = [7, 0]"] ;
1079 -> 1080 ;
1081 [label="gini = 0.0\nsamples = 1\nvalue = [0, 1]"] ;
1079 -> 1081 ;
1082 [label="X[27] <= 7500.0\ngini = 0.287\nsamples = 17\nvalue = [4, 19]"] ;
1020 -> 1082 ;
1083 [label="gini = 0.0\nsamples = 2\nvalue = [2, 0]"] ;
1082 -> 1083 ;
1084 [label="X[28] <= 14217.55\ngini = 0.172\nsamples = 15\nvalue = [2, 19]"] ;
1082 -> 1084 ;
1085 [label="gini = 0.0\nsamples = 13\nvalue = [0, 19]"] ;
1084 -> 1085 ;
1086 [label="gini = 0.0\nsamples = 2\nvalue = [2, 0]"] ;
1084 -> 1086 ;
1087 [label="X[11] <= 963.5\ngini = 0.471\nsamples = 67\nvalue = [67, 41]"] ;
1017 -> 1087 ;
1088 [label="X[11] <= 764.0\ngini = 0.418\nsamples = 40\nvalue = [52, 22]"] ;
1087 -> 1088 ;
1089 [label="X[9] <= 224.295\ngini = 0.461\nsamples = 36\nvalue = [39, 22]"] ;
1088 -> 1089 ;
1090 [label="X[22] <= 260.5\ngini = 0.364\nsamples = 28\nvalue = [35, 11]"] ;
1089 -> 1090 ;
1091 [label="X[17] <= 13585.0\ngini = 0.239\nsamples = 22\nvalue = [31, 5]"] ;
1090 -> 1091 ;
1092 [label="X[23] <= 3913.15\ngini = 0.161\nsamples = 21\nvalue = [31, 3]"] ;
1091 -> 1092 ;
1093 [label="gini = 0.0\nsamples = 15\nvalue = [27, 0]"] ;
1092 -> 1093 ;
1094 [label="X[17] <= 2234.0\ngini = 0.49\nsamples = 6\nvalue = [4, 3]"] ;
1092 -> 1094 ;
1095 [label="X[16] <= 116.1\ngini = 0.48\nsamples = 4\nvalue = [2, 3]"] ;
1094 -> 1095 ;
1096 [label="X[16] <= 47.25\ngini = 0.5\nsamples = 3\nvalue = [2, 2]"] ;
1095 -> 1096 ;
1097 [label="X[19] <= 14977.0\ngini = 0.444\nsamples = 2\nvalue = [1, 2]"] ;
1096 -> 1097 ;
1098 [label="gini = 0.0\nsamples = 1\nvalue = [0, 2]"] ;
1097 -> 1098 ;
1099 [label="gini = 0.0\nsamples = 1\nvalue = [1, 0]"] ;
1097 -> 1099 ;
1100 [label="gini = 0.0\nsamples = 1\nvalue = [1, 0]"] ;
1096 -> 1100 ;
1101 [label="gini = 0.0\nsamples = 1\nvalue = [0, 1]"] ;
1095 -> 1101 ;
1102 [label="gini = 0.0\nsamples = 2\nvalue = [2, 0]"] ;
1094 -> 1102 ;
1103 [label="gini = 0.0\nsamples = 1\nvalue = [0, 2]"] ;
1091 -> 1103 ;
1104 [label="X[23] <= 9724.0\ngini = 0.48\nsamples = 6\nvalue = [4, 6]"] ;
1090 -> 1104 ;
1105 [label="gini = 0.0\nsamples = 4\nvalue = [0, 6]"] ;
1104 -> 1105 ;
1106 [label="gini = 0.0\nsamples = 2\nvalue = [4, 0]"] ;
1104 -> 1106 ;
1107 [label="X[14] <= 4482.295\ngini = 0.391\nsamples = 8\nvalue = [4, 11]"] ;
1089 -> 1107 ;
1108 [label="X[24] <= 119.795\ngini = 0.26\nsamples = 7\nvalue = [2, 11]"] ;
1107 -> 1108 ;
1109 [label="X[20] <= 599.5\ngini = 0.346\nsamples = 4\nvalue = [2, 7]"] ;
1108 -> 1109 ;
1110 [label="gini = 0.0\nsamples = 1\nvalue = [2, 0]"] ;
1109 -> 1110 ;
1111 [label="gini = 0.0\nsamples = 3\nvalue = [0, 7]"] ;
1109 -> 1111 ;
1112 [label="gini = 0.0\nsamples = 3\nvalue = [0, 4]"] ;
1108 -> 1112 ;
1113 [label="gini = 0.0\nsamples = 1\nvalue = [2, 0]"] ;
1107 -> 1113 ;
1114 [label="gini = 0.0\nsamples = 4\nvalue = [13, 0]"] ;
1088 -> 1114 ;
1115 [label="X[18] <= 6814.125\ngini = 0.493\nsamples = 27\nvalue = [15, 19]"] ;
1087 -> 1115 ;
1116 [label="X[8] <= 301.5\ngini = 0.482\nsamples = 26\nvalue = [13, 19]"] ;
1115 -> 1116 ;
1117 [label="X[8] <= 134.5\ngini = 0.436\nsamples = 23\nvalue = [9, 19]"] ;
1116 -> 1117 ;
1118 [label="X[20] <= 2613.275\ngini = 0.453\nsamples = 22\nvalue = [9, 17]"] ;
1117 -> 1118 ;
1119 [label="X[7] <= 1173.7\ngini = 0.498\nsamples = 13\nvalue = [8, 7]"] ;
1118 -> 1119 ;
1120 [label="X[27] <= 620.75\ngini = 0.444\nsamples = 10\nvalue = [8, 4]"] ;
1119 -> 1120 ;
1121 [label="gini = 0.0\nsamples = 2\nvalue = [0, 2]"] ;
1120 -> 1121 ;
1122 [label="X[24] <= 919.855\ngini = 0.32\nsamples = 8\nvalue = [8, 2]"] ;
1120 -> 1122 ;
1123 [label="X[28] <= 663.5\ngini = 0.198\nsamples = 7\nvalue = [8, 1]"] ;
1122 -> 1123 ;
1124 [label="X[21] <= 1921.5\ngini = 0.32\nsamples = 5\nvalue = [4, 1]"] ;
1123 -> 1124 ;
1125 [label="X[20] <= 1445.405\ngini = 0.5\nsamples = 2\nvalue = [1, 1]"] ;
1124 -> 1125 ;
1126 [label="gini = 0.0\nsamples = 1\nvalue = [1, 0]"] ;
1125 -> 1126 ;
1127 [label="gini = 0.0\nsamples = 1\nvalue = [0, 1]"] ;
1125 -> 1127 ;
1128 [label="gini = 0.0\nsamples = 3\nvalue = [3, 0]"] ;
1124 -> 1128 ;
1129 [label="gini = 0.0\nsamples = 2\nvalue = [4, 0]"] ;
1123 -> 1129 ;
1130 [label="gini = 0.0\nsamples = 1\nvalue = [0, 1]"] ;
1122 -> 1130 ;
1131 [label="gini = 0.0\nsamples = 3\nvalue = [0, 3]"] ;
1119 -> 1131 ;
1132 [label="X[17] <= 10813.0\ngini = 0.165\nsamples = 9\nvalue = [1, 10]"] ;
1118 -> 1132 ;
1133 [label="gini = 0.0\nsamples = 8\nvalue = [0, 10]"] ;
1132 -> 1133 ;
1134 [label="gini = 0.0\nsamples = 1\nvalue = [1, 0]"] ;
1132 -> 1134 ;
1135 [label="gini = 0.0\nsamples = 1\nvalue = [0, 2]"] ;
1117 -> 1135 ;
1136 [label="gini = 0.0\nsamples = 3\nvalue = [4, 0]"] ;
1116 -> 1136 ;
1137 [label="gini = 0.0\nsamples = 1\nvalue = [2, 0]"] ;
1115 -> 1137 ;
1138 [label="X[21] <= 3782.32\ngini = 0.382\nsamples = 68\nvalue = [84, 29]"] ;
1016 -> 1138 ;
1139 [label="X[18] <= 3404.5\ngini = 0.462\nsamples = 36\nvalue = [37, 21]"] ;
1138 -> 1139 ;
1140 [label="X[29] <= 3516.25\ngini = 0.422\nsamples = 32\nvalue = [37, 16]"] ;
1139 -> 1140 ;
1141 [label="X[9] <= 4092.0\ngini = 0.497\nsamples = 17\nvalue = [15, 13]"] ;
1140 -> 1141 ;
1142 [label="X[21] <= 3268.0\ngini = 0.415\nsamples = 12\nvalue = [12, 5]"] ;
1141 -> 1142 ;
1143 [label="X[17] <= 9208.95\ngini = 0.26\nsamples = 8\nvalue = [11, 2]"] ;
1142 -> 1143 ;
1144 [label="gini = 0.0\nsamples = 7\nvalue = [11, 0]"] ;
1143 -> 1144 ;
1145 [label="gini = 0.0\nsamples = 1\nvalue = [0, 2]"] ;
1143 -> 1145 ;
1146 [label="X[23] <= 3419.5\ngini = 0.375\nsamples = 4\nvalue = [1, 3]"] ;
1142 -> 1146 ;
1147 [label="gini = 0.0\nsamples = 2\nvalue = [0, 2]"] ;
1146 -> 1147 ;
1148 [label="X[7] <= 150.0\ngini = 0.5\nsamples = 2\nvalue = [1, 1]"] ;
1146 -> 1148 ;
1149 [label="gini = 0.0\nsamples = 1\nvalue = [0, 1]"] ;
1148 -> 1149 ;
1150 [label="gini = 0.0\nsamples = 1\nvalue = [1, 0]"] ;
1148 -> 1150 ;
1151 [label="X[17] <= 6202.5\ngini = 0.397\nsamples = 5\nvalue = [3, 8]"] ;
1141 -> 1151 ;
1152 [label="gini = 0.0\nsamples = 4\nvalue = [0, 8]"] ;
1151 -> 1152 ;
1153 [label="gini = 0.0\nsamples = 1\nvalue = [3, 0]"] ;
1151 -> 1153 ;
1154 [label="X[21] <= 3740.32\ngini = 0.211\nsamples = 15\nvalue = [22, 3]"] ;
1140 -> 1154 ;
1155 [label="X[10] <= 5844.25\ngini = 0.153\nsamples = 14\nvalue = [22, 2]"] ;
1154 -> 1155 ;
1156 [label="gini = 0.0\nsamples = 8\nvalue = [15, 0]"] ;
1155 -> 1156 ;
1157 [label="X[9] <= 7237.0\ngini = 0.346\nsamples = 6\nvalue = [7, 2]"] ;
1155 -> 1157 ;
1158 [label="X[17] <= 5989.9\ngini = 0.444\nsamples = 3\nvalue = [1, 2]"] ;
1157 -> 1158 ;
1159 [label="gini = 0.0\nsamples = 1\nvalue = [1, 0]"] ;
1158 -> 1159 ;
1160 [label="gini = 0.0\nsamples = 2\nvalue = [0, 2]"] ;
1158 -> 1160 ;
1161 [label="gini = 0.0\nsamples = 3\nvalue = [6, 0]"] ;
1157 -> 1161 ;
1162 [label="gini = 0.0\nsamples = 1\nvalue = [0, 1]"] ;
1154 -> 1162 ;
1163 [label="gini = 0.0\nsamples = 4\nvalue = [0, 5]"] ;
1139 -> 1163 ;
1164 [label="X[7] <= 3426.0\ngini = 0.249\nsamples = 32\nvalue = [47, 8]"] ;
1138 -> 1164 ;
1165 [label="X[10] <= 8782.5\ngini = 0.089\nsamples = 24\nvalue = [41, 2]"] ;
1164 -> 1165 ;
1166 [label="X[24] <= 671.5\ngini = 0.049\nsamples = 22\nvalue = [39, 1]"] ;
1165 -> 1166 ;
1167 [label="X[16] <= 16.875\ngini = 0.124\nsamples = 8\nvalue = [14, 1]"] ;
1166 -> 1167 ;
1168 [label="X[14] <= 3289.875\ngini = 0.165\nsamples = 6\nvalue = [10, 1]"] ;
1167 -> 1168 ;
1169 [label="X[14] <= 3178.875\ngini = 0.375\nsamples = 2\nvalue = [3, 1]"] ;
1168 -> 1169 ;
1170 [label="gini = 0.0\nsamples = 1\nvalue = [3, 0]"] ;
1169 -> 1170 ;
1171 [label="gini = 0.0\nsamples = 1\nvalue = [0, 1]"] ;
1169 -> 1171 ;
1172 [label="gini = 0.0\nsamples = 4\nvalue = [7, 0]"] ;
1168 -> 1172 ;
1173 [label="gini = 0.0\nsamples = 2\nvalue = [4, 0]"] ;
1167 -> 1173 ;
1174 [label="gini = 0.0\nsamples = 14\nvalue = [25, 0]"] ;
1166 -> 1174 ;
1175 [label="X[9] <= 6230.5\ngini = 0.444\nsamples = 2\nvalue = [2, 1]"] ;
1165 -> 1175 ;
1176 [label="gini = 0.0\nsamples = 1\nvalue = [0, 1]"] ;
1175 -> 1176 ;
1177 [label="gini = 0.0\nsamples = 1\nvalue = [2, 0]"] ;
1175 -> 1177 ;
1178 [label="X[29] <= 511.0\ngini = 0.5\nsamples = 8\nvalue = [6, 6]"] ;
1164 -> 1178 ;
1179 [label="gini = 0.0\nsamples = 3\nvalue = [5, 0]"] ;
1178 -> 1179 ;
1180 [label="X[19] <= 4283.5\ngini = 0.245\nsamples = 5\nvalue = [1, 6]"] ;
1178 -> 1180 ;
1181 [label="gini = 0.0\nsamples = 1\nvalue = [1, 0]"] ;
1180 -> 1181 ;
1182 [label="gini = 0.0\nsamples = 4\nvalue = [0, 6]"] ;
1180 -> 1182 ;
1183 [label="X[17] <= 12111.71\ngini = 0.5\nsamples = 245\nvalue = [186, 196]"] ;
1015 -> 1183 ;
1184 [label="X[15] <= 196.5\ngini = 0.498\nsamples = 238\nvalue = [174, 195]"] ;
1183 -> 1184 ;
1185 [label="X[29] <= 462.5\ngini = 0.312\nsamples = 19\nvalue = [6, 25]"] ;
1184 -> 1185 ;
1186 [label="X[18] <= 1950.0\ngini = 0.42\nsamples = 13\nvalue = [6, 14]"] ;
1185 -> 1186 ;
1187 [label="X[19] <= 3116.5\ngini = 0.5\nsamples = 6\nvalue = [5, 5]"] ;
1186 -> 1187 ;
1188 [label="X[16] <= 9.27\ngini = 0.278\nsamples = 3\nvalue = [5, 1]"] ;
1187 -> 1188 ;
1189 [label="gini = 0.0\nsamples = 2\nvalue = [5, 0]"] ;
1188 -> 1189 ;
1190 [label="gini = 0.0\nsamples = 1\nvalue = [0, 1]"] ;
1188 -> 1190 ;
1191 [label="gini = 0.0\nsamples = 3\nvalue = [0, 4]"] ;
1187 -> 1191 ;
1192 [label="X[0] <= 12.0\ngini = 0.18\nsamples = 7\nvalue = [1, 9]"] ;
1186 -> 1192 ;
1193 [label="gini = 0.0\nsamples = 3\nvalue = [0, 4]"] ;
1192 -> 1193 ;
1194 [label="X[9] <= 804.5\ngini = 0.278\nsamples = 4\nvalue = [1, 5]"] ;
1192 -> 1194 ;
1195 [label="gini = 0.0\nsamples = 2\nvalue = [0, 4]"] ;
1194 -> 1195 ;
1196 [label="X[20] <= 1761.0\ngini = 0.5\nsamples = 2\nvalue = [1, 1]"] ;
1194 -> 1196 ;
1197 [label="gini = 0.0\nsamples = 1\nvalue = [1, 0]"] ;
1196 -> 1197 ;
1198 [label="gini = 0.0\nsamples = 1\nvalue = [0, 1]"] ;
1196 -> 1198 ;
1199 [label="gini = 0.0\nsamples = 6\nvalue = [0, 11]"] ;
1185 -> 1199 ;
1200 [label="X[7] <= 735.515\ngini = 0.5\nsamples = 219\nvalue = [168, 170]"] ;
1184 -> 1200 ;
1201 [label="X[9] <= 2348.0\ngini = 0.482\nsamples = 100\nvalue = [94, 64]"] ;
1200 -> 1201 ;
1202 [label="X[20] <= 1262.0\ngini = 0.438\nsamples = 68\nvalue = [73, 35]"] ;
1201 -> 1202 ;
1203 [label="X[19] <= 501.2\ngini = 0.202\nsamples = 21\nvalue = [31, 4]"] ;
1202 -> 1203 ;
1204 [label="X[21] <= 9742.5\ngini = 0.355\nsamples = 9\nvalue = [10, 3]"] ;
1203 -> 1204 ;
1205 [label="X[18] <= 911.0\ngini = 0.5\nsamples = 5\nvalue = [3, 3]"] ;
1204 -> 1205 ;
1206 [label="X[10] <= 303.5\ngini = 0.375\nsamples = 3\nvalue = [3, 1]"] ;
1205 -> 1206 ;
1207 [label="gini = 0.0\nsamples = 1\nvalue = [2, 0]"] ;
1206 -> 1207 ;
1208 [label="X[27] <= 4994.0\ngini = 0.5\nsamples = 2\nvalue = [1, 1]"] ;
1206 -> 1208 ;
1209 [label="gini = 0.0\nsamples = 1\nvalue = [0, 1]"] ;
1208 -> 1209 ;
1210 [label="gini = 0.0\nsamples = 1\nvalue = [1, 0]"] ;
1208 -> 1210 ;
1211 [label="gini = 0.0\nsamples = 2\nvalue = [0, 2]"] ;
1205 -> 1211 ;
1212 [label="gini = 0.0\nsamples = 4\nvalue = [7, 0]"] ;
1204 -> 1212 ;
1213 [label="X[29] <= 19.5\ngini = 0.087\nsamples = 12\nvalue = [21, 1]"] ;
1203 -> 1213 ;
1214 [label="X[2] <= 1.5\ngini = 0.278\nsamples = 4\nvalue = [5, 1]"] ;
1213 -> 1214 ;
1215 [label="gini = 0.0\nsamples = 3\nvalue = [5, 0]"] ;
1214 -> 1215 ;
1216 [label="gini = 0.0\nsamples = 1\nvalue = [0, 1]"] ;
1214 -> 1216 ;
1217 [label="gini = 0.0\nsamples = 8\nvalue = [16, 0]"] ;
1213 -> 1217 ;
1218 [label="X[23] <= 5142.5\ngini = 0.489\nsamples = 47\nvalue = [42, 31]"] ;
1202 -> 1218 ;
1219 [label="X[16] <= 38.65\ngini = 0.499\nsamples = 38\nvalue = [31, 29]"] ;
1218 -> 1219 ;
1220 [label="X[11] <= 2096.625\ngini = 0.493\nsamples = 34\nvalue = [23, 29]"] ;
1219 -> 1220 ;
1221 [label="X[17] <= 2648.295\ngini = 0.455\nsamples = 25\nvalue = [14, 26]"] ;
1220 -> 1221 ;
1222 [label="X[15] <= 681.0\ngini = 0.48\nsamples = 23\nvalue = [14, 21]"] ;
1221 -> 1222 ;
1223 [label="X[23] <= 1506.0\ngini = 0.346\nsamples = 5\nvalue = [7, 2]"] ;
1222 -> 1223 ;
1224 [label="X[21] <= 13111.4\ngini = 0.444\nsamples = 2\nvalue = [1, 2]"] ;
1223 -> 1224 ;
1225 [label="gini = 0.0\nsamples = 1\nvalue = [0, 2]"] ;
1224 -> 1225 ;
1226 [label="gini = 0.0\nsamples = 1\nvalue = [1, 0]"] ;
1224 -> 1226 ;
1227 [label="gini = 0.0\nsamples = 3\nvalue = [6, 0]"] ;
1223 -> 1227 ;
1228 [label="X[18] <= 89.5\ngini = 0.393\nsamples = 18\nvalue = [7, 19]"] ;
1222 -> 1228 ;
1229 [label="gini = 0.0\nsamples = 3\nvalue = [4, 0]"] ;
1228 -> 1229 ;
1230 [label="X[18] <= 1006.5\ngini = 0.236\nsamples = 15\nvalue = [3, 19]"] ;
1228 -> 1230 ;
1231 [label="X[29] <= 200.0\ngini = 0.444\nsamples = 5\nvalue = [3, 6]"] ;
1230 -> 1231 ;
1232 [label="X[2] <= 0.5\ngini = 0.48\nsamples = 3\nvalue = [3, 2]"] ;
1231 -> 1232 ;
1233 [label="X[18] <= 442.0\ngini = 0.444\nsamples = 2\nvalue = [1, 2]"] ;
1232 -> 1233 ;
1234 [label="gini = 0.0\nsamples = 1\nvalue = [1, 0]"] ;
1233 -> 1234 ;
1235 [label="gini = 0.0\nsamples = 1\nvalue = [0, 2]"] ;
1233 -> 1235 ;
1236 [label="gini = 0.0\nsamples = 1\nvalue = [2, 0]"] ;
1232 -> 1236 ;
1237 [label="gini = 0.0\nsamples = 2\nvalue = [0, 4]"] ;
1231 -> 1237 ;
1238 [label="gini = 0.0\nsamples = 10\nvalue = [0, 13]"] ;
1230 -> 1238 ;
1239 [label="gini = 0.0\nsamples = 2\nvalue = [0, 5]"] ;
1221 -> 1239 ;
1240 [label="X[27] <= 8763.525\ngini = 0.375\nsamples = 9\nvalue = [9, 3]"] ;
1220 -> 1240 ;
1241 [label="gini = 0.0\nsamples = 6\nvalue = [8, 0]"] ;
1240 -> 1241 ;
1242 [label="X[16] <= 12.475\ngini = 0.375\nsamples = 3\nvalue = [1, 3]"] ;
1240 -> 1242 ;
1243 [label="gini = 0.0\nsamples = 2\nvalue = [0, 3]"] ;
1242 -> 1243 ;
1244 [label="gini = 0.0\nsamples = 1\nvalue = [1, 0]"] ;
1242 -> 1244 ;
1245 [label="gini = 0.0\nsamples = 4\nvalue = [8, 0]"] ;
1219 -> 1245 ;
1246 [label="X[20] <= 3141.5\ngini = 0.26\nsamples = 9\nvalue = [11, 2]"] ;
1218 -> 1246 ;
1247 [label="gini = 0.0\nsamples = 1\nvalue = [0, 1]"] ;
1246 -> 1247 ;
1248 [label="X[14] <= 4187.0\ngini = 0.153\nsamples = 8\nvalue = [11, 1]"] ;
1246 -> 1248 ;
1249 [label="gini = 0.0\nsamples = 1\nvalue = [0, 1]"] ;
1248 -> 1249 ;
1250 [label="gini = 0.0\nsamples = 7\nvalue = [11, 0]"] ;
1248 -> 1250 ;
1251 [label="X[0] <= 2561.0\ngini = 0.487\nsamples = 32\nvalue = [21, 29]"] ;
1201 -> 1251 ;
1252 [label="X[17] <= 2790.0\ngini = 0.432\nsamples = 25\nvalue = [12, 26]"] ;
1251 -> 1252 ;
1253 [label="X[14] <= 2650.0\ngini = 0.499\nsamples = 16\nvalue = [12, 11]"] ;
1252 -> 1253 ;
